{"learner":{"attributes":{"scikit_learn":"{\"_estimator_type\": \"classifier\"}"},"feature_names":["candidate_accepted_by_rule","panel_confidence","panel_margin","panel_support","panel_conflict","support_conflict_ratio","panel_samples","panel_haplotypes","anchors","best_vs_second_margin","n_block_candidates"],"feature_types":["float","float","float","float","float","float","float","float","float","float","float"],"gradient_booster":{"model":{"cats":{"enc":[],"feature_segments":[],"sorted_idx":[]},"gbtree_model_param":{"num_parallel_tree":"1","num_trees":"150"},"iteration_indptr":[0,1,2,3,4,5,6,7,8,9,10,11,12,13,14,15,16,17,18,19,20,21,22,23,24,25,26,27,28,29,30,31,32,33,34,35,36,37,38,39,40,41,42,43,44,45,46,47,48,49,50,51,52,53,54,55,56,57,58,59,60,61,62,63,64,65,66,67,68,69,70,71,72,73,74,75,76,77,78,79,80,81,82,83,84,85,86,87,88,89,90,91,92,93,94,95,96,97,98,99,100,101,102,103,104,105,106,107,108,109,110,111,112,113,114,115,116,117,118,119,120,121,122,123,124,125,126,127,128,129,130,131,132,133,134,135,136,137,138,139,140,141,142,143,144,145,146,147,148,149,150],"tree_info":[0,0,0,0,0,0,0,0,0,0,0,0,0,0,0,0,0,0,0,0,0,0,0,0,0,0,0,0,0,0,0,0,0,0,0,0,0,0,0,0,0,0,0,0,0,0,0,0,0,0,0,0,0,0,0,0,0,0,0,0,0,0,0,0,0,0,0,0,0,0,0,0,0,0,0,0,0,0,0,0,0,0,0,0,0,0,0,0,0,0,0,0,0,0,0,0,0,0,0,0,0,0,0,0,0,0,0,0,0,0,0,0,0,0,0,0,0,0,0,0,0,0,0,0,0,0,0,0,0,0,0,0,0,0,0,0,0,0,0,0,0,0,0,0,0,0,0,0,0,0],"trees":[{"base_weights":[3.1932253E-2,-4.6977353E-1,1.2435163E0,8.3553064E-1,-7.1850216E-1,2.830069E-3,1.3413312E0,3.3429356E-3,4.7672562E-2,-4.0209852E-2,-1.5919238E-2,2.0750016E-2,6.09173E-2],"categories":[],"categories_nodes":[],"categories_segments":[],"categories_sizes":[],"default_left":[0,0,0,0,0,0,0,0,0,0,0,0,0],"id":0,"left_children":[1,3,5,7,9,-1,11,-1,-1,-1,-1,-1,-1],"loss_changes":[5.4910103E1,2.197071E1,2.8430176E0,2.791706E0,4.237278E0,0E0,2.048645E0,0E0,0E0,0E0,0E0,0E0,0E0],"parents":[2147483647,0,0,1,1,2,2,3,3,4,4,6,6],"right_children":[2,4,6,8,10,-1,12,-1,-1,-1,-1,-1,-1],"split_conditions":[8.625294E3,5.57315E2,7.42455E-1,4.0001016E3,3.8834211E3,2.830069E-3,1.0274906E4,3.3429356E-3,4.7672562E-2,-4.0209852E-2,-1.5919238E-2,2.0750016E-2,6.09173E-2],"split_indices":[2,4,1,2,2,0,2,0,0,0,0,0,0],"split_type":[0,0,0,0,0,0,0,0,0,0,0,0,0],"sum_hessian":[8.641159E1,6.1973476E1,2.4438114E1,9.163883E0,5.2809593E1,2.1466928E0,2.229142E1,3.7398493E0,5.424034E0,2.561837E1,2.7191225E1,5.4261622E0,1.686526E1],"tree_param":{"num_deleted":"0","num_feature":"11","num_nodes":"13","size_leaf_vector":"1"}},{"base_weights":[-2.4523692E-2,-4.8048934E-1,1.0913842E0,-7.16893E-1,7.5175375E-1,-6.584587E-3,1.2162453E0,-3.903201E-2,-1.6627451E-2,-8.84032E-4,4.1072983E-2,1.7399225E-2,5.641641E-2],"categories":[],"categories_nodes":[],"categories_segments":[],"categories_sizes":[],"default_left":[0,0,0,0,0,0,0,0,0,0,0,0,0],"id":1,"left_children":[1,3,5,7,9,-1,11,-1,-1,-1,-1,-1,-1],"loss_changes":[4.651402E1,1.9961445E1,4.561201E0,3.5101051E0,2.4743338E0,0E0,2.4698868E0,0E0,0E0,0E0,0E0,0E0,0E0],"parents":[2147483647,0,0,1,1,2,2,3,3,4,4,6,6],"right_children":[2,4,6,8,10,-1,12,-1,-1,-1,-1,-1,-1],"split_conditions":[8.625294E3,9.0833855E-1,7.42455E-1,3E0,4.0001016E3,-6.584587E-3,1.0274906E4,-3.903201E-2,-1.6627451E-2,-8.84032E-4,4.1072983E-2,1.7399225E-2,5.641641E-2],"split_indices":[2,1,1,10,2,0,2,0,0,0,0,0,0],"split_type":[0,0,0,0,0,0,0,0,0,0,0,0,0],"sum_hessian":[8.7354996E1,6.282373E1,2.4531261E1,5.3412987E1,9.410746E0,2.1606047E0,2.2370657E1,2.6314585E1,2.7098402E1,2.950221E0,6.4605246E0,5.742996E0,1.6627659E1],"tree_param":{"num_deleted":"0","num_feature":"11","num_nodes":"13","size_leaf_vector":"1"}},{"base_weights":[-3.199468E-2,-3.9868125E-1,1.1196585E0,-7.793042E-1,4.4240236E-1,1.08372964E-1,5.4337576E-2,-3.667408E-2,-1.6004657E-2,-2.1800896E-2,4.0560618E-2,2.031422E-2,-1.2567756E-2],"categories":[],"categories_nodes":[],"categories_segments":[],"categories_sizes":[],"default_left":[0,0,0,0,0,0,0,0,0,0,0,0,0],"id":2,"left_children":[1,3,5,7,9,11,-1,-1,-1,-1,-1,-1,-1],"loss_changes":[3.859841E1,2.2842545E1,5.039398E0,1.788805E0,1.3993779E1,1.3982544E0,0E0,0E0,0E0,0E0,0E0,0E0,0E0],"parents":[2147483647,0,0,1,1,2,2,3,3,4,4,5,5],"right_children":[2,4,6,8,10,12,-1,-1,-1,-1,-1,-1,-1],"split_conditions":[9.0833855E-1,1.0762392E4,4.9368228E3,7.8014155E3,7.10641E-1,7.566124E1,5.4337576E-2,-3.667408E-2,-1.6004657E-2,-2.1800896E-2,4.0560618E-2,2.031422E-2,-1.2567756E-2],"split_indices":[1,3,3,3,1,4,0,0,0,0,0,0,0],"split_type":[0,0,0,0,0,0,0,0,0,0,0,0,0],"sum_hessian":[8.728728E1,6.719881E1,2.0088474E1,4.636414E1,2.0834667E1,4.392609E0,1.5695866E1,3.194165E1,1.4422487E1,7.673034E0,1.31616335E1,2.0504773E0,2.3421316E0],"tree_param":{"num_deleted":"0","num_feature":"11","num_nodes":"13","size_leaf_vector":"1"}},{"base_weights":[-2.119308E-2,-4.676894E-1,1.0647423E0,5.870283E-1,-6.756288E-1,3.7242287E-1,1.2974976E0,-6.4762468E-3,4.3539885E-2,-3.6194727E-2,-1.0488946E-2,3.4435146E-2,-7.6164007E-3,5.641572E-2,2.2307495E-2],"categories":[],"categories_nodes":[],"categories_segments":[],"categories_sizes":[],"default_left":[0,0,0,0,0,0,0,0,0,0,0,0,0,0,0],"id":3,"left_children":[1,3,5,7,9,11,13,-1,-1,-1,-1,-1,-1,-1,-1],"loss_changes":[4.4434113E1,1.5021398E1,3.33815E0,4.76689E0,4.749176E0,2.946825E0,2.9384613E-2,0E0,0E0,0E0,0E0,0E0,0E0,0E0,0E0],"parents":[2147483647,0,0,1,1,2,2,3,3,4,4,5,5,6,6],"right_children":[2,4,6,8,10,12,14,-1,-1,-1,-1,-1,-1,-1,-1],"split_conditions":[8.625294E3,5.57315E2,1.0451155E4,4.0001016E3,4.861727E3,5.4079355E3,4.195466E3,-6.4762468E-3,4.3539885E-2,-3.6194727E-2,-1.0488946E-2,3.4435146E-2,-7.6164007E-3,5.641572E-2,2.2307495E-2],"split_indices":[2,4,2,2,2,9,4,0,0,0,0,0,0,0,0],"split_type":[0,0,0,0,0,0,0,0,0,0,0,0,0,0,0],"sum_hessian":[8.758796E1,6.2874813E1,2.4713146E1,9.75401E0,5.3120804E1,7.5263886E0,1.7186758E1,4.4549284E0,5.299082E0,3.2642437E1,2.0478367E1,3.4624243E0,4.0639644E0,1.3338451E1,3.8483062E0],"tree_param":{"num_deleted":"0","num_feature":"11","num_nodes":"15","size_leaf_vector":"1"}},{"base_weights":[6.098554E-2,-3.3526546E-1,1.0737355E0,-8.538742E-1,1.9225484E-1,2.2853443E-3,1.2448202E0,-3.7254527E-2,-1.6355414E-2,1.6540391E-2,-1.9695925E-2,1.10190045E-2,5.295527E-2],"categories":[],"categories_nodes":[],"categories_segments":[],"categories_sizes":[],"default_left":[0,0,0,0,0,0,0,0,0,0,0,0,0],"id":4,"left_children":[1,3,5,7,9,-1,11,-1,-1,-1,-1,-1,-1],"loss_changes":[3.5449963E1,1.7763033E1,4.1735783E0,3.5913086E-1,5.440302E0,0E0,8.9100647E-1,0E0,0E0,0E0,0E0,0E0,0E0],"parents":[2147483647,0,0,1,1,2,2,3,3,4,4,6,6],"right_children":[2,4,6,8,10,-1,12,-1,-1,-1,-1,-1,-1],"split_conditions":[8.900167E-1,7.8014155E3,4.2544644E3,4E0,6.4524917E3,2.2853443E-3,9.0833855E-1,-3.7254527E-2,-1.6355414E-2,1.6540391E-2,-1.9695925E-2,1.10190045E-2,5.295527E-2],"split_indices":[1,3,3,10,4,0,1,0,0,0,0,0,0],"split_type":[0,0,0,0,0,0,0,0,0,0,0,0,0],"sum_hessian":[8.454303E1,6.1728786E1,2.2814245E1,3.0503387E1,3.1225399E1,3.6706712E0,1.9143574E1,2.4117615E1,6.3857727E0,2.4197657E1,7.027743E0,2.1199737E0,1.70236E1],"tree_param":{"num_deleted":"0","num_feature":"11","num_nodes":"13","size_leaf_vector":"1"}},{"base_weights":[-4.2153057E-2,-4.658445E-1,1.0415435E0,-6.397838E-1,7.8479224E-1,-3.3843038E-3,1.15778E0,-3.5477303E-2,-1.3965986E-2,1.30831655E-2,4.2716254E-2,1.5741859E-2,5.309517E-2],"categories":[],"categories_nodes":[],"categories_segments":[],"categories_sizes":[],"default_left":[0,0,0,0,0,0,0,0,0,0,0,0,0],"id":5,"left_children":[1,3,5,7,9,-1,11,-1,-1,-1,-1,-1,-1],"loss_changes":[4.298715E1,1.5616028E1,3.643713E0,3.695509E0,4.805932E-1,0E0,2.0673943E0,0E0,0E0,0E0,0E0,0E0,0E0],"parents":[2147483647,0,0,1,1,2,2,3,3,4,4,6,6],"right_children":[2,4,6,8,10,-1,12,-1,-1,-1,-1,-1,-1],"split_conditions":[8.625294E3,9.344903E-1,7.42455E-1,3.8937122E3,9.869165E-1,-3.3843038E-3,1.009198E4,-3.5477303E-2,-1.3965986E-2,1.30831655E-2,4.2716254E-2,1.5741859E-2,5.309517E-2],"split_indices":[2,1,1,2,1,0,2,0,0,0,0,0,0],"split_type":[0,0,0,0,0,0,0,0,0,0,0,0,0],"sum_hessian":[8.950927E1,6.5170074E1,2.4339193E1,5.8070465E1,7.0996075E0,2.3280678E0,2.2011126E1,2.916542E1,2.8905046E1,4.3605113E0,2.7390962E0,5.2036715E0,1.6807453E1],"tree_param":{"num_deleted":"0","num_feature":"11","num_nodes":"13","size_leaf_vector":"1"}},{"base_weights":[1.9373229E-2,-3.822286E-1,1.0054569E0,-5.9936076E-1,6.905886E-1,-3.9552185E-3,1.1202961E0,-3.4694556E-2,-1.208216E-2,-3.193103E-3,4.045194E-2,1.9202657E-2,5.081518E-2],"categories":[],"categories_nodes":[],"categories_segments":[],"categories_sizes":[],"default_left":[0,0,0,0,0,0,0,0,0,0,0,0,0],"id":6,"left_children":[1,3,5,7,9,-1,11,-1,-1,-1,-1,-1,-1],"loss_changes":[3.5702374E1,1.5767248E1,3.5290833E0,3.811264E0,3.058374E0,0E0,1.0658016E0,0E0,0E0,0E0,0E0,0E0,0E0],"parents":[2147483647,0,0,1,1,2,2,3,3,4,4,6,6],"right_children":[2,4,6,8,10,-1,12,-1,-1,-1,-1,-1,-1],"split_conditions":[8.625294E3,9.0833855E-1,7.42455E-1,3E0,4.0001016E3,-3.9552185E-3,1.0274906E4,-3.4694556E-2,-1.208216E-2,-3.193103E-3,4.045194E-2,1.9202657E-2,5.081518E-2],"split_indices":[2,1,1,10,2,0,2,0,0,0,0,0,0],"split_type":[0,0,0,0,0,0,0,0,0,0,0,0,0],"sum_hessian":[8.621363E1,6.2133358E1,2.408027E1,5.240876E1,9.724597E0,2.2943978E0,2.1785872E1,2.5545925E1,2.6862837E1,3.2998383E0,6.424759E0,5.731903E0,1.6053968E1],"tree_param":{"num_deleted":"0","num_feature":"11","num_nodes":"13","size_leaf_vector":"1"}},{"base_weights":[-2.960466E-3,-3.9596415E-1,9.990439E-1,-5.882477E-1,6.295969E-1,3.9357907E-1,1.1678768E0,-2.9056566E-2,-1.312764E-2,-4.7077397E-3,3.8208425E-2,3.324864E-2,-9.188836E-3,2.6986118E-2,5.549455E-2],"categories":[],"categories_nodes":[],"categories_segments":[],"categories_sizes":[],"default_left":[0,0,0,0,0,0,0,0,0,0,0,0,0,0,0],"id":7,"left_children":[1,3,5,7,9,11,13,-1,-1,-1,-1,-1,-1,-1,-1],"loss_changes":[3.575953E1,1.3600993E1,1.6959877E0,1.533617E0,2.9653797E0,2.7264822E0,1.83712E-1,0E0,0E0,0E0,0E0,0E0,0E0,0E0,0E0],"parents":[2147483647,0,0,1,1,2,2,3,3,4,4,5,5,6,6],"right_children":[2,4,6,8,10,12,14,-1,-1,-1,-1,-1,-1,-1,-1],"split_conditions":[8.625294E3,9.0833855E-1,1.0274906E4,4.861727E3,4.0001016E3,9.782794E3,7.3794184E0,-2.9056566E-2,-1.312764E-2,-4.7077397E-3,3.8208425E-2,3.324864E-2,-9.188836E-3,2.6986118E-2,5.549455E-2],"split_indices":[2,1,2,2,2,2,5,0,0,0,0,0,0,0,0],"split_type":[0,0,0,0,0,0,0,0,0,0,0,0,0,0,0],"sum_hessian":[8.6799194E1,6.3214867E1,2.3584324E1,5.395215E1,9.262719E0,6.595185E0,1.698914E1,3.289086E1,2.1061287E1,3.1987095E0,6.064009E0,3.48272E0,3.1124647E0,7.741111E0,9.24803E0],"tree_param":{"num_deleted":"0","num_feature":"11","num_nodes":"15","size_leaf_vector":"1"}},{"base_weights":[2.6751883E-2,-3.4779978E-1,9.531249E-1,-5.315186E-1,5.737868E-1,-3.026835E-3,1.0625986E0,-3.187553E-2,-8.948537E-3,-6.984705E-3,3.7616115E-2,1.7019797E-2,4.8461832E-2],"categories":[],"categories_nodes":[],"categories_segments":[],"categories_sizes":[],"default_left":[0,0,0,0,0,0,0,0,0,0,0,0,0],"id":8,"left_children":[1,3,5,7,9,-1,11,-1,-1,-1,-1,-1,-1],"loss_changes":[3.1271404E1,1.1493766E1,3.0815353E0,4.106221E0,3.5239449E0,0E0,1.205822E0,0E0,0E0,0E0,0E0,0E0,0E0],"parents":[2147483647,0,0,1,1,2,2,3,3,4,4,6,6],"right_children":[2,4,6,8,10,-1,12,-1,-1,-1,-1,-1,-1],"split_conditions":[8.625294E3,9.0833855E-1,7.42455E-1,3E0,4.0001016E3,-3.026835E-3,1.0274906E4,-3.187553E-2,-8.948537E-3,-6.984705E-3,3.7616115E-2,1.7019797E-2,4.8461832E-2],"split_indices":[2,1,1,10,2,0,2,0,0,0,0,0,0],"split_type":[0,0,0,0,0,0,0,0,0,0,0,0,0],"sum_hessian":[8.621515E1,6.2282265E1,2.3932886E1,5.2635803E1,9.646464E0,2.361153E0,2.1571733E1,2.6559795E1,2.6076006E1,3.5161202E0,6.1303444E0,5.549173E0,1.602256E1],"tree_param":{"num_deleted":"0","num_feature":"11","num_nodes":"13","size_leaf_vector":"1"}},{"base_weights":[-1.3737476E-2,-3.976907E-1,9.7403026E-1,-5.875316E-1,6.047157E-1,5.701202E-1,1.2112927E0,-3.0258575E-2,-1.03432555E-2,-2.8910895E-3,3.6138505E-2,3.855839E-2,8.752129E-3,1.640404E-2,5.331771E-2],"categories":[],"categories_nodes":[],"categories_segments":[],"categories_sizes":[],"default_left":[0,0,0,0,0,0,0,0,0,0,0,0,0,0,0],"id":9,"left_children":[1,3,5,7,9,11,13,-1,-1,-1,-1,-1,-1,-1,-1],"loss_changes":[3.401815E1,1.2992278E1,1.0256538E0,2.680563E0,2.4083667E0,1.3868351E0,2.7540207E-1,0E0,0E0,0E0,0E0,0E0,0E0,0E0,0E0],"parents":[2147483647,0,0,1,1,2,2,3,3,4,4,5,5,6,6],"right_children":[2,4,6,8,10,12,14,-1,-1,-1,-1,-1,-1,-1,-1],"split_conditions":[8.625294E3,9.0833855E-1,7.3794184E0,4.861727E3,4.0001016E3,4.6192266E3,1.0274906E4,-3.0258575E-2,-1.03432555E-2,-2.8910895E-3,3.6138505E-2,3.855839E-2,8.752129E-3,1.640404E-2,5.331771E-2],"split_indices":[2,1,5,2,2,9,2,0,0,0,0,0,0,0,0],"split_type":[0,0,0,0,0,0,0,0,0,0,0,0,0,0,0],"sum_hessian":[8.565417E1,6.253938E1,2.3114788E1,5.327722E1,9.262158E0,1.107196E1,1.2042828E1,3.348282E1,1.9794403E1,3.3000405E0,5.962118E0,3.575735E0,7.4962254E0,2.7399204E0,9.302907E0],"tree_param":{"num_deleted":"0","num_feature":"11","num_nodes":"15","size_leaf_vector":"1"}},{"base_weights":[-2.241447E-2,-3.9129278E-1,9.219523E-1,-5.3181505E-1,7.8487724E-1,4.627403E-1,4.9731124E-2,-3.0795824E-2,-1.0325739E-2,8.876122E-3,4.096845E-2,-3.4125438E-3,3.1447053E-2],"categories":[],"categories_nodes":[],"categories_segments":[],"categories_sizes":[],"default_left":[0,0,0,0,0,0,0,0,0,0,0,0,0],"id":10,"left_children":[1,3,5,7,9,11,-1,-1,-1,-1,-1,-1,-1],"loss_changes":[3.1278372E1,1.1492344E1,2.5729465E0,3.4332066E0,5.815382E-1,2.5403104E0,0E0,0E0,0E0,0E0,0E0,0E0,0E0],"parents":[2147483647,0,0,1,1,2,2,3,3,4,4,5,5],"right_children":[2,4,6,8,10,12,-1,-1,-1,-1,-1,-1,-1],"split_conditions":[8.625294E3,1.9659966E1,7.3794184E0,3.8937122E3,7.430499E1,3.347941E3,4.9731124E-2,-3.0795824E-2,-1.0325739E-2,8.876122E-3,4.096845E-2,-3.4125438E-3,3.1447053E-2],"split_indices":[2,5,5,2,5,4,0,0,0,0,0,0,0],"split_type":[0,0,0,0,0,0,0,0,0,0,0,0,0],"sum_hessian":[8.571725E1,6.2482372E1,2.3234875E1,5.679277E1,5.689603E0,1.1574198E1,1.1660678E1,2.8431965E1,2.8360806E1,2.8470235E0,2.8425794E0,4.8420033E0,6.7321944E0],"tree_param":{"num_deleted":"0","num_feature":"11","num_nodes":"13","size_leaf_vector":"1"}},{"base_weights":[-8.166026E-3,-3.6290094E-1,8.5898846E-1,-5.0870854E-1,8.746642E-1,-3.449873E-3,9.62104E-1,-2.9813495E-2,-9.980842E-3,8.962501E-3,4.140268E-2,1.0743624E-2,4.2554997E-2],"categories":[],"categories_nodes":[],"categories_segments":[],"categories_sizes":[],"default_left":[0,0,0,0,0,0,0,0,0,0,0,0,0],"id":11,"left_children":[1,3,5,7,9,-1,11,-1,-1,-1,-1,-1,-1],"loss_changes":[2.752821E1,1.2344207E1,2.6987915E0,3.1884222E0,3.1112576E-1,0E0,1.093813E0,0E0,0E0,0E0,0E0,0E0,0E0],"parents":[2147483647,0,0,1,1,2,2,3,3,4,4,6,6],"right_children":[2,4,6,8,10,-1,12,-1,-1,-1,-1,-1,-1],"split_conditions":[8.532556E3,9.51672E-1,7.42455E-1,3E0,4.241E3,-3.449873E-3,1.0929105E4,-2.9813495E-2,-9.980842E-3,8.962501E-3,4.140268E-2,1.0743624E-2,4.2554997E-2],"split_indices":[2,1,1,10,2,0,3,0,0,0,0,0,0],"split_type":[0,0,0,0,0,0,0,0,0,0,0,0,0],"sum_hessian":[8.5463844E1,6.147763E1,2.3986217E1,5.6051624E1,5.4260077E0,2.3914597E0,2.1594757E1,2.7339922E1,2.87117E1,2.0212922E0,3.4047155E0,3.6948318E0,1.7899925E1],"tree_param":{"num_deleted":"0","num_feature":"11","num_nodes":"13","size_leaf_vector":"1"}},{"base_weights":[4.431126E-3,-3.3015794E-1,8.479765E-1,-4.2814344E-1,4.050753E-2,3.6376843E-1,5.0165467E-2,-2.522852E-2,-4.456633E-3,3.4160294E-2,2.998251E-3],"categories":[],"categories_nodes":[],"categories_segments":[],"categories_sizes":[],"default_left":[0,0,0,0,0,0,0,0,0,0,0],"id":12,"left_children":[1,3,5,7,-1,9,-1,-1,-1,-1,-1],"loss_changes":[2.5002842E1,9.215513E0,4.0348244E0,3.7435513E0,0E0,1.8955892E0,0E0,0E0,0E0,0E0,0E0],"parents":[2147483647,0,0,1,1,2,2,3,3,5,5],"right_children":[2,4,6,8,-1,10,-1,-1,-1,-1,-1],"split_conditions":[8.625294E3,9.869165E-1,7.3794184E0,4.690822E3,4.050753E-2,4.1897534E3,5.0165467E-2,-2.522852E-2,-4.456633E-3,3.4160294E-2,2.998251E-3],"split_indices":[2,1,5,2,0,9,0,0,0,0,0],"split_type":[0,0,0,0,0,0,0,0,0,0,0],"sum_hessian":[8.460294E1,6.1447315E1,2.315563E1,5.8538204E1,2.9091117E0,1.2292389E1,1.0863242E1,3.449411E1,2.4044094E1,3.1060874E0,9.186301E0],"tree_param":{"num_deleted":"0","num_feature":"11","num_nodes":"11","size_leaf_vector":"1"}},{"base_weights":[4.1930974E-2,-3.2591087E-1,9.090911E-1,-4.7381002E-1,6.7648286E-1,-3.4977393E-3,1.0169839E0,-2.7585784E-2,-8.541561E-3,-9.602862E-5,3.809729E-2,1.003916E-2,4.6531875E-2],"categories":[],"categories_nodes":[],"categories_segments":[],"categories_sizes":[],"default_left":[0,0,0,0,0,0,0,0,0,0,0,0,0],"id":13,"left_children":[1,3,5,7,9,-1,11,-1,-1,-1,-1,-1,-1],"loss_changes":[2.7963701E1,9.791707E0,2.982563E0,2.7930584E0,1.6456275E0,0E0,2.0718117E0,0E0,0E0,0E0,0E0,0E0,0E0],"parents":[2147483647,0,0,1,1,2,2,3,3,4,4,6,6],"right_children":[2,4,6,8,10,-1,12,-1,-1,-1,-1,-1,-1],"split_conditions":[8.33138E3,9.344903E-1,7.42455E-1,3E0,4.0549395E3,-3.4977393E-3,1.0970143E4,-2.7585784E-2,-8.541561E-3,-9.602862E-5,3.809729E-2,1.003916E-2,4.6531875E-2],"split_indices":[2,1,1,10,3,0,3,0,0,0,0,0,0],"split_type":[0,0,0,0,0,0,0,0,0,0,0,0,0],"sum_hessian":[8.380891E1,5.9723175E1,2.4085728E1,5.29633E1,6.7598786E0,2.3899932E0,2.1695736E1,2.7149572E1,2.5813725E1,2.5266008E0,4.233278E0,4.350407E0,1.7345327E1],"tree_param":{"num_deleted":"0","num_feature":"11","num_nodes":"13","size_leaf_vector":"1"}},{"base_weights":[1.2546901E-2,-3.0919278E-1,8.3192664E-1,-4.620969E-1,5.170804E-1,2.8494805E-1,1.027084E0,-2.4159845E-2,-7.639879E-3,-4.6877796E-3,3.2500442E-2,2.9106297E-2,-9.313742E-3,1.1796029E-2,4.633904E-2],"categories":[],"categories_nodes":[],"categories_segments":[],"categories_sizes":[],"default_left":[0,0,0,0,0,0,0,0,0,0,0,0,0,0,0],"id":14,"left_children":[1,3,5,7,9,11,13,-1,-1,-1,-1,-1,-1,-1,-1],"loss_changes":[2.2979338E1,8.392665E0,2.0372543E0,1.8435173E0,2.2004092E0,2.454334E0,9.848614E-1,0E0,0E0,0E0,0E0,0E0,0E0,0E0,0E0],"parents":[2147483647,0,0,1,1,2,2,3,3,4,4,5,5,6,6],"right_children":[2,4,6,8,10,12,14,-1,-1,-1,-1,-1,-1,-1,-1],"split_conditions":[8.625294E3,9.902764E0,1.0451155E4,4.861727E3,4.0001016E3,5.4079355E3,4.150805E0,-2.4159845E-2,-7.639879E-3,-4.6877796E-3,3.2500442E-2,2.9106297E-2,-9.313742E-3,1.1796029E-2,4.633904E-2],"split_indices":[2,5,2,2,2,9,5,0,0,0,0,0,0,0,0],"split_type":[0,0,0,0,0,0,0,0,0,0,0,0,0,0,0],"sum_hessian":[8.321467E1,6.06464E1,2.2568266E1,5.191996E1,8.726439E0,7.228559E0,1.5339706E1,3.246908E1,1.9450878E1,3.1564076E0,5.5700316E0,3.4598148E0,3.768744E0,3.3211946E0,1.2018512E1],"tree_param":{"num_deleted":"0","num_feature":"11","num_nodes":"15","size_leaf_vector":"1"}},{"base_weights":[5.253758E-2,-2.8045186E-1,7.9604095E-1,-4.451381E-1,5.817747E-1,-3.4831383E-3,9.01042E-1,-2.542192E-2,-8.36442E-3,-4.000288E-3,3.6287416E-2,3.9370917E-3,3.982252E-2],"categories":[],"categories_nodes":[],"categories_segments":[],"categories_sizes":[],"default_left":[0,0,0,0,0,0,0,0,0,0,0,0,0],"id":15,"left_children":[1,3,5,7,9,-1,11,-1,-1,-1,-1,-1,-1],"loss_changes":[2.1421103E1,9.036604E0,2.6352768E0,2.048894E0,2.5082774E0,0E0,1.6295414E0,0E0,0E0,0E0,0E0,0E0,0E0],"parents":[2147483647,0,0,1,1,2,2,3,3,4,4,6,6],"right_children":[2,4,6,8,10,-1,12,-1,-1,-1,-1,-1,-1],"split_conditions":[8.126404E3,9.0833855E-1,1.0048939E4,3.8834211E3,4.0001016E3,-3.4831383E-3,7.42455E-1,-2.542192E-2,-8.36442E-3,-4.000288E-3,3.6287416E-2,3.9370917E-3,3.982252E-2],"split_indices":[2,1,3,2,2,0,1,0,0,0,0,0,0],"split_type":[0,0,0,0,0,0,0,0,0,0,0,0,0],"sum_hessian":[8.2718895E1,5.7991917E1,2.4726982E1,4.9504055E1,8.487861E0,2.6638498E0,2.2063131E1,2.5526094E1,2.3977962E1,3.1899033E0,5.2979574E0,2.7546847E0,1.9308447E1],"tree_param":{"num_deleted":"0","num_feature":"11","num_nodes":"13","size_leaf_vector":"1"}},{"base_weights":[7.426084E-2,-2.2542527E-1,6.427393E-1,-5.555582E-1,9.346692E-2,-1.5868794E-2,8.130486E-1,-2.8876636E-2,-9.326881E-3,-1.6063197E-2,1.4595566E-2,-6.5842615E-3,3.8214844E-2],"categories":[],"categories_nodes":[],"categories_segments":[],"categories_sizes":[],"default_left":[0,0,0,0,0,0,0,0,0,0,0,0,0],"id":16,"left_children":[1,3,5,7,9,-1,11,-1,-1,-1,-1,-1,-1],"loss_changes":[1.4268945E1,5.9162006E0,5.7513456E0,1.133645E0,4.296542E0,0E0,3.8541985E0,0E0,0E0,0E0,0E0,0E0,0E0],"parents":[2147483647,0,0,1,1,2,2,3,3,4,4,6,6],"right_children":[2,4,6,8,10,-1,12,-1,-1,-1,-1,-1,-1],"split_conditions":[5.5161705E0,7.7677935E3,2E0,3E0,6.892735E-1,-1.5868794E-2,4.0549395E3,-2.8876636E-2,-9.326881E-3,-1.6063197E-2,1.4595566E-2,-6.5842615E-3,3.8214844E-2],"split_indices":[5,3,10,10,1,0,3,0,0,0,0,0,0],"split_type":[0,0,0,0,0,0,0,0,0,0,0,0,0],"sum_hessian":[8.005415E1,5.321015E1,2.6844002E1,2.5414997E1,2.7795155E1,3.4047523E0,2.3439249E1,1.5129362E1,1.0285634E1,9.503199E0,1.8291956E1,2.9387777E0,2.0500471E1],"tree_param":{"num_deleted":"0","num_feature":"11","num_nodes":"13","size_leaf_vector":"1"}},{"base_weights":[2.1390647E-2,-2.365315E-1,8.8323635E-1,-4.8704785E-1,3.1317994E-1,7.3907725E-3,3.9364807E-2,-1.4960017E-2,-3.1845815E-2,2.7410984E-2,-2.4373153E-2],"categories":[],"categories_nodes":[],"categories_segments":[],"categories_sizes":[],"default_left":[0,0,0,0,0,0,0,0,0,0,0],"id":17,"left_children":[1,3,5,7,9,-1,-1,-1,-1,-1,-1],"loss_changes":[1.8989908E1,9.377846E0,1.0221319E0,1.0132523E0,8.332674E0,0E0,0E0,0E0,0E0,0E0,0E0],"parents":[2147483647,0,0,1,1,2,2,3,3,4,4],"right_children":[2,4,6,8,10,-1,-1,-1,-1,-1,-1],"split_conditions":[9.0833855E-1,1.0762392E4,4.2544644E3,3.4816125E3,7.273657E3,7.3907725E-3,3.9364807E-2,-1.4960017E-2,-3.1845815E-2,2.7410984E-2,-2.4373153E-2],"split_indices":[1,3,3,9,4,0,0,0,0,0,0],"split_type":[0,0,0,0,0,0,0,0,0,0,0],"sum_hessian":[8.1549225E1,6.388242E1,1.7666807E1,4.404024E1,1.984218E1,2.944392E0,1.4722416E1,3.54829E1,8.557342E0,1.4505641E1,5.3365383E0],"tree_param":{"num_deleted":"0","num_feature":"11","num_nodes":"11","size_leaf_vector":"1"}},{"base_weights":[3.4982253E-2,-2.790907E-1,8.627488E-1,-3.6891922E-1,3.795568E-2,4.2339197E-1,1.0364107E0,-2.3380896E-2,-6.133767E-3,2.9293232E-2,-4.280521E-3,1.578731E-2,4.5271713E-2],"categories":[],"categories_nodes":[],"categories_segments":[],"categories_sizes":[],"default_left":[0,0,0,0,0,0,0,0,0,0,0,0,0],"id":18,"left_children":[1,3,5,7,-1,9,11,-1,-1,-1,-1,-1,-1],"loss_changes":[2.2332783E1,7.588014E0,9.2362595E-1,2.5920763E0,0E0,1.8066876E0,5.770111E-2,0E0,0E0,0E0,0E0,0E0,0E0],"parents":[2147483647,0,0,1,1,2,2,3,3,5,5,6,6],"right_children":[2,4,6,8,-1,10,12,-1,-1,-1,-1,-1,-1],"split_conditions":[8.625294E3,9.869165E-1,8.3946604E-1,3E0,3.795568E-2,7.997628E-1,1.0929105E4,-2.3380896E-2,-6.133767E-3,2.9293232E-2,-4.280521E-3,1.578731E-2,4.5271713E-2],"split_indices":[2,1,1,10,0,1,3,0,0,0,0,0,0],"split_type":[0,0,0,0,0,0,0,0,0,0,0,0,0],"sum_hessian":[8.204989E1,6.0442387E1,2.1607504E1,5.762611E1,2.8162773E0,8.069098E0,1.3538405E1,2.7099825E1,3.0526283E1,4.617939E0,3.4511597E0,3.0815656E0,1.045684E1],"tree_param":{"num_deleted":"0","num_feature":"11","num_nodes":"13","size_leaf_vector":"1"}},{"base_weights":[4.3328233E-2,-2.0607314E-1,4.060148E-2,-3.2620698E-1,6.8917793E-1,-2.4320904E-2,-2.1183689E-3,3.713048E-2,4.6884893E-3],"categories":[],"categories_nodes":[],"categories_segments":[],"categories_sizes":[],"default_left":[0,0,0,0,0,0,0,0,0],"id":19,"left_children":[1,3,-1,5,7,-1,-1,-1,-1],"loss_changes":[2.059468E1,7.753659E0,0E0,4.6510572E0,9.690294E-1,0E0,0E0,0E0,0E0],"parents":[2147483647,0,0,1,1,3,3,4,4],"right_children":[2,4,-1,6,8,-1,-1,-1,-1],"split_conditions":[1.009198E4,1.9659966E1,4.060148E-2,3E0,4E0,-2.4320904E-2,-2.1183689E-3,3.713048E-2,4.6884893E-3],"split_indices":[2,5,0,10,10,0,0,0,0],"split_type":[0,0,0,0,0,0,0,0,0],"sum_hessian":[8.1254425E1,6.59129E1,1.5341527E1,5.923535E1,6.677549E0,2.7954245E1,3.1281107E1,3.8305128E0,2.8470361E0],"tree_param":{"num_deleted":"0","num_feature":"11","num_nodes":"9","size_leaf_vector":"1"}},{"base_weights":[3.9009925E-2,-1.9959219E-1,8.27387E-1,-3.7051883E-1,4.1127127E-1,-4.7536185E-3,4.206439E-2,-9.384138E-3,-2.6509037E-2,3.363145E-2,5.4034665E-3],"categories":[],"categories_nodes":[],"categories_segments":[],"categories_sizes":[],"default_left":[0,0,0,0,0,0,0,0,0,0,0],"id":20,"left_children":[1,3,5,7,9,-1,-1,-1,-1,-1,-1],"loss_changes":[1.6062187E1,7.1764736E0,4.45492E0,1.7731504E0,1.5921838E0,0E0,0E0,0E0,0E0,0E0,0E0],"parents":[2147483647,0,0,1,1,2,2,3,3,4,4],"right_children":[2,4,6,8,10,-1,-1,-1,-1,-1,-1],"split_conditions":[9.0833855E-1,8.568416E3,4.0001016E3,8.119265E-1,4.1897534E3,-4.7536185E-3,4.206439E-2,-9.384138E-3,-2.6509037E-2,3.363145E-2,5.4034665E-3],"split_indices":[1,2,2,1,9,0,0,0,0,0,0],"split_type":[0,0,0,0,0,0,0,0,0,0,0],"sum_hessian":[8.163212E1,6.3812843E1,1.7819279E1,5.0475983E1,1.3336861E1,3.5937045E0,1.4225574E1,3.691248E1,1.3563505E1,3.619432E0,9.717428E0],"tree_param":{"num_deleted":"0","num_feature":"11","num_nodes":"11","size_leaf_vector":"1"}},{"base_weights":[1.3442067E-3,-2.1543811E-1,7.4067074E-1,-3.9968765E-1,3.129312E-1,-4.1234577E-3,3.673096E-2,-2.1161288E-2,-6.811248E-3,3.2862138E-2,2.5241976E-3],"categories":[],"categories_nodes":[],"categories_segments":[],"categories_sizes":[],"default_left":[0,0,0,0,0,0,0,0,0,0,0],"id":21,"left_children":[1,3,5,7,9,-1,-1,-1,-1,-1,-1],"loss_changes":[1.3747601E1,6.7082167E0,3.1036186E0,1.3053541E0,2.2182696E0,0E0,0E0,0E0,0E0,0E0,0E0],"parents":[2147483647,0,0,1,1,2,2,3,3,4,4],"right_children":[2,4,6,8,10,-1,-1,-1,-1,-1,-1],"split_conditions":[9.0833855E-1,7.8747812E3,4.0001016E3,4.527277E3,3.6182769E3,-4.1234577E-3,3.673096E-2,-2.1161288E-2,-6.811248E-3,3.2862138E-2,2.5241976E-3],"split_indices":[1,2,2,2,9,0,0,0,0,0,0],"split_type":[0,0,0,0,0,0,0,0,0,0,0],"sum_hessian":[8.178498E1,6.4337425E1,1.7447556E1,4.8063965E1,1.6273462E1,3.1798537E0,1.4267701E1,2.9064531E1,1.8999432E1,3.8527129E0,1.242075E1],"tree_param":{"num_deleted":"0","num_feature":"11","num_nodes":"11","size_leaf_vector":"1"}},{"base_weights":[-5.7967007E-3,-2.1368486E-1,8.820974E-1,-3.4381384E-1,7.638378E-1,3.1775615E-1,4.2102657E-2,-2.378492E-2,-4.9209166E-3,1.2254642E-2,3.820163E-2,2.4193581E-2,-4.363141E-3],"categories":[],"categories_nodes":[],"categories_segments":[],"categories_sizes":[],"default_left":[0,0,0,0,0,0,0,0,0,0,0,0,0],"id":22,"left_children":[1,3,5,7,9,11,-1,-1,-1,-1,-1,-1,-1],"loss_changes":[1.5704973E1,9.289211E0,8.8421154E-1,3.2971144E0,1.7711115E-1,9.41945E-1,0E0,0E0,0E0,0E0,0E0,0E0,0E0],"parents":[2147483647,0,0,1,1,2,2,3,3,4,4,5,5],"right_children":[2,4,6,8,10,12,-1,-1,-1,-1,-1,-1,-1],"split_conditions":[1.0451155E4,9.51672E-1,8.3946604E-1,3.8937122E3,9.869165E-1,7.997628E-1,4.2102657E-2,-2.378492E-2,-4.9209166E-3,1.2254642E-2,3.820163E-2,2.4193581E-2,-4.363141E-3],"split_indices":[2,1,1,2,1,1,0,0,0,0,0,0,0],"split_type":[0,0,0,0,0,0,0,0,0,0,0,0,0],"sum_hessian":[8.104134E1,6.6897E1,1.414434E1,6.0182056E1,6.7149453E0,4.6101995E0,9.534141E0,2.6590296E1,3.3591763E1,3.5134025E0,3.2015429E0,2.2576585E0,2.352541E0],"tree_param":{"num_deleted":"0","num_feature":"11","num_nodes":"13","size_leaf_vector":"1"}},{"base_weights":[2.952994E-2,-1.9776297E-1,7.0202476E-1,-5.052784E-1,8.661646E-2,7.202664E-2,3.501062E-2,-1.4741217E-2,-3.8146034E-2,1.1653058E-2,-2.4872733E-2,1.9746158E-2,-1.7857444E-2],"categories":[],"categories_nodes":[],"categories_segments":[],"categories_sizes":[],"default_left":[0,0,0,0,0,0,0,0,0,0,0,0,0],"id":23,"left_children":[1,3,5,7,9,11,-1,-1,-1,-1,-1,-1,-1],"loss_changes":[1.2905695E1,5.6237535E0,2.1995888E0,1.1799736E0,5.379813E0,1.9218104E0,0E0,0E0,0E0,0E0,0E0,0E0,0E0],"parents":[2147483647,0,0,1,1,2,2,3,3,4,4,5,5],"right_children":[2,4,6,8,10,12,-1,-1,-1,-1,-1,-1,-1],"split_conditions":[8.900167E-1,7.7131157E3,4.9368228E3,3.4816125E3,7.273657E3,1.8363337E3,3.501062E-2,-1.4741217E-2,-3.8146034E-2,1.1653058E-2,-2.4872733E-2,1.9746158E-2,-1.7857444E-2],"split_indices":[1,3,3,9,4,9,0,0,0,0,0,0,0],"split_type":[0,0,0,0,0,0,0,0,0,0,0,0,0],"sum_hessian":[8.061534E1,6.1306526E1,1.9308811E1,2.8708675E1,3.259785E1,4.7751775E0,1.4533632E1,2.4791454E1,3.9172215E0,2.6203588E1,6.3942647E0,2.6863055E0,2.0888722E0],"tree_param":{"num_deleted":"0","num_feature":"11","num_nodes":"13","size_leaf_vector":"1"}},{"base_weights":[-3.3415304E-4,-2.0022774E-1,8.585381E-1,-2.8475517E-1,3.756877E-2,3.0293334E-1,4.1149948E-2,-2.2359133E-2,-5.297925E-3,2.350194E-2,-4.5490074E-3],"categories":[],"categories_nodes":[],"categories_segments":[],"categories_sizes":[],"default_left":[0,0,0,0,0,0,0,0,0,0,0],"id":24,"left_children":[1,3,5,7,-1,9,-1,-1,-1,-1,-1],"loss_changes":[1.452079E1,7.142835E0,8.8686085E-1,2.5836244E0,0E0,9.1388565E-1,0E0,0E0,0E0,0E0,0E0],"parents":[2147483647,0,0,1,1,2,2,3,3,5,5],"right_children":[2,4,6,8,-1,10,-1,-1,-1,-1,-1],"split_conditions":[1.0451155E4,9.869165E-1,8.3946604E-1,6.718406E-1,3.756877E-2,7.997628E-1,4.1149948E-2,-2.2359133E-2,-5.297925E-3,2.350194E-2,-4.5490074E-3],"split_indices":[2,1,1,1,0,1,0,0,0,0,0],"split_type":[0,0,0,0,0,0,0,0,0,0,0],"sum_hessian":[8.05765E1,6.660794E1,1.3968562E1,6.340459E1,3.203346E0,4.579519E0,9.389043E0,2.0733873E1,4.2670715E1,2.2335296E0,2.3459892E0],"tree_param":{"num_deleted":"0","num_feature":"11","num_nodes":"11","size_leaf_vector":"1"}},{"base_weights":[8.46331E-3,-1.9347006E-1,7.965012E-1,-2.707735E-1,3.580403E-2,3.8772028E-2,4.4515458E-1,-1.8014094E-2,-1.2474951E-3,-1.055759E-2,2.8506093E-2],"categories":[],"categories_nodes":[],"categories_segments":[],"categories_sizes":[],"default_left":[0,0,0,0,0,0,0,0,0,0,0],"id":25,"left_children":[1,3,5,7,-1,-1,9,-1,-1,-1,-1],"loss_changes":[1.350246E1,6.1742005E0,1.8757057E-1,2.7540212E0,0E0,0E0,2.1598089E0,0E0,0E0,0E0,0E0],"parents":[2147483647,0,0,1,1,2,2,3,3,6,6],"right_children":[2,4,6,8,-1,-1,10,-1,-1,-1,-1],"split_conditions":[9.9872295E3,9.869165E-1,2.4839866E3,4.861727E3,3.580403E-2,3.8772028E-2,3.1321206E3,-1.8014094E-2,-1.2474951E-3,-1.055759E-2,2.8506093E-2],"split_indices":[2,1,4,2,0,0,4,0,0,0,0],"split_type":[0,0,0,0,0,0,0,0,0,0,0],"sum_hessian":[8.091438E1,6.5610725E1,1.5303655E1,6.266329E1,2.9474363E0,7.90043E0,7.4032245E0,3.481141E1,2.7851881E1,2.035099E0,5.368125E0],"tree_param":{"num_deleted":"0","num_feature":"11","num_nodes":"11","size_leaf_vector":"1"}},{"base_weights":[-1.9473342E-2,-2.2499256E-1,7.17349E-1,-3.8357118E-1,2.6391527E-1,-1.6318465E-3,3.564338E-2,-1.9439626E-2,-1.4921422E-3,-4.4171605E-3,2.0785889E-2],"categories":[],"categories_nodes":[],"categories_segments":[],"categories_sizes":[],"default_left":[0,0,0,0,0,0,0,0,0,0,0],"id":26,"left_children":[1,3,5,7,9,-1,-1,-1,-1,-1,-1],"loss_changes":[1.26855135E1,5.269582E0,2.4808235E0,1.7428246E0,1.760548E0,0E0,0E0,0E0,0E0,0E0,0E0],"parents":[2147483647,0,0,1,1,2,2,3,3,4,4],"right_children":[2,4,6,8,10,-1,-1,-1,-1,-1,-1],"split_conditions":[9.0833855E-1,7.8747812E3,4.0001016E3,4E0,3.1321206E3,-1.6318465E-3,3.564338E-2,-1.9439626E-2,-1.4921422E-3,-4.4171605E-3,2.0785889E-2],"split_indices":[1,2,2,10,4,0,0,0,0,0,0],"split_type":[0,0,0,0,0,0,0,0,0,0,0],"sum_hessian":[7.96392E1,6.3356644E1,1.6282553E1,4.8165073E1,1.5191569E1,3.3209574E0,1.2961595E1,3.654787E1,1.1617201E1,6.6270957E0,8.564474E0],"tree_param":{"num_deleted":"0","num_feature":"11","num_nodes":"11","size_leaf_vector":"1"}},{"base_weights":[-1.45845115E-2,-1.9140512E-1,7.663657E-1,-2.6824707E-1,3.5783306E-2,1.5919477E-1,3.9742522E-2,-1.938756E-2,-2.9880807E-3,1.6368976E-2,-7.419841E-3],"categories":[],"categories_nodes":[],"categories_segments":[],"categories_sizes":[],"default_left":[0,0,0,0,0,0,0,0,0,0,0],"id":27,"left_children":[1,3,5,7,-1,9,-1,-1,-1,-1,-1],"loss_changes":[1.174801E1,6.257786E0,1.8513641E0,2.7008286E0,0E0,7.25839E-1,0E0,0E0,0E0,0E0,0E0],"parents":[2147483647,0,0,1,1,2,2,3,3,5,5],"right_children":[2,4,6,8,-1,10,-1,-1,-1,-1,-1],"split_conditions":[1.0451155E4,9.869165E-1,8.3946604E-1,3E0,3.5783306E-2,7.997628E-1,3.9742522E-2,-1.938756E-2,-2.9880807E-3,1.6368976E-2,-7.419841E-3],"split_indices":[2,1,1,10,0,1,0,0,0,0,0],"split_type":[0,0,0,0,0,0,0,0,0,0,0],"sum_hessian":[8.095167E1,6.723771E1,1.3713963E1,6.420098E1,3.036726E0,4.660485E0,9.053477E0,2.888749E1,3.531349E1,2.4841235E0,2.1763613E0],"tree_param":{"num_deleted":"0","num_feature":"11","num_nodes":"11","size_leaf_vector":"1"}},{"base_weights":[1.5400212E-2,-1.5749659E-1,7.149996E-1,-2.3608261E-1,3.5271253E-2,4.0063452E-2,2.7830437E-1,-1.7882712E-2,-2.477815E-3,-5.0108056E-3,3.1233197E-2],"categories":[],"categories_nodes":[],"categories_segments":[],"categories_sizes":[],"default_left":[0,0,0,0,0,0,0,0,0,0,0],"id":28,"left_children":[1,3,5,7,-1,-1,9,-1,-1,-1,-1],"loss_changes":[9.806567E0,5.737647E0,1.4521742E0,2.2280724E0,0E0,0E0,2.0476997E0,0E0,0E0,0E0,0E0],"parents":[2147483647,0,0,1,1,2,2,3,3,6,6],"right_children":[2,4,6,8,-1,-1,10,-1,-1,-1,-1],"split_conditions":[1.0274906E4,9.869165E-1,2.4934263E3,4.0001016E3,3.5271253E-2,4.0063452E-2,1.9366547E4,-1.7882712E-2,-2.477815E-3,-5.0108056E-3,3.1233197E-2],"split_indices":[2,1,4,2,0,0,3,0,0,0,0],"split_type":[0,0,0,0,0,0,0,0,0,0,0],"sum_hessian":[7.721187E1,6.315395E1,1.4057917E1,6.0151234E1,3.002715E0,6.925713E0,7.1322036E0,2.5780655E1,3.437058E1,4.788241E0,2.3439627E0],"tree_param":{"num_deleted":"0","num_feature":"11","num_nodes":"11","size_leaf_vector":"1"}},{"base_weights":[1.607489E-2,-1.6209188E-1,7.0200205E-1,-2.3661329E-1,3.4492455E-2,1.0519018E-1,3.95364E-2,-1.6423186E-2,5.6553472E-5,-1.2084183E-2,1.5991565E-2],"categories":[],"categories_nodes":[],"categories_segments":[],"categories_sizes":[],"default_left":[0,0,0,0,0,0,0,0,0,0,0],"id":29,"left_children":[1,3,5,7,-1,9,-1,-1,-1,-1,-1],"loss_changes":[9.992315E0,5.37411E0,2.6722603E0,2.5771832E0,0E0,1.1657418E0,0E0,0E0,0E0,0E0,0E0],"parents":[2147483647,0,0,1,1,2,2,3,3,5,5],"right_children":[2,4,6,8,-1,10,-1,-1,-1,-1,-1],"split_conditions":[9.9872295E3,9.869165E-1,8.3946604E-1,4.861727E3,3.4492455E-2,1.6769494E4,3.95364E-2,-1.6423186E-2,5.6553472E-5,-1.2084183E-2,1.5991565E-2],"split_indices":[2,1,1,2,0,3,0,0,0,0,0],"split_type":[0,0,0,0,0,0,0,0,0,0,0],"sum_hessian":[7.790168E1,6.3051647E1,1.4850029E1,6.020967E1,2.841976E0,5.7022767E0,9.147753E0,3.394818E1,2.626149E1,2.3719738E0,3.330303E0],"tree_param":{"num_deleted":"0","num_feature":"11","num_nodes":"11","size_leaf_vector":"1"}},{"base_weights":[4.7250923E-2,-1.3446797E-1,6.949559E-1,-2.6690513E-1,2.9927582E-1,3.868221E-2,1.2187666E-1,-1.8770391E-2,-2.5453537E-3,3.7565637E-2,1.16889045E-4,1.40041E-2,-1.09690195E-2],"categories":[],"categories_nodes":[],"categories_segments":[],"categories_sizes":[],"default_left":[0,0,0,0,0,0,0,0,0,0,0,0,0],"id":30,"left_children":[1,3,5,7,9,-1,11,-1,-1,-1,-1,-1,-1],"loss_changes":[9.411478E0,3.7717283E0,2.4923725E0,1.9651463E0,2.9623346E0,0E0,9.080641E-1,0E0,0E0,0E0,0E0,0E0,0E0],"parents":[2147483647,0,0,1,1,2,2,3,3,4,4,6,6],"right_children":[2,4,6,8,10,-1,12,-1,-1,-1,-1,-1,-1],"split_conditions":[9.0833855E-1,8.33138E3,4E0,3E0,3.6182769E3,3.868221E-2,5.6331143E3,-1.8770391E-2,-2.5453537E-3,3.7565637E-2,1.16889045E-4,1.40041E-2,-1.09690195E-2],"split_indices":[1,2,10,10,9,0,9,0,0,0,0,0,0],"split_type":[0,0,0,0,0,0,0,0,0,0,0,0,0],"sum_hessian":[7.6373505E1,6.087837E1,1.5495134E1,4.7227467E1,1.3650902E1,9.574293E0,5.9208407E0,2.2355597E1,2.487187E1,2.9479425E0,1.0702959E1,3.9038086E0,2.0170324E0],"tree_param":{"num_deleted":"0","num_feature":"11","num_nodes":"13","size_leaf_vector":"1"}},{"base_weights":[-6.7032764E-5,-1.7295991E-1,8.158758E-1,-2.4789238E-1,3.4439508E-2,3.7509643E-2,8.813369E-3,-1.703435E-2,-1.3459872E-3],"categories":[],"categories_nodes":[],"categories_segments":[],"categories_sizes":[],"default_left":[0,0,0,0,0,0,0,0,0],"id":31,"left_children":[1,3,5,7,-1,-1,-1,-1,-1],"loss_changes":[1.1672569E1,5.716549E0,6.36734E-1,2.4578247E0,0E0,0E0,0E0,0E0,0E0],"parents":[2147483647,0,0,1,1,2,2,3,3],"right_children":[2,4,6,8,-1,-1,-1,-1,-1],"split_conditions":[1.0451155E4,9.869165E-1,1.1224464E4,4.861727E3,3.4439508E-2,3.7509643E-2,8.813369E-3,-1.703435E-2,-1.3459872E-3],"split_indices":[2,1,9,2,0,0,0,0,0],"split_type":[0,0,0,0,0,0,0,0,0],"sum_hessian":[7.874208E1,6.627491E1,1.2467164E1,6.3214138E1,3.060775E0,9.395389E0,3.0717757E0,3.3451378E1,2.9762758E1],"tree_param":{"num_deleted":"0","num_feature":"11","num_nodes":"9","size_leaf_vector":"1"}},{"base_weights":[4.4235434E-2,-7.8353025E-2,7.16316E-1,-3.4454468E-1,1.4653239E-1,3.3793393E-1,3.772255E-2,2.2413495E-3,-1.7602619E-2,-1.4484408E-2,1.7938606E-2,3.2586914E-2,-1.0931753E-2],"categories":[],"categories_nodes":[],"categories_segments":[],"categories_sizes":[],"default_left":[0,0,0,0,0,0,0,0,0,0,0,0,0],"id":32,"left_children":[1,3,5,7,9,11,-1,-1,-1,-1,-1,-1,-1],"loss_changes":[6.5690575E0,4.1765833E0,4.1678333E-1,1.2651341E0,6.2079597E0,2.6951168E0,0E0,0E0,0E0,0E0,0E0,0E0,0E0],"parents":[2147483647,0,0,1,1,2,2,3,3,4,4,5,5],"right_children":[2,4,6,8,10,12,-1,-1,-1,-1,-1,-1,-1],"split_conditions":[1.9659966E1,4.527277E3,7.430499E1,2E0,3E0,4.2617523E1,3.772255E-2,2.2413495E-3,-1.7602619E-2,-1.4484408E-2,1.7938606E-2,3.2586914E-2,-1.0931753E-2],"split_indices":[5,2,5,10,10,5,0,0,0,0,0,0,0],"split_type":[0,0,0,0,0,0,0,0,0,0,0,0,0],"sum_hessian":[7.636945E1,6.608271E1,1.0286746E1,2.9774794E1,3.6307915E1,5.7208548E0,4.5658913E0,5.8921385E0,2.3882654E1,1.3375924E1,2.293199E1,2.8400273E0,2.8808277E0],"tree_param":{"num_deleted":"0","num_feature":"11","num_nodes":"13","size_leaf_vector":"1"}},{"base_weights":[3.2109246E-2,-1.4062195E-1,6.591107E-1,-2.860448E-1,2.9420832E-1,-8.4022984E-2,3.663752E-2,-1.974291E-2,-2.976187E-3,3.0967867E-2,1.7610454E-3,4.817499E-3,-1.0341714E-2],"categories":[],"categories_nodes":[],"categories_segments":[],"categories_sizes":[],"default_left":[0,0,0,0,0,0,0,0,0,0,0,0,0],"id":33,"left_children":[1,3,5,7,9,11,-1,-1,-1,-1,-1,-1,-1],"loss_changes":[8.799012E0,4.2155156E0,3.4995852E0,2.0776777E0,1.9764402E0,2.8829706E-1,0E0,0E0,0E0,0E0,0E0,0E0,0E0],"parents":[2147483647,0,0,1,1,2,2,3,3,4,4,5,5],"right_children":[2,4,6,8,10,12,-1,-1,-1,-1,-1,-1,-1],"split_conditions":[9.902764E0,7.8747812E3,4.690822E3,3E0,3.6182769E3,3.78897E3,3.663752E-2,-1.974291E-2,-2.976187E-3,3.0967867E-2,1.7610454E-3,4.817499E-3,-1.0341714E-2],"split_indices":[5,2,2,10,9,2,0,0,0,0,0,0,0],"split_type":[0,0,0,0,0,0,0,0,0,0,0,0,0],"sum_hessian":[7.753301E1,6.200331E1,1.5529703E1,4.697689E1,1.5026421E1,4.334228E0,1.1195475E1,2.2373674E1,2.4603216E1,3.7132611E0,1.1313159E1,2.2813153E0,2.0529125E0],"tree_param":{"num_deleted":"0","num_feature":"11","num_nodes":"13","size_leaf_vector":"1"}},{"base_weights":[5.6333926E-2,-8.3814345E-2,8.409803E-1,-2.0938058E-1,5.9421873E-1,6.2579564E-3,3.7927862E-2,-1.8894894E-3,-2.1635525E-2,5.978516E-3,2.994886E-2],"categories":[],"categories_nodes":[],"categories_segments":[],"categories_sizes":[],"default_left":[0,0,0,0,0,0,0,0,0,0,0],"id":34,"left_children":[1,3,5,7,9,-1,-1,-1,-1,-1,-1],"loss_changes":[8.634039E0,5.982664E0,5.756264E-1,3.0827851E0,5.351198E-1,0E0,0E0,0E0,0E0,0E0,0E0],"parents":[2147483647,0,0,1,1,2,2,3,3,4,4],"right_children":[2,4,6,8,10,-1,-1,-1,-1,-1,-1],"split_conditions":[9.51672E-1,1.0451155E4,4.0929417E3,3.4816125E3,3E0,6.2579564E-3,3.7927862E-2,-1.8894894E-3,-2.1635525E-2,5.978516E-3,2.994886E-2],"split_indices":[1,2,2,9,10,0,0,0,0,0,0],"split_type":[0,0,0,0,0,0,0,0,0,0,0],"sum_hessian":[7.523298E1,6.534742E1,9.885553E0,5.630296E1,9.044464E0,2.0047076E0,7.880846E0,3.934429E1,1.6958666E1,3.3463454E0,5.698118E0],"tree_param":{"num_deleted":"0","num_feature":"11","num_nodes":"11","size_leaf_vector":"1"}},{"base_weights":[5.7559066E-2,-1.21478535E-1,5.507428E-1,-1.8104298E-1,2.9613458E-2,-8.590011E-3,6.645016E-1,-1.5274295E-2,7.665315E-4,3.1978926E-3,3.0520992E-2],"categories":[],"categories_nodes":[],"categories_segments":[],"categories_sizes":[],"default_left":[0,0,0,0,0,0,0,0,0,0,0],"id":35,"left_children":[1,3,5,7,-1,-1,9,-1,-1,-1,-1],"loss_changes":[7.087433E0,3.3180764E0,2.1433644E0,2.3135786E0,0E0,0E0,9.759264E-1,0E0,0E0,0E0,0E0],"parents":[2147483647,0,0,1,1,2,2,3,3,6,6],"right_children":[2,4,6,8,-1,-1,10,-1,-1,-1,-1],"split_conditions":[8.625294E3,9.869165E-1,7.42455E-1,4.0001016E3,2.9613458E-2,-8.590011E-3,1.0929105E4,-1.5274295E-2,7.665315E-4,3.1978926E-3,3.0520992E-2],"split_indices":[2,1,1,2,0,0,3,0,0,0,0],"split_type":[0,0,0,0,0,0,0,0,0,0,0],"sum_hessian":[7.675141E1,5.741555E1,1.9335861E1,5.518153E1,2.234022E0,2.2719789E0,1.7063883E1,2.6642982E1,2.8538548E1,2.9837456E0,1.4080137E1],"tree_param":{"num_deleted":"0","num_feature":"11","num_nodes":"11","size_leaf_vector":"1"}},{"base_weights":[7.2852105E-2,-1.3747501E-1,4.8482582E-1,6.829644E-3,-5.463881E-1,-7.114153E-2,6.8460345E-1,-1.3636717E-2,1.5577823E-2,-1.2998377E-2,-3.1220071E-2,8.981681E-3,-1.1147173E-2,1.4717113E-2,3.643346E-2],"categories":[],"categories_nodes":[],"categories_segments":[],"categories_sizes":[],"default_left":[0,0,0,0,0,0,0,0,0,0,0,0,0,0,0],"id":36,"left_children":[1,3,5,7,9,11,13,-1,-1,-1,-1,-1,-1,-1,-1],"loss_changes":[6.6855626E0,3.0533826E0,2.9851665E0,5.604916E0,1.9201183E-1,6.58084E-1,7.135248E-1,0E0,0E0,0E0,0E0,0E0,0E0,0E0,0E0],"parents":[2147483647,0,0,1,1,2,2,3,3,4,4,5,5,6,6],"right_children":[2,4,6,8,10,12,14,-1,-1,-1,-1,-1,-1,-1,-1],"split_conditions":[8.3946604E-1,7.997628E-1,4.861727E3,3.8834211E3,8.3313197E-1,3.922347E3,1.0929105E4,-1.3636717E-2,1.5577823E-2,-1.2998377E-2,-3.1220071E-2,8.981681E-3,-1.1147173E-2,1.4717113E-2,3.643346E-2],"split_indices":[1,1,2,2,1,3,3,0,0,0,0,0,0,0,0],"split_type":[0,0,0,0,0,0,0,0,0,0,0,0,0,0,0],"sum_hessian":[7.3618195E1,4.9618702E1,2.3999495E1,3.812948E1,1.1489224E1,6.6845756E0,1.731492E1,2.0089094E1,1.8040382E1,8.359115E0,3.1301093E0,2.689261E0,3.9953146E0,9.404029E0,7.9108906E0],"tree_param":{"num_deleted":"0","num_feature":"11","num_nodes":"15","size_leaf_vector":"1"}},{"base_weights":[2.3440257E-2,-1.739101E-1,5.540155E-1,-4.7031692E-1,2.4933646E-2,-8.518705E-3,6.743382E-1,-9.209607E-3,-3.4739323E-2,-1.2960698E-2,2.2438748E-2,1.7910289E-2,3.9161842E-2],"categories":[],"categories_nodes":[],"categories_segments":[],"categories_sizes":[],"default_left":[0,0,0,0,0,0,0,0,0,0,0,0,0],"id":37,"left_children":[1,3,5,7,9,-1,11,-1,-1,-1,-1,-1,-1],"loss_changes":[8.220229E0,3.4066648E0,2.249463E0,1.8127866E0,7.14493E0,0E0,4.2532635E-1,0E0,0E0,0E0,0E0,0E0,0E0],"parents":[2147483647,0,0,1,1,2,2,3,3,4,4,6,6],"right_children":[2,4,6,8,10,-1,12,-1,-1,-1,-1,-1,-1],"split_conditions":[6.818323E0,2.4152527E3,2E0,3.4816125E3,7.0201826E-1,-8.518705E-3,7.0017993E2,-9.209607E-3,-3.4739323E-2,-1.2960698E-2,2.2438748E-2,1.7910289E-2,3.9161842E-2],"split_indices":[5,4,10,9,1,0,4,0,0,0,0,0,0],"split_type":[0,0,0,0,0,0,0,0,0,0,0,0,0],"sum_hessian":[7.4664986E1,5.540226E1,1.9262724E1,2.1147772E1,3.425449E1,2.4032886E0,1.6859436E1,1.5162159E1,5.9856133E0,2.1227045E1,1.3027443E1,1.2501924E1,4.357511E0],"tree_param":{"num_deleted":"0","num_feature":"11","num_nodes":"13","size_leaf_vector":"1"}},{"base_weights":[5.498148E-2,-7.011318E-2,7.4143916E-1,-3.139938E-1,1.2208021E-1,3.6241733E-2,1.078372E-2,-1.5348009E-2,4.089214E-3,-1.1391871E-2,1.3115736E-2],"categories":[],"categories_nodes":[],"categories_segments":[],"categories_sizes":[],"default_left":[0,0,0,0,0,0,0,0,0,0,0],"id":38,"left_children":[1,3,5,7,9,-1,-1,-1,-1,-1,-1],"loss_changes":[6.588826E0,3.1563728E0,4.2898417E-1,9.348762E-1,3.384501E0,0E0,0E0,0E0,0E0,0E0,0E0],"parents":[2147483647,0,0,1,1,2,2,3,3,4,4],"right_children":[2,4,6,8,10,-1,-1,-1,-1,-1,-1],"split_conditions":[1.6931477E1,3E0,4E0,9.066133E3,4.18583E3,3.6241733E-2,1.078372E-2,-1.5348009E-2,4.089214E-3,-1.1391871E-2,1.3115736E-2],"split_indices":[5,10,10,2,2,0,0,0,0,0,0],"split_type":[0,0,0,0,0,0,0,0,0,0,0],"sum_hessian":[7.3517555E1,6.3704304E1,9.813248E0,2.7518139E1,3.6186165E1,5.910829E0,3.9024189E0,2.3704542E1,3.8135974E0,1.1897732E1,2.4288433E1],"tree_param":{"num_deleted":"0","num_feature":"11","num_nodes":"11","size_leaf_vector":"1"}},{"base_weights":[2.3719411E-2,-1.2139678E-1,7.2301394E-1,-1.8651868E-1,3.0788152E-2,7.94396E-3,3.289362E-2,-1.578328E-2,-4.551617E-4],"categories":[],"categories_nodes":[],"categories_segments":[],"categories_sizes":[],"default_left":[0,0,0,0,0,0,0,0,0],"id":39,"left_children":[1,3,5,7,-1,-1,-1,-1,-1],"loss_changes":[7.6946583E0,3.9473312E0,3.5161924E-1,2.1915843E0,0E0,0E0,0E0,0E0,0E0],"parents":[2147483647,0,0,1,1,2,2,3,3],"right_children":[2,4,6,8,-1,-1,-1,-1,-1],"split_conditions":[1.0451155E4,9.869165E-1,8.058975E-1,4.02761E3,3.0788152E-2,7.94396E-3,3.289362E-2,-1.578328E-2,-4.551617E-4],"split_indices":[2,1,1,2,0,0,0,0,0],"split_type":[0,0,0,0,0,0,0,0,0],"sum_hessian":[7.2095314E1,6.1074135E1,1.1021179E1,5.8388462E1,2.6856723E0,2.7103345E0,8.310845E0,2.554064E1,3.284782E1],"tree_param":{"num_deleted":"0","num_feature":"11","num_nodes":"9","size_leaf_vector":"1"}},{"base_weights":[6.5068053E-3,-1.7327568E-1,5.4157317E-1,-2.7337354E-2,-5.31692E-1,2.1408811E-1,3.2551058E-2,-1.0846001E-2,1.3728304E-2,-2.8444352E-2,-4.0176515E-3,-1.3634622E-2,2.113082E-2],"categories":[],"categories_nodes":[],"categories_segments":[],"categories_sizes":[],"default_left":[0,0,0,0,0,0,0,0,0,0,0,0,0],"id":40,"left_children":[1,3,5,7,9,11,-1,-1,-1,-1,-1,-1,-1],"loss_changes":[7.4587436E0,3.0095148E0,1.3893499E0,4.10621E0,1.1493526E0,2.376175E0,0E0,0E0,0E0,0E0,0E0,0E0,0E0],"parents":[2147483647,0,0,1,1,2,2,3,3,4,4,5,5],"right_children":[2,4,6,8,10,12,-1,-1,-1,-1,-1,-1,-1],"split_conditions":[8.625294E3,3.4816125E3,6.818323E0,1.2891942E3,2.5923967E3,3.347941E3,3.2551058E-2,-1.0846001E-2,1.3728304E-2,-2.8444352E-2,-4.0176515E-3,-1.3634622E-2,2.113082E-2],"split_indices":[2,9,5,9,4,4,0,0,0,0,0,0,0],"split_type":[0,0,0,0,0,0,0,0,0,0,0,0,0],"sum_hessian":[7.3586235E1,5.609172E1,1.7494516E1,4.1390907E1,1.4700814E1,9.562713E0,7.9318037E0,2.5288174E1,1.6102734E1,9.465086E0,5.2357283E0,3.3954062E0,6.1673064E0],"tree_param":{"num_deleted":"0","num_feature":"11","num_nodes":"13","size_leaf_vector":"1"}},{"base_weights":[1.6083915E-2,-1.24097526E-1,6.069899E-1,-1.8981229E-1,3.1000959E-2,6.98779E-1,4.948002E-3,-2.1778138E-3,-1.9419052E-2,9.654209E-3,3.169278E-2],"categories":[],"categories_nodes":[],"categories_segments":[],"categories_sizes":[],"default_left":[0,0,0,0,0,0,0,0,0,0,0],"id":41,"left_children":[1,3,5,7,-1,9,-1,-1,-1,-1,-1],"loss_changes":[6.3773685E0,3.9822156E0,4.8157787E-1,2.3394465E0,0E0,1.296258E-1,0E0,0E0,0E0,0E0,0E0],"parents":[2147483647,0,0,1,1,2,2,3,3,5,5],"right_children":[2,4,6,8,-1,10,-1,-1,-1,-1,-1],"split_conditions":[9.9872295E3,6.2225452E1,1.1224464E4,3.4816125E3,3.1000959E-2,1.1088803E4,4.948002E-3,-2.1778138E-3,-1.9419052E-2,9.654209E-3,3.169278E-2],"split_indices":[2,5,9,9,0,2,0,0,0,0,0],"split_type":[0,0,0,0,0,0,0,0,0,0,0],"sum_hessian":[7.3170975E1,6.0417923E1,1.2753052E1,5.7773193E1,2.6447294E0,9.968096E0,2.784956E0,4.125382E1,1.6519375E1,2.908015E0,7.060081E0],"tree_param":{"num_deleted":"0","num_feature":"11","num_nodes":"11","size_leaf_vector":"1"}},{"base_weights":[2.149697E-2,-2.6846138E-1,2.485093E-1,-3.0180898E-1,5.2699065E-3,5.8912677E-1,6.401073E-3,4.6554646E-3,-1.3516196E-2,7.391987E-3,3.367004E-2,-8.211162E-3,2.5878109E-2],"categories":[],"categories_nodes":[],"categories_segments":[],"categories_sizes":[],"default_left":[0,0,0,0,0,0,0,0,0,0,0,0,0],"id":42,"left_children":[1,3,5,7,-1,9,11,-1,-1,-1,-1,-1,-1],"loss_changes":[5.119118E0,5.362458E-1,3.5814784E0,5.646751E-1,0E0,1.533586E0,3.9891183E0,0E0,0E0,0E0,0E0,0E0,0E0],"parents":[2147483647,0,0,1,1,2,2,3,3,5,5,6,6],"right_children":[2,4,6,8,-1,10,12,-1,-1,-1,-1,-1,-1],"split_conditions":[4.690822E3,9.51672E-1,3.5815393E3,2.4113096E3,5.2699065E-3,1.2891942E3,1.3008585E4,4.6554646E-3,-1.3516196E-2,7.391987E-3,3.367004E-2,-8.211162E-3,2.5878109E-2],"split_indices":[2,1,9,3,0,9,2,0,0,0,0,0,0],"split_type":[0,0,0,0,0,0,0,0,0,0,0,0,0],"sum_hessian":[7.374257E1,3.2221508E1,4.152106E1,3.0197065E1,2.0244415E0,1.6059965E1,2.5461096E1,2.0458431E0,2.8151222E1,7.507384E0,8.552581E0,2.0158474E1,5.3026214E0],"tree_param":{"num_deleted":"0","num_feature":"11","num_nodes":"13","size_leaf_vector":"1"}},{"base_weights":[1.8105863E-3,-1.2985012E-1,6.8667865E-1,-1.8911691E-1,2.999926E-2,5.2489294E-3,3.1965613E-2,-1.0027377E-3,-2.0453371E-2],"categories":[],"categories_nodes":[],"categories_segments":[],"categories_sizes":[],"default_left":[0,0,0,0,0,0,0,0,0],"id":43,"left_children":[1,3,5,7,-1,-1,-1,-1,-1],"loss_changes":[7.0849776E0,3.721418E0,5.8164835E-1,3.3237147E0,0E0,0E0,0E0,0E0,0E0],"parents":[2147483647,0,0,1,1,2,2,3,3],"right_children":[2,4,6,8,-1,-1,-1,-1,-1],"split_conditions":[1.0451155E4,9.869165E-1,8.058975E-1,3.4816125E3,2.999926E-2,5.2489294E-3,3.1965613E-2,-1.0027377E-3,-2.0453371E-2],"split_indices":[2,1,1,9,0,0,0,0,0],"split_type":[0,0,0,0,0,0,0,0,0],"sum_hessian":[7.4595665E1,6.3926987E1,1.0668677E1,6.1363552E1,2.5634358E0,2.5260437E0,8.142633E0,4.2090096E1,1.9273458E1],"tree_param":{"num_deleted":"0","num_feature":"11","num_nodes":"9","size_leaf_vector":"1"}},{"base_weights":[-9.137243E-3,-1.326284E-1,4.7345644E-1,-5.7042533E-1,-2.533955E-2,2.945862E-2,-4.7030207E-2,-4.654174E-3,-2.579194E-2,-1.1323385E-2,6.634187E-3,-1.140899E-2,9.715826E-3],"categories":[],"categories_nodes":[],"categories_segments":[],"categories_sizes":[],"default_left":[0,0,0,0,0,0,0,0,0,0,0,0,0],"id":44,"left_children":[1,3,5,7,9,-1,11,-1,-1,-1,-1,-1,-1],"loss_changes":[4.594215E0,2.8488255E0,2.2205954E0,2.5405264E-1,2.6219566E0,0E0,6.327026E-1,0E0,0E0,0E0,0E0,0E0,0E0],"parents":[2147483647,0,0,1,1,2,2,3,3,4,4,6,6],"right_children":[2,4,6,8,10,-1,12,-1,-1,-1,-1,-1,-1],"split_conditions":[9.0833855E-1,1.2525536E3,4E0,6.703685E2,3E0,2.945862E-2,9.06738E3,-4.654174E-3,-2.579194E-2,-1.1323385E-2,6.634187E-3,-1.140899E-2,9.715826E-3],"split_indices":[1,4,10,4,10,0,3,0,0,0,0,0,0],"split_type":[0,0,0,0,0,0,0,0,0,0,0,0,0],"sum_hessian":[7.298193E1,5.926654E1,1.3715395E1,9.966076E0,4.9300465E1,8.5599985E0,5.1553965E0,2.1244702E0,7.8416057E0,2.058671E1,2.8713755E1,2.8479962E0,2.3074002E0],"tree_param":{"num_deleted":"0","num_feature":"11","num_nodes":"13","size_leaf_vector":"1"}},{"base_weights":[3.2976665E-2,-1.0053853E-1,6.9775504E-1,-1.5820171E-1,2.9386533E-2,7.136081E-3,3.1871725E-2,-4.641942E-4,-1.8301034E-2],"categories":[],"categories_nodes":[],"categories_segments":[],"categories_sizes":[],"default_left":[0,0,0,0,0,0,0,0,0],"id":45,"left_children":[1,3,5,7,-1,-1,-1,-1,-1],"loss_changes":[6.787142E0,3.3200314E0,3.7288618E-1,2.6930733E0,0E0,0E0,0E0,0E0,0E0],"parents":[2147483647,0,0,1,1,2,2,3,3],"right_children":[2,4,6,8,-1,-1,-1,-1,-1],"split_conditions":[1.0274906E4,9.869165E-1,8.0059576E-1,3.4816125E3,2.9386533E-2,7.136081E-3,3.1871725E-2,-4.641942E-4,-1.8301034E-2],"split_indices":[2,1,1,9,0,0,0,0,0],"split_type":[0,0,0,0,0,0,0,0,0],"sum_hessian":[7.28872E1,6.211038E1,1.0776824E1,5.961562E1,2.4947572E0,2.6232522E0,8.153572E0,4.1411488E1,1.8204132E1],"tree_param":{"num_deleted":"0","num_feature":"11","num_nodes":"9","size_leaf_vector":"1"}},{"base_weights":[-2.3165215E-2,-1.698768E-1,5.819492E-1,-1.7934434E-2,-4.1031298E-1,-5.6842747E-3,7.827273E-1,-1.1523841E-2,2.0042803E-2,-2.1171834E-2,9.004368E-3,3.869887E-2,1.2208392E-2],"categories":[],"categories_nodes":[],"categories_segments":[],"categories_sizes":[],"default_left":[0,0,0,0,0,0,0,0,0,0,0,0,0],"id":46,"left_children":[1,3,5,7,9,-1,11,-1,-1,-1,-1,-1,-1],"loss_changes":[6.979025E0,2.2878408E0,2.4550977E0,5.997245E0,2.0766253E0,0E0,4.97262E-1,0E0,0E0,0E0,0E0,0E0,0E0],"parents":[2147483647,0,0,1,1,2,2,3,3,4,4,6,6],"right_children":[2,4,6,8,10,-1,12,-1,-1,-1,-1,-1,-1],"split_conditions":[9.0833855E-1,7.997628E-1,4.0001016E3,7.10641E-1,1.3008585E4,-5.6842747E-3,4E0,-1.1523841E-2,2.0042803E-2,-2.1171834E-2,9.004368E-3,3.869887E-2,1.2208392E-2],"split_indices":[1,1,2,1,2,0,10,0,0,0,0,0,0],"split_type":[0,0,0,0,0,0,0,0,0,0,0,0,0],"sum_hessian":[7.438558E1,6.1027767E1,1.3357813E1,3.871268E1,2.231509E1,3.0268114E0,1.0331002E1,2.6045052E1,1.2667626E1,1.9076962E1,3.2381291E0,5.969428E0,4.3615737E0],"tree_param":{"num_deleted":"0","num_feature":"11","num_nodes":"13","size_leaf_vector":"1"}},{"base_weights":[1.2436136E-2,-1.3347484E-1,4.1820866E-1,-5.5780552E-2,-2.7848214E-2,-1.1674143E-1,6.3417333E-1,-1.1477176E-2,9.437156E-3,8.066822E-3,-1.6741777E-2,3.27552E-2,9.997437E-3],"categories":[],"categories_nodes":[],"categories_segments":[],"categories_sizes":[],"default_left":[0,0,0,0,0,0,0,0,0,0,0,0,0],"id":47,"left_children":[1,3,5,7,-1,9,11,-1,-1,-1,-1,-1,-1],"loss_changes":[4.500511E0,2.372387E0,2.4690125E0,3.602168E0,0E0,8.8636273E-1,6.2845135E-1,0E0,0E0,0E0,0E0,0E0,0E0],"parents":[2147483647,0,0,1,1,2,2,3,3,5,5,6,6],"right_children":[2,4,6,8,-1,10,12,-1,-1,-1,-1,-1,-1],"split_conditions":[8.735368E-1,7.9990146E3,4.861727E3,3.1321206E3,-2.7848214E-2,1.8144432E3,5.9569795E3,-1.1477176E-2,9.437156E-3,8.066822E-3,-1.6741777E-2,3.27552E-2,9.997437E-3],"split_indices":[1,4,2,4,0,9,9,0,0,0,0,0,0],"split_type":[0,0,0,0,0,0,0,0,0,0,0,0,0],"sum_hessian":[7.212798E1,5.40385E1,1.8089481E1,4.9414288E1,4.6242123E0,5.4668455E0,1.2622636E1,2.758716E1,2.182713E1,2.9831192E0,2.4837265E0,6.996827E0,5.6258087E0],"tree_param":{"num_deleted":"0","num_feature":"11","num_nodes":"13","size_leaf_vector":"1"}},{"base_weights":[-1.613889E-2,-1.2769428E-1,5.7792234E-1,-1.8345988E-1,2.8573686E-2,3.213007E-2,2.4566041E-1,-1.0785012E-3,-1.6384052E-2,-1.3383722E-2,2.2419631E-2],"categories":[],"categories_nodes":[],"categories_segments":[],"categories_sizes":[],"default_left":[0,0,0,0,0,0,0,0,0,0,0],"id":48,"left_children":[1,3,5,7,-1,-1,9,-1,-1,-1,-1],"loss_changes":[5.124221E0,3.3077703E0,5.2130413E-1,2.1871207E0,0E0,0E0,1.8045831E0,0E0,0E0,0E0,0E0],"parents":[2147483647,0,0,1,1,2,2,3,3,6,6],"right_children":[2,4,6,8,-1,-1,10,-1,-1,-1,-1],"split_conditions":[1.0451155E4,9.869165E-1,2.4934263E3,8.0059576E-1,2.8573686E-2,3.213007E-2,3.347941E3,-1.0785012E-3,-1.6384052E-2,-1.3383722E-2,2.2419631E-2],"split_indices":[2,1,4,1,0,0,4,0,0,0,0],"split_type":[0,0,0,0,0,0,0,0,0,0,0],"sum_hessian":[7.30954E1,6.2861153E1,1.0234242E1,6.0423714E1,2.4374385E0,4.409088E0,5.825154E0,3.7033657E1,2.3390059E1,2.0047398E0,3.8204143E0],"tree_param":{"num_deleted":"0","num_feature":"11","num_nodes":"11","size_leaf_vector":"1"}},{"base_weights":[1.6858282E-2,-4.6322312E-2,3.223103E-2,-2.634079E-1,1.2922308E-1,-1.319157E-2,1.1462171E-2,-1.2801588E-2,1.39952E-2],"categories":[],"categories_nodes":[],"categories_segments":[],"categories_sizes":[],"default_left":[0,0,0,0,0,0,0,0,0],"id":49,"left_children":[1,3,-1,5,7,-1,-1,-1,-1],"loss_changes":[3.7950208E0,2.77365E0,0E0,1.3718736E0,4.2483406E0,0E0,0E0,0E0,0E0],"parents":[2147483647,0,0,1,1,3,3,4,4],"right_children":[2,4,-1,6,8,-1,-1,-1,-1],"split_conditions":[9.869165E-1,3E0,3.223103E-2,1.1088803E4,4.18583E3,-1.319157E-2,1.1462171E-2,-1.2801588E-2,1.39952E-2],"split_indices":[1,10,0,2,2,0,0,0,0],"split_type":[0,0,0,0,0,0,0,0,0],"sum_hessian":[7.263988E1,6.899682E1,3.6430547E0,3.0400934E1,3.8595886E1,2.7841146E1,2.5597894E0,1.2415942E1,2.6179943E1],"tree_param":{"num_deleted":"0","num_feature":"11","num_nodes":"9","size_leaf_vector":"1"}},{"base_weights":[7.0092544E-2,-8.124019E-2,6.975811E-1,-2.342498E-1,2.542937E-1,-2.169458E-3,3.5606217E-2,-2.5148594E-3,-1.9976506E-2,1.9578798E-2,-1.9738432E-2],"categories":[],"categories_nodes":[],"categories_segments":[],"categories_sizes":[],"default_left":[0,0,0,0,0,0,0,0,0,0,0],"id":50,"left_children":[1,3,5,7,9,-1,-1,-1,-1,-1,-1],"loss_changes":[7.003034E0,3.212231E0,2.1678758E0,1.8648651E0,3.969935E0,0E0,0E0,0E0,0E0,0E0,0E0],"parents":[2147483647,0,0,1,1,2,2,3,3,4,4],"right_children":[2,4,6,8,10,-1,-1,-1,-1,-1,-1],"split_conditions":[9.902764E0,1.0762392E4,4.0001016E3,4.013615E0,7.9990146E3,-2.169458E-3,3.5606217E-2,-2.5148594E-3,-1.9976506E-2,1.9578798E-2,-1.9738432E-2],"split_indices":[5,3,2,5,4,0,0,0,0,0,0],"split_type":[0,0,0,0,0,0,0,0,0,0,0],"sum_hessian":[7.0553955E1,5.824737E1,1.230658E1,4.0419197E1,1.7828176E1,2.8024461E0,9.504133E0,2.6054218E1,1.4364979E1,1.4088141E1,3.7400339E0],"tree_param":{"num_deleted":"0","num_feature":"11","num_nodes":"11","size_leaf_vector":"1"}},{"base_weights":[-2.4950068E-2,-9.1756545E-2,3.2213863E-2,-3.2422E-2,-2.5426814E-2,-6.3128346E-3,8.670166E-3],"categories":[],"categories_nodes":[],"categories_segments":[],"categories_sizes":[],"default_left":[0,0,0,0,0,0,0],"id":51,"left_children":[1,3,-1,5,-1,-1,-1],"loss_changes":[4.2655807E0,2.2341084E0,0E0,2.1205473E0,0E0,0E0,0E0],"parents":[2147483647,0,0,1,1,3,3],"right_children":[2,4,-1,6,-1,-1,-1],"split_conditions":[9.869165E-1,7.9990146E3,3.2213863E-2,3.1502744E3,-2.5426814E-2,-6.3128346E-3,8.670166E-3],"split_indices":[1,4,0,4,0,0,0],"split_type":[0,0,0,0,0,0,0],"sum_hessian":[7.223561E1,6.8502785E1,3.7328224E0,6.3675735E1,4.8270507E0,4.2846386E1,2.082935E1],"tree_param":{"num_deleted":"0","num_feature":"11","num_nodes":"7","size_leaf_vector":"1"}},{"base_weights":[2.8973745E-2,-3.0226173E-2,3.0968577E-2,-8.462563E-2,2.9383585E-2,2.6420997E-3,-1.3353336E-2],"categories":[],"categories_nodes":[],"categories_segments":[],"categories_sizes":[],"default_left":[0,0,0,0,0,0,0],"id":52,"left_children":[1,3,-1,5,-1,-1,-1],"loss_changes":[3.2454827E0,2.9989338E0,0E0,2.5335717E0,0E0,0E0,0E0],"parents":[2147483647,0,0,1,1,3,3],"right_children":[2,4,-1,6,-1,-1,-1],"split_conditions":[9.869165E-1,1.9366547E4,3.0968577E-2,3.4816125E3,2.9383585E-2,2.6420997E-3,-1.3353336E-2],"split_indices":[1,3,0,9,0,0,0],"split_type":[0,0,0,0,0,0,0],"sum_hessian":[7.050252E1,6.7091805E1,3.4107103E0,6.42972E1,2.794598E0,4.0985874E1,2.331133E1],"tree_param":{"num_deleted":"0","num_feature":"11","num_nodes":"7","size_leaf_vector":"1"}},{"base_weights":[-2.831961E-2,-1.226728E-1,2.5542604E-2,-1.7154229E-1,2.705877E-2,-1.7234912E-3,-1.6069297E-2],"categories":[],"categories_nodes":[],"categories_segments":[],"categories_sizes":[],"default_left":[0,0,0,0,0,0,0],"id":53,"left_children":[1,3,-1,5,-1,-1,-1],"loss_changes":[4.851456E0,2.8503108E0,0E0,1.8806778E0,0E0,0E0,0E0],"parents":[2147483647,0,0,1,1,3,3],"right_children":[2,4,-1,6,-1,-1,-1],"split_conditions":[9.51672E-1,1.9366547E4,2.5542604E-2,3.4816125E3,2.705877E-2,-1.7234912E-3,-1.6069297E-2],"split_indices":[1,3,0,9,0,0,0],"split_type":[0,0,0,0,0,0,0],"sum_hessian":[7.261196E1,6.504173E1,7.5702305E0,6.2773655E1,2.2680774E0,4.181412E1,2.0959534E1],"tree_param":{"num_deleted":"0","num_feature":"11","num_nodes":"7","size_leaf_vector":"1"}},{"base_weights":[-4.0311556E-2,-1.5043847E-1,4.393928E-1,-2.5484195E-1,1.791277E-1,-2.9475713E-4,5.894329E-1,-5.696679E-3,-2.0555632E-2,2.1419685E-2,-4.61146E-3,3.1954292E-2,5.1921443E-3],"categories":[],"categories_nodes":[],"categories_segments":[],"categories_sizes":[],"default_left":[0,0,0,0,0,0,0,0,0,0,0,0,0],"id":54,"left_children":[1,3,5,7,9,-1,11,-1,-1,-1,-1,-1,-1],"loss_changes":[4.0897975E0,2.238931E0,9.804702E-1,1.2581482E0,1.8221672E0,0E0,8.396294E-1,0E0,0E0,0E0,0E0,0E0,0E0],"parents":[2147483647,0,0,1,1,2,2,3,3,4,4,6,6],"right_children":[2,4,6,8,10,-1,12,-1,-1,-1,-1,-1,-1],"split_conditions":[9.0833855E-1,7.8747812E3,4.690822E3,4.737881E3,7.997628E-1,-2.9475713E-4,5.9569795E3,-5.696679E-3,-2.0555632E-2,2.1419685E-2,-4.61146E-3,3.1954292E-2,5.1921443E-3],"split_indices":[1,2,2,4,1,0,9,0,0,0,0,0,0],"split_type":[0,0,0,0,0,0,0,0,0,0,0,0,0],"sum_hessian":[7.2914185E1,6.0416916E1,1.24972725E1,4.622632E1,1.4190597E1,3.6200192E0,8.877254E0,3.43976E1,1.1828722E1,5.678977E0,8.51162E0,5.0844793E0,3.7927747E0],"tree_param":{"num_deleted":"0","num_feature":"11","num_nodes":"13","size_leaf_vector":"1"}},{"base_weights":[-1.7405331E-2,-1.1668596E-1,5.342879E-1,-1.962789E-2,-4.3701348E-1,2.8151052E-2,4.856492E-4,-1.1008668E-2,1.0664042E-2,-2.7883189E-2,-2.825715E-4],"categories":[],"categories_nodes":[],"categories_segments":[],"categories_sizes":[],"default_left":[0,0,0,0,0,0,0,0,0,0,0],"id":55,"left_children":[1,3,5,7,9,-1,-1,-1,-1,-1,-1],"loss_changes":[4.1546693E0,1.9725361E0,1.0076938E0,3.8930633E0,1.6436424E0,0E0,0E0,0E0,0E0,0E0,0E0],"parents":[2147483647,0,0,1,1,2,2,3,3,4,4],"right_children":[2,4,6,8,10,-1,-1,-1,-1,-1,-1],"split_conditions":[1.0451155E4,4.41552E3,4.195466E3,4.0001016E3,2.4152527E3,2.8151052E-2,4.856492E-4,-1.1008668E-2,1.0664042E-2,-2.7883189E-2,-2.825715E-4],"split_indices":[2,9,4,2,4,0,0,0,0,0,0],"split_type":[0,0,0,0,0,0,0,0,0,0,0],"sum_hessian":[7.15768E1,6.1997036E1,9.579762E0,4.920934E1,1.27877E1,6.7069783E0,2.872784E0,2.6036726E1,2.3172611E1,7.1937523E0,5.5939474E0],"tree_param":{"num_deleted":"0","num_feature":"11","num_nodes":"11","size_leaf_vector":"1"}},{"base_weights":[6.3683935E-2,-5.08878E-2,5.4156256E-1,-2.6053074E-1,1.1776672E-1,-2.8677033E-3,7.014353E-1,6.202536E-3,-1.4142226E-2,-1.8202726E-2,9.940028E-3,3.58422E-2,1.0042035E-2],"categories":[],"categories_nodes":[],"categories_segments":[],"categories_sizes":[],"default_left":[0,0,0,0,0,0,0,0,0,0,0,0,0],"id":56,"left_children":[1,3,5,7,9,-1,11,-1,-1,-1,-1,-1,-1],"loss_changes":[3.9301786E0,2.1444976E0,1.4593325E0,1.1492001E0,2.7744608E0,0E0,5.2992153E-1,0E0,0E0,0E0,0E0,0E0,0E0],"parents":[2147483647,0,0,1,1,2,2,3,3,4,4,6,6],"right_children":[2,4,6,8,10,-1,12,-1,-1,-1,-1,-1,-1],"split_conditions":[9.0833855E-1,3E0,4.0001016E3,3.922347E3,2.6017256E3,-2.8677033E-3,4E0,6.202536E-3,-1.4142226E-2,-1.8202726E-2,9.940028E-3,3.58422E-2,1.0042035E-2],"split_indices":[1,10,2,3,2,0,10,0,0,0,0,0,0],"split_type":[0,0,0,0,0,0,0,0,0,0,0,0,0],"sum_hessian":[6.877559E1,5.691678E1,1.1858812E1,2.4889196E1,3.2027584E1,2.680361E0,9.178452E0,4.308212E0,2.0580984E1,5.029252E0,2.6998331E1,5.0270853E0,4.151366E0],"tree_param":{"num_deleted":"0","num_feature":"11","num_nodes":"13","size_leaf_vector":"1"}},{"base_weights":[-1.2376918E-2,-6.9944404E-2,3.0319165E-2,-1.1507244E-1,2.6780996E-2,1.2028903E-3,-1.3929591E-2],"categories":[],"categories_nodes":[],"categories_segments":[],"categories_sizes":[],"default_left":[0,0,0,0,0,0,0],"id":57,"left_children":[1,3,-1,5,-1,-1,-1],"loss_changes":[3.3830314E0,2.509623E0,0E0,2.3301692E0,0E0,0E0,0E0],"parents":[2147483647,0,0,1,1,3,3],"right_children":[2,4,-1,6,-1,-1,-1],"split_conditions":[9.869165E-1,1.9366547E4,3.0319165E-2,3.4816125E3,2.6780996E-2,1.2028903E-3,-1.3929591E-2],"split_indices":[1,3,0,9,0,0,0],"split_type":[0,0,0,0,0,0,0],"sum_hessian":[7.18937E1,6.858674E1,3.306968E0,6.623344E1,2.3532965E0,4.189575E1,2.4337692E1],"tree_param":{"num_deleted":"0","num_feature":"11","num_nodes":"7","size_leaf_vector":"1"}},{"base_weights":[6.1200812E-2,-2.9504672E-1,1.9616102E-1,8.680931E-3,-4.4607872E-1,4.2798632E-1,-6.0626462E-2,-2.2786323E-2,3.950056E-3,1.395867E-3,3.0338654E-2,-1.5539093E-2,1.0719746E-2],"categories":[],"categories_nodes":[],"categories_segments":[],"categories_sizes":[],"default_left":[0,0,0,0,0,0,0,0,0,0,0,0,0],"id":58,"left_children":[1,3,5,-1,7,9,11,-1,-1,-1,-1,-1,-1],"loss_changes":[3.4607508E0,1.7337377E0,3.12713E0,0E0,1.1919906E0,3.5061727E0,3.037605E0,0E0,0E0,0E0,0E0,0E0,0E0],"parents":[2147483647,0,0,1,1,2,2,4,4,5,5,6,6],"right_children":[2,4,6,-1,8,10,12,-1,-1,-1,-1,-1,-1],"split_conditions":[6.6733754E-1,2E0,3.4816125E3,8.680931E-3,3.8834211E3,1.2525536E3,1.1193385E4,-2.2786323E-2,3.950056E-3,1.395867E-3,3.0338654E-2,-1.5539093E-2,1.0719746E-2],"split_indices":[1,10,9,0,2,4,3,0,0,0,0,0,0],"split_type":[0,0,0,0,0,0,0,0,0,0,0,0,0],"sum_hessian":[6.75726E1,1.7913885E1,4.965872E1,3.8811333E0,1.4032752E1,2.5397081E1,2.4261635E1,1.1364007E1,2.668745E0,1.260968E1,1.2787402E1,1.1962671E1,1.2298963E1],"tree_param":{"num_deleted":"0","num_feature":"11","num_nodes":"13","size_leaf_vector":"1"}},{"base_weights":[3.266211E-2,-2.2469589E-1,2.3662731E-1,-1.3164334E-1,-2.1935834E-2,3.529166E-1,-1.7307498E-2,-8.841806E-3,9.5743E-3,3.415874E-2,4.45122E-3],"categories":[],"categories_nodes":[],"categories_segments":[],"categories_sizes":[],"default_left":[0,0,0,0,0,0,0,0,0,0,0],"id":59,"left_children":[1,3,5,7,-1,9,-1,-1,-1,-1,-1],"loss_changes":[3.8853126E0,8.452574E-1,3.5071807E0,1.0395421E0,0E0,4.1864915E0,0E0,0E0,0E0,0E0,0E0],"parents":[2147483647,0,0,1,1,2,2,3,3,5,5],"right_children":[2,4,6,8,-1,10,-1,-1,-1,-1,-1],"split_conditions":[4.61997E3,5.5157354E3,6.4524917E3,3.4009258E3,-2.1935834E-2,7.997628E-1,-1.7307498E-2,-8.841806E-3,9.5743E-3,3.415874E-2,4.45122E-3],"split_indices":[2,4,4,4,0,1,0,0,0,0,0],"split_type":[0,0,0,0,0,0,0,0,0,0,0],"sum_hessian":[6.9991325E1,3.0855448E1,3.913588E1,2.6151237E1,4.7042093E0,3.414827E1,4.9876113E0,2.1724554E1,4.426684E0,9.461293E0,2.4686975E1],"tree_param":{"num_deleted":"0","num_feature":"11","num_nodes":"11","size_leaf_vector":"1"}},{"base_weights":[9.390792E-3,-1.1487818E-1,4.0717617E-1,-1.6986743E-1,3.952778E-1,3.5866022E-2,5.0769314E-2,-5.270957E-4,-1.7670743E-2,-3.8717436E-3,2.6934067E-2,-8.022421E-3,2.5619755E-2],"categories":[],"categories_nodes":[],"categories_segments":[],"categories_sizes":[],"default_left":[0,0,0,0,0,0,0,0,0,0,0,0,0],"id":60,"left_children":[1,3,5,7,9,-1,11,-1,-1,-1,-1,-1,-1],"loss_changes":[3.754789E0,1.7612298E0,3.061399E0,2.2783713E0,9.847498E-1,0E0,2.1209722E0,0E0,0E0,0E0,0E0,0E0,0E0],"parents":[2147483647,0,0,1,1,2,2,3,3,4,4,6,6],"right_children":[2,4,6,8,10,-1,12,-1,-1,-1,-1,-1,-1],"split_conditions":[8.568416E3,9.51672E-1,5.4079355E3,8.0059576E-1,4.0612598E3,3.5866022E-2,1.9195658E4,-5.270957E-4,-1.7670743E-2,-3.8717436E-3,2.6934067E-2,-8.022421E-3,2.5619755E-2],"split_indices":[2,1,9,1,2,0,3,0,0,0,0,0,0],"split_type":[0,0,0,0,0,0,0,0,0,0,0,0,0],"sum_hessian":[7.2065575E1,5.5995026E1,1.6070549E1,5.17509E1,4.244126E0,5.4938765E0,1.05766735E1,3.4161427E1,1.7589474E1,2.003182E0,2.240944E0,8.3414955E0,2.2351773E0],"tree_param":{"num_deleted":"0","num_feature":"11","num_nodes":"13","size_leaf_vector":"1"}},{"base_weights":[1.1131302E-1,-3.55448E-2,4.232867E-1,6.221504E-2,-3.3497903E-2,1.481509E-2,5.7899994E-1,-6.878962E-3,1.113054E-2,1.4257166E-2,-1.1315478E-2,8.564605E-3,2.7160171E-2],"categories":[],"categories_nodes":[],"categories_segments":[],"categories_sizes":[],"default_left":[0,0,0,0,0,0,0,0,0,0,0,0,0],"id":61,"left_children":[1,3,5,7,-1,9,11,-1,-1,-1,-1,-1,-1],"loss_changes":[3.2285643E0,3.9699726E0,1.4139109E0,2.4137943E0,0E0,1.0419282E0,3.017254E-1,0E0,0E0,0E0,0E0,0E0,0E0],"parents":[2147483647,0,0,1,1,2,2,3,3,5,5,6,6],"right_children":[2,4,6,8,-1,10,12,-1,-1,-1,-1,-1,-1],"split_conditions":[8.3946604E-1,8.3313197E-1,5.2675693E3,7.7677935E3,-3.3497903E-2,2.118248E2,3E0,-6.878962E-3,1.113054E-2,1.4257166E-2,-1.1315478E-2,8.564605E-3,2.7160171E-2],"split_indices":[1,1,3,3,0,4,10,0,0,0,0,0,0],"split_type":[0,0,0,0,0,0,0,0,0,0,0,0,0],"sum_hessian":[6.781161E1,4.7312126E1,2.049948E1,4.3815426E1,3.4967005E0,6.262304E0,1.4237175E1,2.1220808E1,2.259462E1,2.7323675E0,3.5299363E0,4.4139943E0,9.823181E0],"tree_param":{"num_deleted":"0","num_feature":"11","num_nodes":"13","size_leaf_vector":"1"}},{"base_weights":[2.418528E-2,-6.629831E-2,6.2863094E-1,-2.9653972E-1,1.20901875E-1,3.5997364E-3,3.0070977E-2,-1.4800138E-2,3.0305549E-3,1.4124709E-2,-6.1179986E-3],"categories":[],"categories_nodes":[],"categories_segments":[],"categories_sizes":[],"default_left":[0,0,0,0,0,0,0,0,0,0,0],"id":62,"left_children":[1,3,5,7,9,-1,-1,-1,-1,-1,-1],"loss_changes":[3.9674768E0,2.812076E0,4.906888E-1,8.517401E-1,2.4284203E0,0E0,0E0,0E0,0E0,0E0,0E0],"parents":[2147483647,0,0,1,1,2,2,3,3,4,4],"right_children":[2,4,6,8,10,-1,-1,-1,-1,-1,-1],"split_conditions":[9.51672E-1,3E0,4.879306E3,7.613585E3,7.997628E-1,3.5997364E-3,3.0070977E-2,-1.4800138E-2,3.0305549E-3,1.4124709E-2,-6.1179986E-3],"split_indices":[1,10,3,2,1,0,0,0,0,0,0],"split_type":[0,0,0,0,0,0,0,0,0,0,0],"sum_hessian":[6.901757E1,6.157989E1,7.437683E0,2.7091425E1,3.448847E1,2.0281272E0,5.409556E0,2.2637001E1,4.454424E0,1.8349716E1,1.613875E1],"tree_param":{"num_deleted":"0","num_feature":"11","num_nodes":"11","size_leaf_vector":"1"}},{"base_weights":[3.251643E-2,-6.3682854E-2,5.701565E-1,-1.108055E-1,2.5801389E-2,2.8486713E-3,2.7607722E-2,1.8141681E-3,-1.3658073E-2],"categories":[],"categories_nodes":[],"categories_segments":[],"categories_sizes":[],"default_left":[0,0,0,0,0,0,0,0,0],"id":63,"left_children":[1,3,5,7,-1,-1,-1,-1,-1],"loss_changes":[3.731989E0,2.2073083E0,5.568557E-1,2.1800203E0,0E0,0E0,0E0,0E0,0E0],"parents":[2147483647,0,0,1,1,2,2,3,3],"right_children":[2,4,6,8,-1,-1,-1,-1,-1],"split_conditions":[1.0451155E4,9.869165E-1,8.0059576E-1,8.0059576E-1,2.5801389E-2,2.8486713E-3,2.7607722E-2,1.8141681E-3,-1.3658073E-2],"split_indices":[2,1,1,1,0,0,0,0,0],"split_type":[0,0,0,0,0,0,0,0,0],"sum_hessian":[6.8752686E1,5.981344E1,8.939244E0,5.76665E1,2.1469395E0,2.3515322E0,6.587712E0,3.5343685E1,2.2322813E1],"tree_param":{"num_deleted":"0","num_feature":"11","num_nodes":"9","size_leaf_vector":"1"}},{"base_weights":[4.7925406E-4,-2.8006163E-1,1.712227E-1,1.178183E-1,-3.9172766E-1,5.109795E-1,-1.0144775E-1,1.2220226E-2,-7.1527488E-3,-2.6183845E-2,-1.317786E-3,7.581583E-3,3.031016E-2,-8.737289E-3,2.5418784E-2],"categories":[],"categories_nodes":[],"categories_segments":[],"categories_sizes":[],"default_left":[0,0,0,0,0,0,0,0,0,0,0,0,0,0,0],"id":64,"left_children":[1,3,5,7,9,11,13,-1,-1,-1,-1,-1,-1,-1,-1],"loss_changes":[3.5298934E0,1.3311257E0,4.347334E0,5.3506285E-1,2.0538874E0,1.3568048E0,2.6122303E0,0E0,0E0,0E0,0E0,0E0,0E0,0E0,0E0],"parents":[2147483647,0,0,1,1,2,2,3,3,4,4,5,5,6,6],"right_children":[2,4,6,8,10,12,14,-1,-1,-1,-1,-1,-1,-1,-1],"split_conditions":[4.0001016E3,2E0,3.4816125E3,2.4546E4,2.6017256E3,1.3301624E3,1.9366547E4,1.2220226E-2,-7.1527488E-3,-2.6183845E-2,-1.317786E-3,7.581583E-3,3.031016E-2,-8.737289E-3,2.5418784E-2],"split_indices":[2,10,9,7,2,9,3,0,0,0,0,0,0,0,0],"split_type":[0,0,0,0,0,0,0,0,0,0,0,0,0,0,0],"sum_hessian":[6.968998E1,2.5882732E1,4.380725E1,5.6480017E0,2.023473E1,1.872602E1,2.508123E1,3.4226425E0,2.2253592E0,1.0726671E1,9.5080595E0,9.668415E0,9.057606E0,2.2859493E1,2.2217364E0],"tree_param":{"num_deleted":"0","num_feature":"11","num_nodes":"15","size_leaf_vector":"1"}},{"base_weights":[1.1053839E-2,-7.0696086E-2,5.495318E-1,-2.4183519E-1,6.9584586E-2,4.1753342E-3,2.5596859E-2,1.0985696E-2,-1.2442784E-2,-2.2830555E-2,8.978584E-3],"categories":[],"categories_nodes":[],"categories_segments":[],"categories_sizes":[],"default_left":[0,0,0,0,0,0,0,0,0,0,0],"id":65,"left_children":[1,3,5,7,9,-1,-1,-1,-1,-1,-1],"loss_changes":[3.2100632E0,1.559333E0,2.5295663E-1,1.21047E0,3.8738863E0,0E0,0E0,0E0,0E0,0E0,0E0],"parents":[2147483647,0,0,1,1,2,2,3,3,4,4],"right_children":[2,4,6,8,10,-1,-1,-1,-1,-1,-1],"split_conditions":[9.4747525E-1,3E0,4.854014E3,6.703685E2,2.6017256E3,4.1753342E-3,2.5596859E-2,1.0985696E-2,-1.2442784E-2,-2.2830555E-2,8.978584E-3],"split_indices":[1,10,3,4,2,0,0,0,0,0,0],"split_type":[0,0,0,0,0,0,0,0,0,0,0],"sum_hessian":[6.915688E1,6.1549988E1,7.6068916E0,2.707331E1,3.4476677E1,2.0113056E0,5.595586E0,2.4988198E0,2.4574492E1,5.668787E0,2.880789E1],"tree_param":{"num_deleted":"0","num_feature":"11","num_nodes":"11","size_leaf_vector":"1"}},{"base_weights":[1.4295015E-2,-9.70625E-2,3.9331025E-1,1.612746E-2,-3.904848E-1,2.9772907E-2,9.493367E-3,-6.322074E-3,1.1069406E-2,-2.475584E-2,2.7472507E-3,-2.0294886E-2,1.2482206E-2],"categories":[],"categories_nodes":[],"categories_segments":[],"categories_sizes":[],"default_left":[0,0,0,0,0,0,0,0,0,0,0,0,0],"id":66,"left_children":[1,3,5,7,9,-1,11,-1,-1,-1,-1,-1,-1],"loss_changes":[3.146846E0,1.9333849E0,2.2649295E0,2.069077E0,1.7818027E0,0E0,1.8971444E0,0E0,0E0,0E0,0E0,0E0,0E0],"parents":[2147483647,0,0,1,1,2,2,3,3,4,4,6,6],"right_children":[2,4,6,8,10,-1,12,-1,-1,-1,-1,-1,-1],"split_conditions":[8.625294E3,3.4816125E3,6.4241177E3,4.02761E3,2.5923967E3,2.9772907E-2,7.4247163E3,-6.322074E-3,1.1069406E-2,-2.475584E-2,2.7472507E-3,-2.0294886E-2,1.2482206E-2],"split_indices":[2,9,9,2,4,0,9,0,0,0,0,0,0],"split_type":[0,0,0,0,0,0,0,0,0,0,0,0,0],"sum_hessian":[7.074987E1,5.5833412E1,1.4916457E1,4.1654816E1,1.4178597E1,6.809984E0,8.106473E0,2.5439299E1,1.6215515E1,9.003892E0,5.1747055E0,2.4933128E0,5.61316E0],"tree_param":{"num_deleted":"0","num_feature":"11","num_nodes":"13","size_leaf_vector":"1"}},{"base_weights":[2.3514772E-2,-1.1336669E-1,3.6085808E-1,-1.7333941E-1,2.5821818E-2,6.682755E-1,-3.1183392E-1,-9.125551E-4,-2.2260677E-2,3.248412E-2,-4.5423857E-3,-1.8891094E-2,2.7378793E-3],"categories":[],"categories_nodes":[],"categories_segments":[],"categories_sizes":[],"default_left":[0,0,0,0,0,0,0,0,0,0,0,0,0],"id":67,"left_children":[1,3,5,7,-1,9,11,-1,-1,-1,-1,-1,-1],"loss_changes":[3.326716E0,2.5682523E0,4.710243E0,2.8189847E0,0E0,1.8583655E0,5.451772E-1,0E0,0E0,0E0,0E0,0E0,0E0],"parents":[2147483647,0,0,1,1,2,2,3,3,5,5,6,6],"right_children":[2,4,6,8,-1,10,12,-1,-1,-1,-1,-1,-1],"split_conditions":[1.0970143E4,7.430499E1,6.4524917E3,3.4816125E3,2.5821818E-2,1.1224464E4,3E0,-9.125551E-4,-2.2260677E-2,3.248412E-2,-4.5423857E-3,-1.8891094E-2,2.7378793E-3],"split_indices":[3,5,4,9,0,9,10,0,0,0,0,0,0],"split_type":[0,0,0,0,0,0,0,0,0,0,0,0,0],"sum_hessian":[6.827231E1,4.9510616E1,1.8761694E1,4.7314777E1,2.1958404E0,1.2885984E1,5.8757095E0,3.5491535E1,1.1823239E1,1.0818389E1,2.0675955E0,3.7920008E0,2.0837088E0],"tree_param":{"num_deleted":"0","num_feature":"11","num_nodes":"13","size_leaf_vector":"1"}},{"base_weights":[-2.845717E-3,-5.411968E-2,2.8131405E-2,-9.803458E-2,2.570532E-2,2.1684773E-3,-1.1398069E-2],"categories":[],"categories_nodes":[],"categories_segments":[],"categories_sizes":[],"default_left":[0,0,0,0,0,0,0],"id":68,"left_children":[1,3,-1,5,-1,-1,-1],"loss_changes":[2.615079E0,2.1832418E0,0E0,1.8801692E0,0E0,0E0,0E0],"parents":[2147483647,0,0,1,1,3,3],"right_children":[2,4,-1,6,-1,-1,-1],"split_conditions":[9.869165E-1,1.9195658E4,2.8131405E-2,7.997628E-1,2.570532E-2,2.1684773E-3,-1.1398069E-2],"split_indices":[1,3,0,1,0,0,0],"split_type":[0,0,0,0,0,0,0],"sum_hessian":[6.812503E1,6.523488E1,2.8901558E0,6.2983734E1,2.251141E0,3.549363E1,2.7490105E1],"tree_param":{"num_deleted":"0","num_feature":"11","num_nodes":"7","size_leaf_vector":"1"}},{"base_weights":[5.6925684E-2,-1.01985045E-1,4.6467552E-1,8.523713E-3,-8.10262E-1,6.6894996E-1,-1.82652E-2,-7.3469584E-3,1.0007792E-2,-8.895905E-3,-3.8334265E-2,5.99953E-3,3.6208797E-2,-2.2823703E-2,1.6094577E-2],"categories":[],"categories_nodes":[],"categories_segments":[],"categories_sizes":[],"default_left":[0,0,0,0,0,0,0,0,0,0,0,0,0,0,0],"id":69,"left_children":[1,3,5,7,9,11,13,-1,-1,-1,-1,-1,-1,-1,-1],"loss_changes":[4.615516E0,4.07164E0,1.990138E0,2.2668877E0,1.8470764E-1,1.45191E0,2.2875013E0,0E0,0E0,0E0,0E0,0E0,0E0,0E0,0E0],"parents":[2147483647,0,0,1,1,2,2,3,3,4,4,5,5,6,6],"right_children":[2,4,6,8,10,12,14,-1,-1,-1,-1,-1,-1,-1,-1],"split_conditions":[5.4636064E0,4.9916034E0,5.9569795E3,2.455606E0,4E0,1.6364E4,1.0929105E4,-7.3469584E-3,1.0007792E-2,-8.895905E-3,-3.8334265E-2,5.99953E-3,3.6208797E-2,-2.2823703E-2,1.6094577E-2],"split_indices":[5,5,9,5,10,7,3,0,0,0,0,0,0,0,0],"split_type":[0,0,0,0,0,0,0,0,0,0,0,0,0,0,0],"sum_hessian":[6.776894E1,4.984343E1,1.7925516E1,4.4825478E1,5.0179534E0,1.205582E1,5.8696957E0,2.5235779E1,1.9589697E1,2.0165749E0,3.0013785E0,4.7944813E0,7.2613387E0,2.2293296E0,3.640366E0],"tree_param":{"num_deleted":"0","num_feature":"11","num_nodes":"15","size_leaf_vector":"1"}},{"base_weights":[-1.7276853E-2,-1.491649E-1,3.2404813E-1,-2.203915E-3,-5.228979E-1,-1.5378715E-2,4.8904452E-1,6.683299E-3,-2.047491E-2,-6.981759E-3,-2.9359093E-2,2.9906114E-3,2.7559316E-2],"categories":[],"categories_nodes":[],"categories_segments":[],"categories_sizes":[],"default_left":[0,0,0,0,0,0,0,0,0,0,0,0,0],"id":70,"left_children":[1,3,5,7,9,-1,11,-1,-1,-1,-1,-1,-1],"loss_changes":[3.3270957E0,2.9158115E0,2.7878191E0,3.6345844E0,8.457737E-1,0E0,1.3559518E0,0E0,0E0,0E0,0E0,0E0,0E0],"parents":[2147483647,0,0,1,1,2,2,3,3,4,4,6,6],"right_children":[2,4,6,8,10,-1,12,-1,-1,-1,-1,-1,-1],"split_conditions":[5.5161705E0,7.997628E-1,2E0,6.4524917E3,3.5140293E3,-1.5378715E-2,2.6921646E2,6.683299E-3,-2.047491E-2,-6.981759E-3,-2.9359093E-2,2.9906114E-3,2.7559316E-2],"split_indices":[5,1,10,4,9,0,4,0,0,0,0,0,0],"split_type":[0,0,0,0,0,0,0,0,0,0,0,0,0],"sum_hessian":[6.976056E1,5.1129913E1,1.8630644E1,3.814296E1,1.2986954E1,3.0166097E0,1.5614035E1,2.9641794E1,8.501165E0,6.278721E0,6.7082334E0,5.9771194E0,9.636915E0],"tree_param":{"num_deleted":"0","num_feature":"11","num_nodes":"13","size_leaf_vector":"1"}},{"base_weights":[4.183806E-2,-6.11621E-3,2.7563574E-2,-1.1951783E-1,2.5325257E-1,-5.283822E-4,-1.8421376E-2,1.9756244E-2,-1.1015458E-2],"categories":[],"categories_nodes":[],"categories_segments":[],"categories_sizes":[],"default_left":[0,0,0,0,0,0,0,0,0],"id":71,"left_children":[1,3,-1,5,7,-1,-1,-1,-1],"loss_changes":[2.1478324E0,2.0063534E0,0E0,1.7058135E0,2.9139287E0,0E0,0E0,0E0,0E0],"parents":[2147483647,0,0,1,1,3,3,4,4],"right_children":[2,4,-1,6,8,-1,-1,-1,-1],"split_conditions":[9.869165E-1,1.0929105E4,2.7563574E-2,3.6182769E3,6.4524917E3,-5.283822E-4,-1.8421376E-2,1.9756244E-2,-1.1015458E-2],"split_indices":[1,3,0,9,4,0,0,0,0],"split_type":[0,0,0,0,0,0,0,0,0],"sum_hessian":[6.692747E1,6.415536E1,2.7721121E0,4.5388794E1,1.8766565E1,3.6185745E1,9.203048E0,1.2986222E1,5.7803426E0],"tree_param":{"num_deleted":"0","num_feature":"11","num_nodes":"9","size_leaf_vector":"1"}},{"base_weights":[1.1394015E-3,-6.580344E-2,2.6775464E-2,8.7303985E-3,-4.8944232E-1,-2.8542695E-3,1.7032601E-2,-2.4037292E-2,-7.305408E-3],"categories":[],"categories_nodes":[],"categories_segments":[],"categories_sizes":[],"default_left":[0,0,0,0,0,0,0,0,0],"id":72,"left_children":[1,3,-1,5,7,-1,-1,-1,-1],"loss_changes":[3.2317524E0,2.082927E0,0E0,1.9925362E0,1.17908955E-1,0E0,0E0,0E0,0E0],"parents":[2147483647,0,0,1,1,3,3,4,4],"right_children":[2,4,-1,6,8,-1,-1,-1,-1],"split_conditions":[1.3008585E4,6.4524917E3,2.6775464E-2,1.1193385E4,3E0,-2.8542695E-3,1.7032601E-2,-2.4037292E-2,-7.305408E-3],"split_indices":[2,4,0,3,10,0,0,0,0],"split_type":[0,0,0,0,0,0,0,0,0],"sum_hessian":[6.8273865E1,6.3696056E1,4.5778074E0,5.583193E1,7.8641286E0,4.8228996E1,7.602932E0,4.3617806E0,3.5023477E0],"tree_param":{"num_deleted":"0","num_feature":"11","num_nodes":"9","size_leaf_vector":"1"}},{"base_weights":[4.4736132E-2,-2.3341857E-4,2.6559237E-2,-4.7660287E-2,4.775668E-1,2.060098E-3,-1.3516163E-2,2.4145517E-2,4.460709E-3],"categories":[],"categories_nodes":[],"categories_segments":[],"categories_sizes":[],"default_left":[0,0,0,0,0,0,0,0,0],"id":73,"left_children":[1,3,-1,5,7,-1,-1,-1,-1],"loss_changes":[1.8920237E0,1.5259839E0,0E0,1.797701E0,1.459868E-1,0E0,0E0,0E0,0E0],"parents":[2147483647,0,0,1,1,3,3,4,4],"right_children":[2,4,-1,6,8,-1,-1,-1,-1],"split_conditions":[9.869165E-1,1.3008585E4,2.6559237E-2,4.41552E3,9.174338E3,2.060098E-3,-1.3516163E-2,2.4145517E-2,4.460709E-3],"split_indices":[1,2,0,9,9,0,0,0,0],"split_type":[0,0,0,0,0,0,0,0,0],"sum_hessian":[6.593201E1,6.333208E1,2.5999286E0,5.925125E1,4.08083E0,4.5389046E1,1.38622055E1,2.0698323E0,2.0109975E0],"tree_param":{"num_deleted":"0","num_feature":"11","num_nodes":"9","size_leaf_vector":"1"}},{"base_weights":[2.3038726E-2,4.4761482E-1,-6.2093113E-2,6.263773E-1,2.4718844E-4,9.092139E-2,-3.0443537E-1,5.4259766E-3,2.9583551E-2,-7.474483E-3,1.4285599E-2,-2.389201E-2,2.0379906E-3],"categories":[],"categories_nodes":[],"categories_segments":[],"categories_sizes":[],"default_left":[0,0,0,0,0,0,0,0,0,0,0,0,0],"id":74,"left_children":[1,3,5,7,-1,9,11,-1,-1,-1,-1,-1,-1],"loss_changes":[2.530266E0,9.138551E-1,2.2352777E0,2.6005673E-1,0E0,2.912152E0,2.4767723E0,0E0,0E0,0E0,0E0,0E0,0E0],"parents":[2147483647,0,0,1,1,2,2,3,3,5,5,6,6],"right_children":[2,4,6,8,-1,10,12,-1,-1,-1,-1,-1,-1],"split_conditions":[5.57315E2,4E0,7.997628E-1,1.1012169E3,2.4718844E-4,3.6788965E3,8.3946604E-1,5.4259766E-3,2.9583551E-2,-7.474483E-3,1.4285599E-2,-2.389201E-2,2.0379906E-3],"split_indices":[4,10,1,9,0,2,1,0,0,0,0,0,0],"split_type":[0,0,0,0,0,0,0,0,0,0,0,0,0],"sum_hessian":[6.646541E1,9.678791E0,5.6786617E1,6.2926297E0,3.3861609E0,3.557455E1,2.1212069E1,2.003711E0,4.2889185E0,1.7700888E1,1.7873663E1,1.0882566E1,1.0329502E1],"tree_param":{"num_deleted":"0","num_feature":"11","num_nodes":"13","size_leaf_vector":"1"}},{"base_weights":[4.9678404E-2,-7.907082E-2,3.8137147E-1,4.4078594E-1,-1.9464995E-1,-2.5654522E-1,6.052366E-1,2.6042633E-2,-1.2008579E-3,-2.7578606E-3,-2.139677E-2,-3.471226E-4,-1.471334E-2,3.1682294E-2,2.612544E-3],"categories":[],"categories_nodes":[],"categories_segments":[],"categories_sizes":[],"default_left":[0,0,0,0,0,0,0,0,0,0,0,0,0,0,0],"id":75,"left_children":[1,3,5,7,9,11,13,-1,-1,-1,-1,-1,-1,-1,-1],"loss_changes":[2.9777308E0,3.228069E0,3.0875478E0,1.015767E0,1.7656575E0,1.717045E-1,1.4085369E0,0E0,0E0,0E0,0E0,0E0,0E0,0E0,0E0],"parents":[2147483647,0,0,1,1,2,2,3,3,4,4,5,5,6,6],"right_children":[2,4,6,8,10,12,14,-1,-1,-1,-1,-1,-1,-1,-1],"split_conditions":[1.1193385E4,5.57315E2,6.718406E-1,3.6996646E3,8.3313197E-1,8.686559E3,8.488866E3,2.6042633E-2,-1.2008579E-3,-2.7578606E-3,-2.139677E-2,-3.471226E-4,-1.471334E-2,3.1682294E-2,2.612544E-3],"split_indices":[3,4,1,9,1,4,9,0,0,0,0,0,0,0,0],"split_type":[0,0,0,0,0,0,0,0,0,0,0,0,0,0,0],"sum_hessian":[6.63153E1,4.8869465E1,1.7445833E1,7.865273E0,4.1004192E1,4.456063E0,1.2989771E1,4.9076114E0,2.9576616E0,3.1699064E1,9.305129E0,2.0488076E0,2.4072552E0,8.956674E0,4.033097E0],"tree_param":{"num_deleted":"0","num_feature":"11","num_nodes":"15","size_leaf_vector":"1"}},{"base_weights":[8.30043E-3,-7.8090884E-2,5.101162E-1,3.669984E-2,-3.3726275E-1,2.8225524E-2,3.8653377E-3,-8.626345E-3,1.54929515E-2,5.542353E-3,-2.498684E-2],"categories":[],"categories_nodes":[],"categories_segments":[],"categories_sizes":[],"default_left":[0,0,0,0,0,0,0,0,0,0,0],"id":76,"left_children":[1,3,5,7,9,-1,-1,-1,-1,-1,-1],"loss_changes":[3.0665152E0,1.8250227E0,7.0316005E-1,4.0374074E0,2.7401288E0,0E0,0E0,0E0,0E0,0E0,0E0],"parents":[2147483647,0,0,1,1,2,2,3,3,4,4],"right_children":[2,4,6,8,10,-1,-1,-1,-1,-1,-1],"split_conditions":[1.0274906E4,3.4816125E3,8.488866E3,4.02761E3,7.997628E-1,2.8225524E-2,3.8653377E-3,-8.626345E-3,1.54929515E-2,5.542353E-3,-2.498684E-2],"split_indices":[2,9,9,2,1,0,0,0,0,0,0],"split_type":[0,0,0,0,0,0,0,0,0,0,0],"sum_hessian":[6.689666E1,5.8512127E1,8.38453E0,4.1741184E1,1.6770943E1,4.733212E0,3.6513183E0,2.4719444E1,1.702174E1,6.705459E0,1.0065484E1],"tree_param":{"num_deleted":"0","num_feature":"11","num_nodes":"11","size_leaf_vector":"1"}},{"base_weights":[-2.9947674E-2,-7.780382E-2,2.682565E-2,-1.8717608E-1,1.9634198E-1,-3.437477E-3,-2.4939386E-2,1.5080542E-2,-1.789068E-2],"categories":[],"categories_nodes":[],"categories_segments":[],"categories_sizes":[],"default_left":[0,0,0,0,0,0,0,0,0],"id":77,"left_children":[1,3,-1,5,7,-1,-1,-1,-1],"loss_changes":[2.4457262E0,2.0872576E0,0E0,2.0586538E0,2.6779149E0,0E0,0E0,0E0,0E0],"parents":[2147483647,0,0,1,1,3,3,4,4],"right_children":[2,4,-1,6,8,-1,-1,-1,-1],"split_conditions":[9.869165E-1,1.0762392E4,2.682565E-2,7.4347163E3,7.9990146E3,-3.437477E-3,-2.4939386E-2,1.5080542E-2,-1.789068E-2],"split_indices":[1,3,0,2,4,0,0,0,0],"split_type":[0,0,0,0,0,0,0,0,0],"sum_hessian":[6.783433E1,6.5161156E1,2.673168E0,4.7031937E1,1.8129221E1,4.0117233E1,6.914702E0,1.4802388E1,3.3268335E0],"tree_param":{"num_deleted":"0","num_feature":"11","num_nodes":"9","size_leaf_vector":"1"}},{"base_weights":[-3.426687E-2,-1.3103566E-1,4.1818935E-1,-3.8939122E-2,-3.2686555E-1,-6.6767645E-4,5.799157E-1,-8.254369E-3,5.308656E-3,-2.1110088E-2,5.363515E-3,3.372556E-2,2.8578134E-3],"categories":[],"categories_nodes":[],"categories_segments":[],"categories_sizes":[],"default_left":[0,0,0,0,0,0,0,0,0,0,0,0,0],"id":78,"left_children":[1,3,5,7,9,-1,11,-1,-1,-1,-1,-1,-1],"loss_changes":[3.177087E0,1.0429354E0,9.2109585E-1,1.2779245E0,1.8710836E0,0E0,1.1378481E0,0E0,0E0,0E0,0E0,0E0,0E0],"parents":[2147483647,0,0,1,1,2,2,3,3,4,4,6,6],"right_children":[2,4,6,8,10,-1,12,-1,-1,-1,-1,-1,-1],"split_conditions":[9.0833855E-1,3.2728E4,4.690822E3,1.3301624E3,7.42455E-1,-6.6767645E-4,5.9569795E3,-8.254369E-3,5.308656E-3,-2.1110088E-2,5.363515E-3,3.372556E-2,2.8578134E-3],"split_indices":[1,7,2,9,1,0,9,0,0,0,0,0,0],"split_type":[0,0,0,0,0,0,0,0,0,0,0,0,0],"sum_hessian":[6.8060234E1,5.7239048E1,1.0821183E1,4.056125E1,1.6677801E1,3.419566E0,7.401617E0,2.0329254E1,2.0231995E1,1.1413772E1,5.2640295E0,4.009577E0,3.3920403E0],"tree_param":{"num_deleted":"0","num_feature":"11","num_nodes":"13","size_leaf_vector":"1"}},{"base_weights":[4.536567E-2,-7.971032E-2,3.2800743E-1,7.0032217E-3,-3.9742222E-1,5.6041384E-1,-3.4802553E-1,2.878112E-3,-1.6420852E-2,2.4666467E-3,-2.1036908E-2,3.6408663E-2,8.329781E-3,-3.131484E-3,-1.9195147E-2],"categories":[],"categories_nodes":[],"categories_segments":[],"categories_sizes":[],"default_left":[0,0,0,0,0,0,0,0,0,0,0,0,0,0,0],"id":79,"left_children":[1,3,5,7,9,11,13,-1,-1,-1,-1,-1,-1,-1,-1],"loss_changes":[2.4598916E0,1.3505765E0,3.7340076E0,1.1524334E0,6.8443155E-1,1.6664305E0,1.623984E-1,0E0,0E0,0E0,0E0,0E0,0E0,0E0,0E0],"parents":[2147483647,0,0,1,1,2,2,3,3,4,4,5,5,6,6],"right_children":[2,4,6,8,10,12,14,-1,-1,-1,-1,-1,-1,-1,-1],"split_conditions":[1.0581932E4,9.262006E3,7.273657E3,4.737881E3,7.7193505E-1,7.997628E-1,3.4816125E3,2.878112E-3,-1.6420852E-2,2.4666467E-3,-2.1036908E-2,3.6408663E-2,8.329781E-3,-3.131484E-3,-1.9195147E-2],"split_indices":[3,3,4,4,1,1,9,0,0,0,0,0,0,0,0],"split_type":[0,0,0,0,0,0,0,0,0,0,0,0,0,0,0],"sum_hessian":[6.610424E1,4.6820824E1,1.9283413E1,3.8318436E1,8.502387E0,1.4604674E1,4.6787386E0,3.4592594E1,3.7258434E0,2.0868835E0,6.415504E0,5.7370143E0,8.86766E0,2.5826907E0,2.0960479E0],"tree_param":{"num_deleted":"0","num_feature":"11","num_nodes":"15","size_leaf_vector":"1"}},{"base_weights":[-1.4569817E-2,-5.955197E-2,2.6011864E-2,4.706819E-2,-2.3350702E-1,-7.118028E-3,1.6091341E-2,-2.0808313E-2,3.4402143E-3],"categories":[],"categories_nodes":[],"categories_segments":[],"categories_sizes":[],"default_left":[0,0,0,0,0,0,0,0,0],"id":80,"left_children":[1,3,-1,5,7,-1,-1,-1,-1],"loss_changes":[2.1306624E0,1.2485883E0,0E0,3.5536008E0,2.422376E0,0E0,0E0,0E0,0E0],"parents":[2147483647,0,0,1,1,3,3,4,4],"right_children":[2,4,-1,6,8,-1,-1,-1,-1],"split_conditions":[9.869165E-1,3.4816125E3,2.6011864E-2,4.241E3,1.1193385E4,-7.118028E-3,1.6091341E-2,-2.0808313E-2,3.4402143E-3],"split_indices":[1,9,0,2,3,0,0,0,0],"split_type":[0,0,0,0,0,0,0,0,0],"sum_hessian":[6.665286E1,6.4134636E1,2.518227E0,4.066759E1,2.3467045E1,2.5507425E1,1.5160165E1,1.1706477E1,1.1760567E1],"tree_param":{"num_deleted":"0","num_feature":"11","num_nodes":"9","size_leaf_vector":"1"}},{"base_weights":[1.626756E-2,-5.3952772E-2,5.321403E-1,-3.4590286E-1,4.6409637E-2,2.6986891E-2,4.8780823E-3,-2.349158E-2,-4.150472E-3,1.7596958E-2,-2.882147E-3],"categories":[],"categories_nodes":[],"categories_segments":[],"categories_sizes":[],"default_left":[0,0,0,0,0,0,0,0,0,0,0],"id":81,"left_children":[1,3,5,7,9,-1,-1,-1,-1,-1,-1],"loss_changes":[2.5156553E0,1.8354563E0,3.2155418E-1,8.122343E-1,2.2807155E0,0E0,0E0,0E0,0E0,0E0,0E0],"parents":[2147483647,0,0,1,1,2,2,3,3,4,4],"right_children":[2,4,6,8,10,-1,-1,-1,-1,-1,-1],"split_conditions":[9.51672E-1,1.2525536E3,4E0,8.480495E-1,2.1970752E3,2.6986891E-2,4.8780823E-3,-2.349158E-2,-4.150472E-3,1.7596958E-2,-2.882147E-3],"split_indices":[1,4,10,1,4,0,0,0,0,0,0],"split_type":[0,0,0,0,0,0,0,0,0,0,0],"sum_hessian":[6.586062E1,5.9546066E1,6.3145504E0,1.3981471E1,4.5564594E1,3.7291677E0,2.5853825E0,5.574016E0,8.407455E0,9.2871475E0,3.6277447E1],"tree_param":{"num_deleted":"0","num_feature":"11","num_nodes":"11","size_leaf_vector":"1"}},{"base_weights":[-1.496652E-2,-6.4785175E-2,2.7514368E-2,-1.8169628E-1,1.9211596E-1,-3.874402E-3,-2.0964786E-2,1.6386824E-2,-1.0269335E-2],"categories":[],"categories_nodes":[],"categories_segments":[],"categories_sizes":[],"default_left":[0,0,0,0,0,0,0,0,0],"id":82,"left_children":[1,3,-1,5,7,-1,-1,-1,-1],"loss_changes":[2.523778E0,2.0749016E0,0E0,1.2611394E0,2.3441179E0,0E0,0E0,0E0,0E0],"parents":[2147483647,0,0,1,1,3,3,4,4],"right_children":[2,4,-1,6,8,-1,-1,-1,-1],"split_conditions":[9.849403E-1,1.0273127E4,2.7514368E-2,9.262006E3,6.4524917E3,-3.874402E-3,-2.0964786E-2,1.6386824E-2,-1.0269335E-2],"split_indices":[1,3,0,3,4,0,0,0,0],"split_type":[0,0,0,0,0,0,0,0,0],"sum_hessian":[6.753399E1,6.475928E1,2.774712E0,4.490795E1,1.9851328E1,3.804736E1,6.8605933E0,1.3488234E1,6.3630943E0],"tree_param":{"num_deleted":"0","num_feature":"11","num_nodes":"9","size_leaf_vector":"1"}},{"base_weights":[-3.0406935E-2,-7.441587E-2,2.5654253E-2,5.179564E-2,-2.2835425E-1,-4.2981887E-3,2.9325567E-2,-2.302061E-2,1.7137142E-3],"categories":[],"categories_nodes":[],"categories_segments":[],"categories_sizes":[],"default_left":[0,0,0,0,0,0,0,0,0],"id":83,"left_children":[1,3,-1,5,7,-1,-1,-1,-1],"loss_changes":[2.1572957E0,1.3301754E0,0E0,4.343788E0,2.9364238E0,0E0,0E0,0E0,0E0],"parents":[2147483647,0,0,1,1,3,3,4,4],"right_children":[2,4,-1,6,8,-1,-1,-1,-1],"split_conditions":[9.869165E-1,7.997628E-1,2.5654253E-2,7.479834E-1,8.3946604E-1,-4.2981887E-3,2.9325567E-2,-2.302061E-2,1.7137142E-3],"split_indices":[1,1,0,1,1,0,0,0,0],"split_type":[0,0,0,0,0,0,0,0,0],"sum_hessian":[6.774259E1,6.524657E1,2.4960241E0,3.658126E1,2.8665308E1,3.1016386E1,5.5648766E0,1.1587642E1,1.7077667E1],"tree_param":{"num_deleted":"0","num_feature":"11","num_nodes":"9","size_leaf_vector":"1"}},{"base_weights":[7.268712E-3,-2.1442991E-1,2.0241536E-1,1.4547437E-1,-3.096133E-1,2.082037E-2,5.789614E-1,-9.354356E-3,1.4085659E-2,-2.2596398E-2,-3.5730903E-3,1.1010166E-2,-1.0813876E-2,1.1512196E-2,3.0989368E-2],"categories":[],"categories_nodes":[],"categories_segments":[],"categories_sizes":[],"default_left":[0,0,0,0,0,0,0,0,0,0,0,0,0,0,0],"id":84,"left_children":[1,3,5,7,9,11,13,-1,-1,-1,-1,-1,-1,-1,-1],"loss_changes":[3.0280392E0,1.2136346E0,2.5186207E0,8.091527E-1,1.3937426E0,2.1610513E0,2.3943424E-1,0E0,0E0,0E0,0E0,0E0,0E0,0E0,0E0],"parents":[2147483647,0,0,1,1,2,2,3,3,4,4,5,5,6,6],"right_children":[2,4,6,8,10,12,14,-1,-1,-1,-1,-1,-1,-1,-1],"split_conditions":[4.690822E3,2E0,6.818323E0,9.298313E2,2.5460852E3,7.997628E-1,1.0048939E4,-9.354356E-3,1.4085659E-2,-2.2596398E-2,-3.5730903E-3,1.1010166E-2,-1.0813876E-2,1.1512196E-2,3.0989368E-2],"split_indices":[2,10,5,4,2,1,3,0,0,0,0,0,0,0,0],"split_type":[0,0,0,0,0,0,0,0,0,0,0,0,0,0,0],"sum_hessian":[6.598374E1,3.0797852E1,3.518589E1,6.2204742E0,2.4577377E1,2.5161812E1,1.0024077E1,2.1009948E0,4.1194797E0,9.93477E0,1.4642608E1,1.3486268E1,1.1675543E1,6.016474E0,4.0076036E0],"tree_param":{"num_deleted":"0","num_feature":"11","num_nodes":"15","size_leaf_vector":"1"}},{"base_weights":[-2.181936E-3,7.4272424E-2,-4.5777908E-1,-4.7231574E-2,4.8435274E-1,-2.312694E-2,-2.2070466E-3,2.6378243E-3,-1.3647371E-2,2.8074667E-2,-2.6631954E-3],"categories":[],"categories_nodes":[],"categories_segments":[],"categories_sizes":[],"default_left":[0,0,0,0,0,0,0,0,0,0,0],"id":85,"left_children":[1,3,5,7,9,-1,-1,-1,-1,-1,-1],"loss_changes":[2.4015508E0,2.9898796E0,4.1635275E-1,1.6220818E0,1.7332118E0,0E0,0E0,0E0,0E0,0E0,0E0],"parents":[2147483647,0,0,1,1,2,2,3,3,4,4],"right_children":[2,4,6,8,10,-1,-1,-1,-1,-1,-1],"split_conditions":[6.4524917E3,1.1193385E4,1.548798E4,8.925384E3,8.488866E3,-2.312694E-2,-2.2070466E-3,2.6378243E-3,-1.3647371E-2,2.8074667E-2,-2.6631954E-3],"split_indices":[4,3,3,3,9,0,0,0,0,0,0],"split_type":[0,0,0,0,0,0,0,0,0,0,0],"sum_hessian":[6.499368E1,5.708768E1,7.906004E0,4.5404335E1,1.1683348E1,5.4146333E0,2.4913704E0,3.390255E1,1.1501785E1,7.9834685E0,3.699879E0],"tree_param":{"num_deleted":"0","num_feature":"11","num_nodes":"11","size_leaf_vector":"1"}},{"base_weights":[-1.5330822E-2,-6.1679054E-2,2.679213E-2,-2.1230067E-1,5.4512218E-2,6.8855053E-3,-1.2203549E-2,-2.0198636E-2,7.085814E-3],"categories":[],"categories_nodes":[],"categories_segments":[],"categories_sizes":[],"default_left":[0,0,0,0,0,0,0,0,0],"id":86,"left_children":[1,3,-1,5,7,-1,-1,-1,-1],"loss_changes":[2.3172474E0,1.2087238E0,0E0,1.171947E0,2.9119506E0,0E0,0E0,0E0,0E0],"parents":[2147483647,0,0,1,1,3,3,4,4],"right_children":[2,4,-1,6,8,-1,-1,-1,-1],"split_conditions":[6.2225452E1,3E0,2.679213E-2,1.8223236E3,2.6017256E3,6.8855053E-3,-1.2203549E-2,-2.0198636E-2,7.085814E-3],"split_indices":[5,10,0,2,2,0,0,0,0],"split_type":[0,0,0,0,0,0,0,0,0],"sum_hessian":[6.8371254E1,6.5743744E1,2.6275096E0,2.790956E1,3.7834187E1,5.0939655E0,2.2815594E1,5.6809783E0,3.2153206E1],"tree_param":{"num_deleted":"0","num_feature":"11","num_nodes":"9","size_leaf_vector":"1"}},{"base_weights":[-2.7444934E-2,-2.3477979E-1,1.6478817E-1,-3.0839404E-1,1.5224324E-1,-3.177628E-1,2.4814823E-1,7.6680706E-4,-1.552902E-2,1.8405693E-2,-8.288939E-3,-1.6174E-2,-2.6321628E-3,2.6265087E-2,9.940262E-4],"categories":[],"categories_nodes":[],"categories_segments":[],"categories_sizes":[],"default_left":[0,0,0,0,0,0,0,0,0,0,0,0,0,0,0],"id":87,"left_children":[1,3,5,7,9,11,13,-1,-1,-1,-1,-1,-1,-1,-1],"loss_changes":[2.8171449E0,1.0596154E0,1.6397915E0,7.768984E-1,9.3844503E-1,8.4320664E-2,2.9354348E0,0E0,0E0,0E0,0E0,0E0,0E0,0E0,0E0],"parents":[2147483647,0,0,1,1,2,2,3,3,4,4,5,5,6,6],"right_children":[2,4,6,8,10,12,14,-1,-1,-1,-1,-1,-1,-1,-1],"split_conditions":[4.861727E3,7.7677935E3,6.892735E-1,2E0,3.2728E4,2.3196052E3,7.997628E-1,7.6680706E-4,-1.552902E-2,1.8405693E-2,-8.288939E-3,-1.6174E-2,-2.6321628E-3,2.6265087E-2,9.940262E-4],"split_indices":[2,3,1,10,7,9,1,0,0,0,0,0,0,0,0],"split_type":[0,0,0,0,0,0,0,0,0,0,0,0,0,0,0],"sum_hessian":[6.674057E1,3.1896086E1,3.4844486E1,2.7140177E1,4.755909E0,4.304268E0,3.0540216E1,5.616069E0,2.1524107E1,2.2599897E0,2.4959192E0,2.3031306E0,2.0011375E0,9.422473E0,2.1117744E1],"tree_param":{"num_deleted":"0","num_feature":"11","num_nodes":"15","size_leaf_vector":"1"}},{"base_weights":[4.9817856E-2,-3.626012E-2,6.05987E-1,9.5998275E-4,-1.7437449E-2,9.062921E-3,2.9468272E-2,-1.7909064E-3,2.040773E-2],"categories":[],"categories_nodes":[],"categories_segments":[],"categories_sizes":[],"default_left":[0,0,0,0,0,0,0,0,0],"id":88,"left_children":[1,3,5,7,-1,-1,-1,-1,-1],"loss_changes":[3.2276816E0,8.856087E-1,1.1382604E-1,1.3592825E0,0E0,0E0,0E0,0E0,0E0],"parents":[2147483647,0,0,1,1,2,2,3,3],"right_children":[2,4,6,8,-1,-1,-1,-1,-1],"split_conditions":[1.0451155E4,9.782794E3,8.3946604E-1,8.625294E3,-1.7437449E-2,9.062921E-3,2.9468272E-2,-1.7909064E-3,2.040773E-2],"split_indices":[2,2,1,2,0,0,0,0,0],"split_type":[0,0,0,0,0,0,0,0,0],"sum_hessian":[6.450251E1,5.747651E1,7.025998E0,5.4405186E1,3.0713232E0,3.2011652E0,3.824833E0,5.1595695E1,2.809491E0],"tree_param":{"num_deleted":"0","num_feature":"11","num_nodes":"9","size_leaf_vector":"1"}},{"base_weights":[3.4452926E-2,-5.98744E-2,3.381233E-1,4.0591843E-2,-5.0851333E-1,2.7520088E-2,1.22233205E-1,5.46915E-3,-1.4233573E-2,-3.351125E-2,-2.7140786E-3,-6.545562E-3,2.592349E-2],"categories":[],"categories_nodes":[],"categories_segments":[],"categories_sizes":[],"default_left":[0,0,0,0,0,0,0,0,0,0,0,0,0],"id":89,"left_children":[1,3,5,7,9,-1,11,-1,-1,-1,-1,-1,-1],"loss_changes":[1.992724E0,2.461724E0,1.074645E0,1.8400514E0,1.3333578E0,0E0,2.107322E0,0E0,0E0,0E0,0E0,0E0,0E0],"parents":[2147483647,0,0,1,1,2,2,3,3,4,4,6,6],"right_children":[2,4,6,8,10,-1,12,-1,-1,-1,-1,-1,-1],"split_conditions":[6.818323E0,8.3109266E-1,1.8144432E3,6.4524917E3,8.3946604E-1,2.7520088E-2,1.0274906E4,5.46915E-3,-1.4233573E-2,-3.351125E-2,-2.7140786E-3,-6.545562E-3,2.592349E-2],"split_indices":[5,1,9,4,1,0,2,0,0,0,0,0,0],"split_type":[0,0,0,0,0,0,0,0,0,0,0,0,0],"sum_hessian":[6.61541E1,5.170038E1,1.4453721E1,4.372732E1,7.97306E0,3.8464298E0,1.0607291E1,3.624733E1,7.47999E0,3.5317266E0,4.441334E0,7.764091E0,2.8432E0],"tree_param":{"num_deleted":"0","num_feature":"11","num_nodes":"13","size_leaf_vector":"1"}},{"base_weights":[-1.7528506E-2,-7.358106E-2,4.1154835E-1,2.111755E-2,-2.3526719E-1,2.2771088E-2,4.6338513E-4,-2.1215284E-3,2.8002875E-2,-2.6129385E-2,-3.164319E-3],"categories":[],"categories_nodes":[],"categories_segments":[],"categories_sizes":[],"default_left":[0,0,0,0,0,0,0,0,0,0,0],"id":90,"left_children":[1,3,5,7,9,-1,-1,-1,-1,-1,-1],"loss_changes":[1.7068869E0,9.629115E-1,5.048938E-1,2.1428652E0,1.4078677E0,0E0,0E0,0E0,0E0,0E0,0E0],"parents":[2147483647,0,0,1,1,2,2,3,3,4,4],"right_children":[2,4,6,8,10,-1,-1,-1,-1,-1,-1],"split_conditions":[9.51672E-1,3.4816125E3,5.9569795E3,8.284783E3,7.7131157E3,2.2771088E-2,4.6338513E-4,-2.1215284E-3,2.8002875E-2,-2.6129385E-2,-3.164319E-3],"split_indices":[1,9,9,2,3,0,0,0,0,0,0],"split_type":[0,0,0,0,0,0,0,0,0,0,0],"sum_hessian":[6.645173E1,6.023937E1,6.2123585E0,3.9085815E1,2.1153551E1,3.848161E0,2.3641973E0,3.6899406E1,2.1864085E0,4.0220585E0,1.7131493E1],"tree_param":{"num_deleted":"0","num_feature":"11","num_nodes":"11","size_leaf_vector":"1"}},{"base_weights":[-1.0656361E-2,5.6596823E-2,-4.2925695E-1,-2.7055344E-1,1.721039E-1,-2.0784387E-2,-3.6604365E-3,7.4756984E-3,-1.876857E-2,1.4893732E-2,-2.4491067E-3],"categories":[],"categories_nodes":[],"categories_segments":[],"categories_sizes":[],"default_left":[0,0,0,0,0,0,0,0,0,0,0],"id":91,"left_children":[1,3,5,7,9,-1,-1,-1,-1,-1,-1],"loss_changes":[1.9615434E0,2.3721883E0,1.9904196E-1,1.6762385E0,2.185295E0,0E0,0E0,0E0,0E0,0E0,0E0],"parents":[2147483647,0,0,1,1,2,2,3,3,4,4],"right_children":[2,4,6,8,10,-1,-1,-1,-1,-1,-1],"split_conditions":[6.4524917E3,2.7507817E3,1.548798E4,2E0,3.4816125E3,-2.0784387E-2,-3.6604365E-3,7.4756984E-3,-1.876857E-2,1.4893732E-2,-2.4491067E-3],"split_indices":[4,2,3,10,9,0,0,0,0,0,0],"split_type":[0,0,0,0,0,0,0,0,0,0,0],"sum_hessian":[6.595038E1,5.8311523E1,7.6388526E0,1.4515292E1,4.3796234E1,5.1769943E0,2.4618583E0,4.43092E0,1.00843725E1,2.292824E1,2.0867992E1],"tree_param":{"num_deleted":"0","num_feature":"11","num_nodes":"11","size_leaf_vector":"1"}},{"base_weights":[-3.1381942E-2,3.3223295E-1,-9.986023E-2,1.0070368E-1,2.296851E-2,-3.828133E-1,-2.31265E-2,-1.0763676E-2,2.3545481E-2,-1.9146731E-2,2.0701075E-3,1.5803233E-2,-5.3637396E-3],"categories":[],"categories_nodes":[],"categories_segments":[],"categories_sizes":[],"default_left":[0,0,0,0,0,0,0,0,0,0,0,0,0],"id":92,"left_children":[1,3,5,7,-1,9,11,-1,-1,-1,-1,-1,-1],"loss_changes":[1.730671E0,5.037198E-1,1.2369378E0,1.7738001E0,0E0,5.577017E-1,2.3143137E0,0E0,0E0,0E0,0E0,0E0,0E0],"parents":[2147483647,0,0,1,1,2,2,3,3,5,5,6,6],"right_children":[2,4,6,8,-1,10,12,-1,-1,-1,-1,-1,-1],"split_conditions":[5.57315E2,2.6921646E2,1.2525536E3,9.869165E-1,2.296851E-2,8.329592E3,2.1718384E3,-1.0763676E-2,2.3545481E-2,-1.9146731E-2,2.0701075E-3,1.5803233E-2,-5.3637396E-3],"split_indices":[4,4,4,1,0,3,4,0,0,0,0,0,0],"split_type":[0,0,0,0,0,0,0,0,0,0,0,0,0],"sum_hessian":[6.484079E1,9.055169E0,5.578562E1,6.074932E0,2.9802377E0,1.0199094E1,4.558653E1,3.9661071E0,2.1088247E0,8.189674E0,2.0094194E0,8.4856205E0,3.710091E1],"tree_param":{"num_deleted":"0","num_feature":"11","num_nodes":"13","size_leaf_vector":"1"}},{"base_weights":[-4.809827E-2,-8.714557E-2,2.3601782E-2,-1.9349284E-1,7.038725E-2,-1.0021657E-2,1.1720661E-2,1.0978152E-2,-1.5544059E-2],"categories":[],"categories_nodes":[],"categories_segments":[],"categories_sizes":[],"default_left":[0,0,0,0,0,0,0,0,0],"id":93,"left_children":[1,3,-1,5,7,-1,-1,-1,-1],"loss_changes":[1.776298E0,1.1166893E0,0E0,1.2391157E0,2.8053968E0,0E0,0E0,0E0,0E0],"parents":[2147483647,0,0,1,1,3,3,4,4],"right_children":[2,4,-1,6,8,-1,-1,-1,-1],"split_conditions":[7.430499E1,2.9314165E3,2.3601782E-2,1.0274906E4,6.4524917E3,-1.0021657E-2,1.1720661E-2,1.0978152E-2,-1.5544059E-2],"split_indices":[5,4,0,2,4,0,0,0,0],"split_type":[0,0,0,0,0,0,0,0,0],"sum_hessian":[6.515928E1,6.302945E1,2.1298294E0,3.7355175E1,2.5674276E1,3.4302834E1,3.05234E0,1.83292E1,7.345076E0],"tree_param":{"num_deleted":"0","num_feature":"11","num_nodes":"9","size_leaf_vector":"1"}},{"base_weights":[6.910287E-2,-3.2388445E-2,5.213163E-1,-1.979402E-1,9.356391E-2,4.0986524E-3,6.5044785E-1,-1.4987496E-2,1.916452E-3,-1.500622E-2,8.155715E-3,3.0483631E-2,5.888992E-3],"categories":[],"categories_nodes":[],"categories_segments":[],"categories_sizes":[],"default_left":[0,0,0,0,0,0,0,0,0,0,0,0,0],"id":94,"left_children":[1,3,5,7,9,-1,11,-1,-1,-1,-1,-1,-1],"loss_changes":[3.03958E0,1.1916114E0,5.223074E-1,1.1034013E0,1.8494066E0,0E0,2.7511072E-1,0E0,0E0,0E0,0E0,0E0,0E0],"parents":[2147483647,0,0,1,1,2,2,3,3,4,4,6,6],"right_children":[2,4,6,8,10,-1,12,-1,-1,-1,-1,-1,-1],"split_conditions":[9.0833855E-1,3E0,4.690822E3,2.9087056E3,2.6017256E3,4.0986524E-3,2.4546E4,-1.4987496E-2,1.916452E-3,-1.500622E-2,8.155715E-3,3.0483631E-2,5.888992E-3],"split_indices":[1,10,2,4,2,0,7,0,0,0,0,0,0],"split_type":[0,0,0,0,0,0,0,0,0,0,0,0,0],"sum_hessian":[6.349216E1,5.337079E1,1.0121374E1,2.2566406E1,3.080438E1,3.2303722E0,6.8910017E0,1.2518527E1,1.004788E1,