{"learner":{"attributes":{"scikit_learn":"{\"_estimator_type\": \"classifier\"}"},"feature_names":["candidate_accepted_by_rule","panel_confidence","panel_margin","panel_support","panel_conflict","support_conflict_ratio","panel_haplotypes","anchors","best_vs_second_margin","n_block_candidates","log_panel_margin","log_panel_support","log_panel_conflict","log_best_vs_second_margin","panel_margin_per_haplotype","panel_support_per_haplotype","panel_conflict_per_haplotype","confidence_x_log_margin","confidence_x_log_support_conflict_ratio","nearest_phase6_anchor_dist_bp","nearest_same_block_anchor_dist_bp","left_anchors_20kb","right_anchors_20kb","left_nearest_anchor_dist_bp","right_nearest_anchor_dist_bp","left_anchors_50kb","right_anchors_50kb","phase6_block_anchor_count","phase6_block_span_bp","phase6_block_density_per_kb","log_phase6_block_span_bp","log_phase6_block_anchor_count"],"feature_types":["int","float","float","float","float","float","float","float","float","float","float","float","float","float","float","float","float","float","float","int","int","int","int","int","int","int","int","int","int","float","float","float"],"gradient_booster":{"model":{"cats":{"enc":[],"feature_segments":[],"sorted_idx":[]},"gbtree_model_param":{"num_parallel_tree":"1","num_trees":"250"},"iteration_indptr":[0,1,2,3,4,5,6,7,8,9,10,11,12,13,14,15,16,17,18,19,20,21,22,23,24,25,26,27,28,29,30,31,32,33,34,35,36,37,38,39,40,41,42,43,44,45,46,47,48,49,50,51,52,53,54,55,56,57,58,59,60,61,62,63,64,65,66,67,68,69,70,71,72,73,74,75,76,77,78,79,80,81,82,83,84,85,86,87,88,89,90,91,92,93,94,95,96,97,98,99,100,101,102,103,104,105,106,107,108,109,110,111,112,113,114,115,116,117,118,119,120,121,122,123,124,125,126,127,128,129,130,131,132,133,134,135,136,137,138,139,140,141,142,143,144,145,146,147,148,149,150,151,152,153,154,155,156,157,158,159,160,161,162,163,164,165,166,167,168,169,170,171,172,173,174,175,176,177,178,179,180,181,182,183,184,185,186,187,188,189,190,191,192,193,194,195,196,197,198,199,200,201,202,203,204,205,206,207,208,209,210,211,212,213,214,215,216,217,218,219,220,221,222,223,224,225,226,227,228,229,230,231,232,233,234,235,236,237,238,239,240,241,242,243,244,245,246,247,248,249,250],"tree_info":[0,0,0,0,0,0,0,0,0,0,0,0,0,0,0,0,0,0,0,0,0,0,0,0,0,0,0,0,0,0,0,0,0,0,0,0,0,0,0,0,0,0,0,0,0,0,0,0,0,0,0,0,0,0,0,0,0,0,0,0,0,0,0,0,0,0,0,0,0,0,0,0,0,0,0,0,0,0,0,0,0,0,0,0,0,0,0,0,0,0,0,0,0,0,0,0,0,0,0,0,0,0,0,0,0,0,0,0,0,0,0,0,0,0,0,0,0,0,0,0,0,0,0,0,0,0,0,0,0,0,0,0,0,0,0,0,0,0,0,0,0,0,0,0,0,0,0,0,0,0,0,0,0,0,0,0,0,0,0,0,0,0,0,0,0,0,0,0,0,0,0,0,0,0,0,0,0,0,0,0,0,0,0,0,0,0,0,0,0,0,0,0,0,0,0,0,0,0,0,0,0,0,0,0,0,0,0,0,0,0,0,0,0,0,0,0,0,0,0,0,0,0,0,0,0,0,0,0,0,0,0,0,0,0,0,0,0,0,0,0,0,0,0,0,0,0,0,0,0,0],"trees":[{"base_weights":[-5.8213245E-2,-6.3016045E-1,1.1339227E0,-9.523559E-1,-2.5272493E-3,1.4736996E0,3.1988215E-1,-3.923812E-2,-2.1013115E-2,-4.51655E-3,3.0480757E-2,2.1550775E-2,5.6098327E-2,3.8680647E-2,-3.6066931E-3],"categories":[],"categories_nodes":[],"categories_segments":[],"categories_sizes":[],"default_left":[0,0,0,0,0,0,0,0,0,0,0,0,0,0,0],"id":0,"left_children":[1,3,5,7,9,11,13,-1,-1,-1,-1,-1,-1,-1,-1],"loss_changes":[9.219902E1,1.8447647E1,1.11929245E1,2.2345848E0,3.866686E0,1.3937378E0,5.367339E0,0E0,0E0,0E0,0E0,0E0,0E0,0E0,0E0],"parents":[2147483647,0,0,1,1,2,2,3,3,4,4,5,5,6,6],"right_children":[2,4,6,8,10,12,14,-1,-1,-1,-1,-1,-1,-1,-1],"split_conditions":[7.5290174E0,5.3835474E3,2.328E3,1.6349694E-1,1.1048361E4,7.9382915E0,2.118248E2,-3.923812E-2,-2.1013115E-2,-4.51655E-3,3.0480757E-2,2.1550775E-2,5.6098327E-2,3.8680647E-2,-3.6066931E-3],"split_indices":[17,2,19,14,2,17,4,0,0,0,0,0,0,0,0],"split_type":[0,0,0,0,0,0,0,0,0,0,0,0,0,0,0],"sum_hessian":[1.3112518E2,8.924918E1,4.1875988E1,5.8290833E1,3.0958353E1,2.8400885E1,1.3475105E1,3.6448116E1,2.1842718E1,2.853013E1,2.4282224E0,5.2240577E0,2.3176826E1,3.587599E0,9.887506E0],"tree_param":{"num_deleted":"0","num_feature":"32","num_nodes":"15","size_leaf_vector":"1"}},{"base_weights":[-3.331574E-2,-4.983016E-1,1.3205408E0,-8.290986E-1,2.4068059E-1,1.6214854E0,4.8740122E-1,-3.805566E-2,-1.7714143E-2,-7.4694967E-3,2.1678617E-2,1.6662586E-2,5.886622E-2,3.8835995E-2,-2.0534198E-3],"categories":[],"categories_nodes":[],"categories_segments":[],"categories_sizes":[],"default_left":[0,0,0,0,0,0,0,0,0,0,0,0,0,0,0],"id":1,"left_children":[1,3,5,7,9,11,13,-1,-1,-1,-1,-1,-1,-1,-1],"loss_changes":[8.4444435E1,2.4781643E1,7.0209618E0,4.682911E0,5.834919E0,8.2901E-2,4.1948643E0,0E0,0E0,0E0,0E0,0E0,0E0,0E0,0E0],"parents":[2147483647,0,0,1,1,2,2,3,3,4,4,5,5,6,6],"right_children":[2,4,6,8,10,12,14,-1,-1,-1,-1,-1,-1,-1,-1],"split_conditions":[7.951119E0,4.7242615E-1,2.362E3,1.6349694E-1,1.0599135E4,8.80413E0,4.3851694E3,-3.805566E-2,-1.7714143E-2,-7.4694967E-3,2.1678617E-2,1.6662586E-2,5.886622E-2,3.8835995E-2,-2.0534198E-3],"split_indices":[17,15,19,14,3,10,8,0,0,0,0,0,0,0,0],"split_type":[0,0,0,0,0,0,0,0,0,0,0,0,0,0,0],"sum_hessian":[1.3004956E2,9.774324E1,3.2306316E1,6.735061E1,3.0392632E1,2.2343119E1,9.963197E0,3.4798264E1,3.2552345E1,1.4217687E1,1.6174944E1,2.0091217E0,2.0333998E1,3.6922555E0,6.270941E0],"tree_param":{"num_deleted":"0","num_feature":"32","num_nodes":"15","size_leaf_vector":"1"}},{"base_weights":[-1.2020551E-2,-4.4924012E-1,1.246172E0,-7.803019E-1,2.4129128E-1,1.5320452E0,4.3743497E-1,-3.4784023E-2,-1.7867342E-2,-1.0812216E-2,2.0148901E-2,1.9400459E-2,5.673517E-2,3.5612945E-2,-1.1153187E-3],"categories":[],"categories_nodes":[],"categories_segments":[],"categories_sizes":[],"default_left":[0,0,0,0,0,0,0,0,0,0,0,0,0,0,0],"id":2,"left_children":[1,3,5,7,9,11,13,-1,-1,-1,-1,-1,-1,-1,-1],"loss_changes":[7.223858E1,2.2645868E1,6.4902153E0,2.805893E0,6.444792E0,3.1003952E-1,3.2349322E0,0E0,0E0,0E0,0E0,0E0,0E0,0E0,0E0],"parents":[2147483647,0,0,1,1,2,2,3,3,4,4,5,5,6,6],"right_children":[2,4,6,8,10,12,14,-1,-1,-1,-1,-1,-1,-1,-1],"split_conditions":[7.951119E0,4.6998432E-1,2.362E3,5.5733204E0,2.7928586E3,8.159828E0,4.3851694E3,-3.4784023E-2,-1.7867342E-2,-1.0812216E-2,2.0148901E-2,1.9400459E-2,5.673517E-2,3.5612945E-2,-1.1153187E-3],"split_indices":[17,15,19,17,4,17,8,0,0,0,0,0,0,0,0],"split_type":[0,0,0,0,0,0,0,0,0,0,0,0,0,0,0],"sum_hessian":[1.2728211E2,9.5412384E1,3.186973E1,6.4316895E1,3.1095484E1,2.2224909E1,9.644822E0,3.2907005E1,3.1409891E1,1.1812086E1,1.9283398E1,3.0595453E0,1.9165363E1,3.2685084E0,6.3763137E0],"tree_param":{"num_deleted":"0","num_feature":"32","num_nodes":"15","size_leaf_vector":"1"}},{"base_weights":[-1.1146466E-3,-4.6692747E-1,1.1650431E0,-6.171131E-1,9.3442297E-1,-2.860314E-3,1.2694914E0,-2.77269E-2,-1.655909E-3,4.0945075E-2,1.6779556E-4,4.6752945E-2,1.0776927E-2],"categories":[],"categories_nodes":[],"categories_segments":[],"categories_sizes":[],"default_left":[0,0,0,0,0,0,0,0,0,0,0,0,0],"id":3,"left_children":[1,3,5,7,9,-1,11,-1,-1,-1,-1,-1,-1],"loss_changes":[7.183929E1,2.1041597E1,5.1231956E0,8.560062E0,2.1649275E0,0E0,1.4058685E0,0E0,0E0,0E0,0E0,0E0,0E0],"parents":[2147483647,0,0,1,1,2,2,3,3,4,4,6,6],"right_children":[2,4,6,8,10,-1,12,-1,-1,-1,-1,-1,-1],"split_conditions":[9.057133E3,9.340498E-1,4.5227042E-1,4.7242615E-1,7.343E3,-2.860314E-3,8E0,-2.77269E-2,-1.655909E-3,4.0945075E-2,1.6779556E-4,4.6752945E-2,1.0776927E-2],"split_indices":[2,1,15,15,19,0,21,0,0,0,0,0,0],"split_type":[0,0,0,0,0,0,0,0,0,0,0,0,0],"sum_hessian":[1.2824641E2,9.249799E1,3.5748417E1,8.455528E1,7.9427075E0,2.796976E0,3.295144E1,6.408359E1,2.0471695E1,5.925256E0,2.0174518E0,3.0097673E1,2.8537657E0],"tree_param":{"num_deleted":"0","num_feature":"32","num_nodes":"13","size_leaf_vector":"1"}},{"base_weights":[-1.2101611E-3,-6.292784E-1,8.859264E-1,-8.227306E-1,1.3476884E-1,3.5000587E-1,1.315994E0,-3.0722024E-2,-1.6421265E-3,-7.955074E-3,2.1473324E-2,3.6053643E-2,-1.1978863E-3,5.2674826E-2,2.2121858E-2],"categories":[],"categories_nodes":[],"categories_segments":[],"categories_sizes":[],"default_left":[0,0,0,0,0,0,0,0,0,0,0,0,0,0,0],"id":4,"left_children":[1,3,5,7,9,11,13,-1,-1,-1,-1,-1,-1,-1,-1],"loss_changes":[7.347527E1,1.1633297E1,1.1677483E1,2.560402E0,3.2805746E0,7.141925E0,1.9239731E0,0E0,0E0,0E0,0E0,0E0,0E0,0E0,0E0],"parents":[2147483647,0,0,1,1,2,2,3,3,4,4,5,5,6,6],"right_children":[2,4,6,8,10,12,14,-1,-1,-1,-1,-1,-1,-1,-1],"split_conditions":[7.0789585E0,4.7242615E-1,8.159828E0,8.795013E0,1.085E3,1.292E3,2.362E3,-3.0722024E-2,-1.6421265E-3,-7.955074E-3,2.1473324E-2,3.6053643E-2,-1.1978863E-3,5.2674826E-2,2.2121858E-2],"split_indices":[17,15,17,10,19,19,19,0,0,0,0,0,0,0,0],"split_type":[0,0,0,0,0,0,0,0,0,0,0,0,0,0,0],"sum_hessian":[1.2786824E2,7.520588E1,5.266236E1,5.9888786E1,1.5317093E1,2.5060886E1,2.7601473E1,5.5675907E1,4.212879E0,9.319645E0,5.9974475E0,7.833504E0,1.7227383E1,1.974435E1,7.857123E0],"tree_param":{"num_deleted":"0","num_feature":"32","num_nodes":"15","size_leaf_vector":"1"}},{"base_weights":[2.6769834E-2,-6.219212E-1,8.8006E-1,-8.5817266E-1,-3.0090117E-1,3.5488242E-1,4.6986002E-2,-3.469361E-2,-1.6882816E-2,-1.8231154E-3,-2.1676341E-2,2.7527263E-2,-1.0149114E-2],"categories":[],"categories_nodes":[],"categories_segments":[],"categories_sizes":[],"default_left":[0,0,0,0,0,0,0,0,0,0,0,0,0],"id":5,"left_children":[1,3,5,7,9,11,-1,-1,-1,-1,-1,-1,-1],"loss_changes":[7.290007E1,5.1617794E0,1.285387E1,1.1465912E0,2.6942143E0,8.621979E0,0E0,0E0,0E0,0E0,0E0,0E0,0E0],"parents":[2147483647,0,0,1,1,2,2,3,3,4,4,5,5],"right_children":[2,4,6,8,10,12,-1,-1,-1,-1,-1,-1,-1],"split_conditions":[3.3893096E-1,1.8521462E-1,8.159828E0,7.200011E0,8.174106E0,1.29E3,4.6986002E-2,-3.469361E-2,-1.6882816E-2,-1.8231154E-3,-2.1676341E-2,2.7527263E-2,-1.0149114E-2],"split_indices":[14,14,17,13,13,23,0,0,0,0,0,0,0],"split_type":[0,0,0,0,0,0,0,0,0,0,0,0,0],"sum_hessian":[1.27724686E2,7.286973E1,5.4854958E1,4.00493E1,3.2820423E1,2.7339031E1,2.7515926E1,2.7157505E1,1.2891794E1,1.9730442E1,1.3089983E1,1.6114273E1,1.122476E1],"tree_param":{"num_deleted":"0","num_feature":"32","num_nodes":"13","size_leaf_vector":"1"}},{"base_weights":[6.575241E-3,-5.8172137E-1,7.832793E-1,-8.6789244E-1,-1.637656E-1,1.0384234E0,7.152217E-2,-8.7527055E-3,-3.1617835E-2,-1.7659442E-2,3.6486813E-3,-1.726078E-2,3.99758E-2,-1.2083615E-2,2.9325513E-2],"categories":[],"categories_nodes":[],"categories_segments":[],"categories_sizes":[],"default_left":[0,0,0,0,0,0,0,0,0,0,0,0,0,0,0],"id":6,"left_children":[1,3,5,7,9,11,13,-1,-1,-1,-1,-1,-1,-1,-1],"loss_changes":[5.9811077E1,8.625849E0,1.0095112E1,5.071106E-1,3.0956774E0,7.700638E0,6.018613E0,0E0,0E0,0E0,0E0,0E0,0E0,0E0,0E0],"parents":[2147483647,0,0,1,1,2,2,3,3,4,4,5,5,6,6],"right_children":[2,4,6,8,10,12,14,-1,-1,-1,-1,-1,-1,-1,-1],"split_conditions":[3.3893096E-1,1.8521462E-1,2.328E3,9.77E2,3E0,4.7394214E3,2.6865396E0,-8.7527055E-3,-3.1617835E-2,-1.7659442E-2,3.6486813E-3,-1.726078E-2,3.99758E-2,-1.2083615E-2,2.9325513E-2],"split_indices":[14,14,19,19,9,2,18,0,0,0,0,0,0,0,0],"split_type":[0,0,0,0,0,0,0,0,0,0,0,0,0,0,0],"sum_hessian":[1.26902596E2,7.2495E1,5.4407593E1,4.1753605E1,3.0741398E1,3.9374924E1,1.503267E1,3.1414618E0,3.861214E1,1.2756217E1,1.7985182E1,2.0216098E0,3.7353313E1,1.0449076E1,4.583595E0],"tree_param":{"num_deleted":"0","num_feature":"32","num_nodes":"15","size_leaf_vector":"1"}},{"base_weights":[2.2219991E-2,-4.4922933E-1,1.0103235E0,-6.5999013E-1,1.2093151E-1,1.2771052E0,3.793479E-1,-2.9124502E-2,-1.0773058E-2,-1.6417876E-2,1.8203972E-2,2.1008126E-2,4.777059E-2,4.0912785E-2,-6.4624175E-3],"categories":[],"categories_nodes":[],"categories_segments":[],"categories_sizes":[],"default_left":[0,0,0,0,0,0,0,0,0,0,0,0,0,0,0],"id":7,"left_children":[1,3,5,7,9,11,13,-1,-1,-1,-1,-1,-1,-1,-1],"loss_changes":[6.082061E1,1.0788906E1,6.1277313E0,3.4217663E0,6.5085835E0,7.161713E-2,7.2776146E0,0E0,0E0,0E0,0E0,0E0,0E0,0E0,0E0],"parents":[2147483647,0,0,1,1,2,2,3,3,4,4,5,5,6,6],"right_children":[2,4,6,8,10,12,14,-1,-1,-1,-1,-1,-1,-1,-1],"split_conditions":[7.5290174E0,4.7242615E-1,2.328E3,2.449E3,2.7928586E3,7.9382915E0,8.326026E0,-2.9124502E-2,-1.0773058E-2,-1.6417876E-2,1.8203972E-2,2.1008126E-2,4.777059E-2,4.0912785E-2,-6.4624175E-3],"split_indices":[17,15,19,23,4,17,13,0,0,0,0,0,0,0,0],"split_type":[0,0,0,0,0,0,0,0,0,0,0,0,0,0,0],"sum_hessian":[1.2661236E2,8.645379E1,4.0158573E1,6.2890945E1,2.3562838E1,2.6785439E1,1.3373136E1,4.0412926E1,2.247802E1,9.367267E0,1.4195572E1,4.8740835E0,2.1911354E1,4.6782675E0,8.694868E0],"tree_param":{"num_deleted":"0","num_feature":"32","num_nodes":"15","size_leaf_vector":"1"}},{"base_weights":[1.0954818E-2,-3.6337355E-1,1.0854484E0,-6.345963E-1,2.4849942E-1,4.331921E-1,1.2881607E0,-2.7197186E-2,-1.136634E-2,-3.463133E-4,2.4013367E-2,2.6649721E-2,-9.997826E-3,4.9383633E-2,7.5362474E-3],"categories":[],"categories_nodes":[],"categories_segments":[],"categories_sizes":[],"default_left":[0,0,0,0,0,0,0,0,0,0,0,0,0,0,0],"id":8,"left_children":[1,3,5,7,9,11,13,-1,-1,-1,-1,-1,-1,-1,-1],"loss_changes":[5.2942493E1,1.6523003E1,3.3798714E0,2.5071716E0,3.5677018E0,3.0482104E0,2.6764793E0,0E0,0E0,0E0,0E0,0E0,0E0,0E0,0E0],"parents":[2147483647,0,0,1,1,2,2,3,3,4,4,5,5,6,6],"right_children":[2,4,6,8,10,12,14,-1,-1,-1,-1,-1,-1,-1,-1],"split_conditions":[7.951119E0,4.7242615E-1,4.8329628E-1,6.179452E0,1.4008708E4,6.856386E3,2.4096386E1,-2.7197186E-2,-1.136634E-2,-3.463133E-4,2.4013367E-2,2.6649721E-2,-9.997826E-3,4.9383633E-2,7.5362474E-3],"split_indices":[17,15,14,17,3,8,29,0,0,0,0,0,0,0,0],"split_type":[0,0,0,0,0,0,0,0,0,0,0,0,0,0,0],"sum_hessian":[1.27666595E2,9.566336E1,3.200323E1,6.623108E1,2.9432285E1,9.075486E0,2.2927746E1,4.330403E1,2.2927044E1,1.9734278E1,9.698007E0,6.1492467E0,2.9262397E0,2.0007322E1,2.9204247E0],"tree_param":{"num_deleted":"0","num_feature":"32","num_nodes":"15","size_leaf_vector":"1"}},{"base_weights":[2.7065227E-2,-5.1711994E-1,7.558927E-1,-7.7710974E-1,-2.5232115E-1,1.2556094E-1,1.053412E0,-2.8628428E-2,-7.181365E-3,1.6027135E-3,-1.7779559E-2,-7.996167E-3,2.9124744E-2,4.2799637E-2,9.3111405E-3],"categories":[],"categories_nodes":[],"categories_segments":[],"categories_sizes":[],"default_left":[0,0,0,0,0,0,0,0,0,0,0,0,0,0,0],"id":9,"left_children":[1,3,5,7,9,11,13,-1,-1,-1,-1,-1,-1,-1,-1],"loss_changes":[5.0857944E1,4.666094E0,1.00096245E1,5.0792885E-1,3.046558E0,5.342497E0,4.278492E0,0E0,0E0,0E0,0E0,0E0,0E0,0E0,0E0],"parents":[2147483647,0,0,1,1,2,2,3,3,4,4,5,5,6,6],"right_children":[2,4,6,8,10,12,14,-1,-1,-1,-1,-1,-1,-1,-1],"split_conditions":[3.3893096E-1,1.6349694E-1,8.313356E3,3.0414334E-1,6.4794817E0,9.1404706E-1,2.362E3,-2.8628428E-2,-7.181365E-3,1.6027135E-3,-1.7779559E-2,-7.996167E-3,2.9124744E-2,4.2799637E-2,9.3111405E-3],"split_indices":[14,14,2,16,29,1,19,0,0,0,0,0,0,0,0],"split_type":[0,0,0,0,0,0,0,0,0,0,0,0,0,0,0],"sum_hessian":[1.242582E2,7.147314E1,5.2785065E1,3.41116E1,3.7361538E1,1.7837704E1,3.494736E1,3.1034843E1,3.0767567E0,1.8006874E1,1.9354664E1,1.2785147E1,5.052557E0,2.784856E1,7.0988026E0],"tree_param":{"num_deleted":"0","num_feature":"32","num_nodes":"15","size_leaf_vector":"1"}},{"base_weights":[1.5895981E-2,-3.4606645E-1,1.0399287E0,-7.0968056E-1,1.0118027E-2,3.7143296E-1,1.2429739E0,-2.5872642E-2,-1.1948138E-3,-1.2573831E-2,1.42387245E-2,2.475122E-2,-1.1426871E-2,4.6311196E-2,1.1494773E-2],"categories":[],"categories_nodes":[],"categories_segments":[],"categories_sizes":[],"default_left":[0,0,0,0,0,0,0,0,0,0,0,0,0,0,0],"id":10,"left_children":[1,3,5,7,9,11,13,-1,-1,-1,-1,-1,-1,-1,-1],"loss_changes":[4.8025787E1,1.2421278E1,3.668518E0,8.9598656E-1,7.672203E0,2.976915E0,9.716644E-1,0E0,0E0,0E0,0E0,0E0,0E0,0E0,0E0],"parents":[2147483647,0,0,1,1,2,2,3,3,4,4,5,5,6,6],"right_children":[2,4,6,8,10,12,14,-1,-1,-1,-1,-1,-1,-1,-1],"split_conditions":[7.9382915E0,2.0909548E-1,4.8329628E-1,7.7549105E0,2.7928586E3,8.833081E0,2.4096386E1,-2.5872642E-2,-1.1948138E-3,-1.2573831E-2,1.42387245E-2,2.475122E-2,-1.1426871E-2,4.6311196E-2,1.1494773E-2],"split_indices":[17,14,14,30,4,13,29,0,0,0,0,0,0,0,0],"split_type":[0,0,0,0,0,0,0,0,0,0,0,0,0,0,0],"sum_hessian":[1.2562597E2,9.379617E1,3.18298E1,4.54318E1,4.836437E1,8.733778E0,2.3096022E1,4.334792E1,2.0838814E0,2.514274E1,2.3221628E1,5.8790226E0,2.8547554E0,2.0412325E1,2.6836965E0],"tree_param":{"num_deleted":"0","num_feature":"32","num_nodes":"15","size_leaf_vector":"1"}},{"base_weights":[-1.5365631E-2,-3.5642564E-1,9.7585523E-1,-5.823679E-1,2.3307765E-1,1.2090136E0,3.5609794E-1,1.292019E-2,-2.2083387E-2,-1.4875384E-2,1.6668119E-2,4.4194866E-2,1.2399041E-2,3.785346E-2,-5.911153E-3],"categories":[],"categories_nodes":[],"categories_segments":[],"categories_sizes":[],"default_left":[0,0,0,0,0,0,0,0,0,0,0,0,0,0,0],"id":11,"left_children":[1,3,5,7,9,11,13,-1,-1,-1,-1,-1,-1,-1,-1],"loss_changes":[4.369384E1,1.3070564E1,3.9212341E0,3.7038002E0,4.8939033E0,1.7076492E-1,4.890512E0,0E0,0E0,0E0,0E0,0E0,0E0,0E0,0E0],"parents":[2147483647,0,0,1,1,2,2,3,3,4,4,5,5,6,6],"right_children":[2,4,6,8,10,12,14,-1,-1,-1,-1,-1,-1,-1,-1],"split_conditions":[7.951119E0,6.6002466E3,2.362E3,7.91E2,2.4152527E3,1.5389848E4,4.3545684E3,1.292019E-2,-2.2083387E-2,-1.4875384E-2,1.6668119E-2,4.4194866E-2,1.2399041E-2,3.785346E-2,-5.911153E-3],"split_indices":[17,2,19,19,4,8,8,0,0,0,0,0,0,0,0],"split_type":[0,0,0,0,0,0,0,0,0,0,0,0,0,0,0],"sum_hessian":[1.2518885E2,9.409381E1,3.1095036E1,6.803996E1,2.605385E1,2.1212955E1,9.882081E0,2.6643918E0,6.537557E1,6.6257305E0,1.942812E1,1.9060966E1,2.151989E0,3.2588274E0,6.623254E0],"tree_param":{"num_deleted":"0","num_feature":"32","num_nodes":"15","size_leaf_vector":"1"}},{"base_weights":[-1.4947361E-2,-4.725971E-1,7.2380424E-1,-6.501526E-1,1.01761994E-4,1.044492E0,9.638552E-2,-2.8566116E-2,-1.3255501E-2,-1.6259456E-2,1.0984358E-2,1.046747E-2,4.01899E-2,3.3930898E-2,-8.292557E-3],"categories":[],"categories_nodes":[],"categories_segments":[],"categories_sizes":[],"default_left":[0,0,0,0,0,0,0,0,0,0,0,0,0,0,0],"id":12,"left_children":[1,3,5,7,9,11,13,-1,-1,-1,-1,-1,-1,-1,-1],"loss_changes":[4.3875443E1,6.7224026E0,9.790041E0,2.0054855E0,3.7713168E0,1.8398514E0,5.988391E0,0E0,0E0,0E0,0E0,0E0,0E0,0E0,0E0],"parents":[2147483647,0,0,1,1,2,2,3,3,4,4,5,5,6,6],"right_children":[2,4,6,8,10,12,14,-1,-1,-1,-1,-1,-1,-1,-1],"split_conditions":[7.236466E0,5.5386855E3,2.362E3,2E0,3E0,7.5290174E0,2.118248E2,-2.8566116E-2,-1.3255501E-2,-1.6259456E-2,1.0984358E-2,1.046747E-2,4.01899E-2,3.3930898E-2,-8.292557E-3],"split_indices":[17,2,19,21,9,17,4,0,0,0,0,0,0,0,0],"split_type":[0,0,0,0,0,0,0,0,0,0,0,0,0,0,0],"sum_hessian":[1.2575111E2,7.8093475E1,4.7657627E1,5.6223824E1,2.1869652E1,3.06581E1,1.6999529E1,3.2394836E1,2.3828989E1,8.427194E0,1.3442458E1,4.695828E0,2.5962273E1,3.642233E0,1.3357295E1],"tree_param":{"num_deleted":"0","num_feature":"32","num_nodes":"15","size_leaf_vector":"1"}},{"base_weights":[-4.7767084E-2,-4.024506E-1,7.184021E-1,-5.119586E-1,7.5403607E-1,1.4857706E-1,9.981206E-1,-2.2928298E-2,-5.0374176E-3,3.6481034E-2,7.599635E-3,2.979425E-2,-4.7801975E-3,3.6992487E-2,6.3668624E-3],"categories":[],"categories_nodes":[],"categories_segments":[],"categories_sizes":[],"default_left":[0,0,0,0,0,0,0,0,0,0,0,0,0,0,0],"id":13,"left_children":[1,3,5,7,9,11,13,-1,-1,-1,-1,-1,-1,-1,-1],"loss_changes":[3.5923687E1,1.2194204E1,6.3781548E0,4.214319E0,8.8003397E-1,3.4661622E0,9.4690704E-1,0E0,0E0,0E0,0E0,0E0,0E0,0E0,0E0],"parents":[2147483647,0,0,1,1,2,2,3,3,4,4,5,5,6,6],"right_children":[2,4,6,8,10,12,14,-1,-1,-1,-1,-1,-1,-1,-1],"split_conditions":[8.429895E3,9.340498E-1,5.661464E-1,5.3835474E3,6.066108E0,3.7806428E3,2.4096386E1,-2.2928298E-2,-5.0374176E-3,3.6481034E-2,7.599635E-3,2.979425E-2,-4.7801975E-3,3.6992487E-2,6.3668624E-3],"split_indices":[2,1,15,2,30,8,29,0,0,0,0,0,0,0,0],"split_type":[0,0,0,0,0,0,0,0,0,0,0,0,0,0,0],"sum_hessian":[1.2806718E2,8.8190506E1,3.987668E1,8.1580284E1,6.6102257E0,1.4137987E1,2.573869E1,5.7613274E1,2.3967007E1,3.0759618E0,3.5342638E0,2.9349704E0,1.1203017E1,2.3458662E1,2.280027E0],"tree_param":{"num_deleted":"0","num_feature":"32","num_nodes":"15","size_leaf_vector":"1"}},{"base_weights":[3.6026563E-2,-4.4340652E-1,7.7351123E-1,-5.890978E-1,2.5782517E-1,2.738471E-1,1.0307345E0,-3.217971E-2,-1.6770523E-2,2.9835625E-2,-7.900486E-3,3.8952537E-2,-1.2482019E-4,4.293575E-2,1.6682766E-2],"categories":[],"categories_nodes":[],"categories_segments":[],"categories_sizes":[],"default_left":[0,0,0,0,0,0,0,0,0,0,0,0,0,0,0],"id":14,"left_children":[1,3,5,7,9,11,13,-1,-1,-1,-1,-1,-1,-1,-1],"loss_changes":[4.4906532E1,8.177015E0,5.8619747E0,1.4582558E0,4.5966697E0,4.5973825E0,2.3367844E0,0E0,0E0,0E0,0E0,0E0,0E0,0E0,0E0],"parents":[2147483647,0,0,1,1,2,2,3,3,4,4,5,5,6,6],"right_children":[2,4,6,8,10,12,14,-1,-1,-1,-1,-1,-1,-1,-1],"split_conditions":[7.163804E0,6.6002466E3,7.951119E0,1.2439104E3,1.3563947E4,3.9401102E0,2.393E3,-3.217971E-2,-1.6770523E-2,2.9835625E-2,-7.900486E-3,3.8952537E-2,-1.2482019E-4,4.293575E-2,1.6682766E-2],"split_indices":[17,2,17,4,3,29,19,0,0,0,0,0,0,0,0],"split_type":[0,0,0,0,0,0,0,0,0,0,0,0,0,0,0],"sum_hessian":[1.23067184E2,7.5065315E1,4.8001865E1,6.2417065E1,1.264825E1,1.7716421E1,3.0285444E1,1.1909191E1,5.0507874E1,4.988354E0,7.6598954E0,2.905286E0,1.4811135E1,2.0578165E1,9.707279E0],"tree_param":{"num_deleted":"0","num_feature":"32","num_nodes":"15","size_leaf_vector":"1"}},{"base_weights":[-9.403019E-3,-2.886231E-1,9.8699516E-1,-4.9103484E-1,1.8026425E-1,4.0876567E-2,4.0597656E-1,8.2980925E-3,-1.868836E-2,2.3119885E-2,-3.5138356E-3,2.7067525E-2,1.3461853E-3],"categories":[],"categories_nodes":[],"categories_segments":[],"categories_sizes":[],"default_left":[0,0,0,0,0,0,0,0,0,0,0,0,0],"id":15,"left_children":[1,3,5,7,9,-1,11,-1,-1,-1,-1,-1,-1],"loss_changes":[3.6128757E1,9.79906E0,2.039917E0,2.482874E0,4.450609E0,0E0,1.2658048E0,0E0,0E0,0E0,0E0,0E0,0E0],"parents":[2147483647,0,0,1,1,2,2,3,3,4,4,6,6],"right_children":[2,4,6,8,10,-1,12,-1,-1,-1,-1,-1,-1],"split_conditions":[8.159828E0,6.6002466E3,2.362E3,7.91E2,8.228362E0,4.0876567E-2,8.438965E0,8.2980925E-3,-1.868836E-2,2.3119885E-2,-3.5138356E-3,2.7067525E-2,1.3461853E-3],"split_indices":[17,2,19,19,13,0,13,0,0,0,0,0,0],"split_type":[0,0,0,0,0,0,0,0,0,0,0,0,0],"sum_hessian":[1.2581156E2,9.938236E1,2.6429195E1,6.935037E1,3.0031996E1,1.8613487E1,7.815708E0,3.3565779E0,6.599379E1,1.0077947E1,1.9954048E1,2.8040664E0,5.011642E0],"tree_param":{"num_deleted":"0","num_feature":"32","num_nodes":"13","size_leaf_vector":"1"}},{"base_weights":[2.7228836E-2,-2.4142574E-1,9.8476183E-1,-4.5331144E-1,1.708863E-1,3.9754014E-2,4.6735248E-1,1.5330251E-2,-1.7569134E-2,-2.4903093E-3,1.90347E-2,-3.1254555E-3,2.6239228E-2],"categories":[],"categories_nodes":[],"categories_segments":[],"categories_sizes":[],"default_left":[0,0,0,0,0,0,0,0,0,0,0,0,0],"id":16,"left_children":[1,3,5,7,9,-1,11,-1,-1,-1,-1,-1,-1],"loss_changes":[3.2137424E1,8.692053E0,1.0769215E0,3.2632885E0,3.2029212E0,0E0,1.6397462E0,0E0,0E0,0E0,0E0,0E0,0E0],"parents":[2147483647,0,0,1,1,2,2,3,3,4,4,6,6],"right_children":[2,4,6,8,10,-1,12,-1,-1,-1,-1,-1,-1],"split_conditions":[8.159828E0,4.7242615E-1,2.362E3,2.9491603E-2,1.609438E0,3.9754014E-2,2.6865396E0,1.5330251E-2,-1.7569134E-2,-2.4903093E-3,1.90347E-2,-3.1254555E-3,2.6239228E-2],"split_indices":[17,15,19,16,31,0,18,0,0,0,0,0,0],"split_type":[0,0,0,0,0,0,0,0,0,0,0,0,0],"sum_hessian":[1.21080536E2,9.572012E1,2.5360415E1,6.3096287E1,3.2623837E1,1.7779049E1,7.5813656E0,2.4381506E0,6.0658134E1,2.0765976E1,1.185786E1,3.011478E0,4.5698876E0],"tree_param":{"num_deleted":"0","num_feature":"32","num_nodes":"13","size_leaf_vector":"1"}},{"base_weights":[-2.0653518E-2,-3.3126235E-1,9.362347E-1,-5.717157E-1,1.9213712E-1,1.0211102E0,4.6643526E-3,-2.653833E-2,-1.0787108E-2,-7.161633E-3,1.5312621E-2,3.9596085E-2,8.563724E-3],"categories":[],"categories_nodes":[],"categories_segments":[],"categories_sizes":[],"default_left":[0,0,0,0,0,0,0,0,0,0,0,0,0],"id":17,"left_children":[1,3,5,7,9,11,-1,-1,-1,-1,-1,-1,-1],"loss_changes":[3.7957096E1,1.234112E1,1.8614788E0,2.8010788E0,3.2763062E0,1.8434772E0,0E0,0E0,0E0,0E0,0E0,0E0,0E0],"parents":[2147483647,0,0,1,1,2,2,3,3,4,4,5,5],"right_children":[2,4,6,8,10,12,-1,-1,-1,-1,-1,-1,-1],"split_conditions":[7.951119E0,4.7242615E-1,4.121E3,3E0,2.7928586E3,1.3254573E4,4.6643526E-3,-2.653833E-2,-1.0787108E-2,-7.161633E-3,1.5312621E-2,3.9596085E-2,8.563724E-3],"split_indices":[17,15,24,9,4,8,0,0,0,0,0,0,0],"split_type":[0,0,0,0,0,0,0,0,0,0,0,0,0],"sum_hessian":[1.2362101E2,9.431402E1,2.9306992E1,6.449838E1,2.9815632E1,2.601392E1,3.2930717E0,3.5567665E1,2.8930717E1,1.1520014E1,1.8295618E1,2.1979952E1,4.033968E0],"tree_param":{"num_deleted":"0","num_feature":"32","num_nodes":"13","size_leaf_vector":"1"}},{"base_weights":[8.564793E-3,-2.746295E-1,8.462033E-1,-5.3115433E-1,1.370399E-1,1.0625072E0,3.0747622E-1,-1.2539598E-2,-2.8369708E-2,1.3410492E-2,-7.720927E-3,3.91217E-2,9.334871E-3,3.175006E-2,-6.6563203E-3],"categories":[],"categories_nodes":[],"categories_segments":[],"categories_sizes":[],"default_left":[0,0,0,0,0,0,0,0,0,0,0,0,0,0,0],"id":18,"left_children":[1,3,5,7,9,11,13,-1,-1,-1,-1,-1,-1,-1,-1],"loss_changes":[3.0016079E1,1.0136747E1,3.0715694E0,2.254593E0,3.5060382E0,3.7087822E-1,3.9178958E0,0E0,0E0,0E0,0E0,0E0,0E0,0E0,0E0],"parents":[2147483647,0,0,1,1,2,2,3,3,4,4,5,5,6,6],"right_children":[2,4,6,8,10,12,14,-1,-1,-1,-1,-1,-1,-1,-1],"split_conditions":[7.9382915E0,5.3835474E3,2.362E3,6.571E3,3.9922252E0,1.5389848E4,4.622768E3,-1.2539598E-2,-2.8369708E-2,1.3410492E-2,-7.720927E-3,3.91217E-2,9.334871E-3,3.175006E-2,-6.6563203E-3],"split_indices":[17,2,19,19,5,8,8,0,0,0,0,0,0,0,0],"split_type":[0,0,0,0,0,0,0,0,0,0,0,0,0,0,0],"sum_hessian":[1.2257629E2,9.2610275E1,2.996601E1,5.6698853E1,3.591142E1,1.9993805E1,9.972203E0,3.784644E1,1.8852417E1,2.1187813E1,1.4723608E1,1.793905E1,2.0547538E0,3.7762365E0,6.195967E0],"tree_param":{"num_deleted":"0","num_feature":"32","num_nodes":"15","size_leaf_vector":"1"}},{"base_weights":[-7.865498E-3,-4.130046E-1,6.284006E-1,-5.04959E-1,5.7633877E-1,-1.2566589E-1,7.755309E-1,-2.4495542E-2,-8.862577E-3,3.235122E-2,1.0590868E-3,-2.1288801E-2,6.2852586E-3,3.2375712E-2,7.906087E-3],"categories":[],"categories_nodes":[],"categories_segments":[],"categories_sizes":[],"default_left":[0,0,0,0,0,0,0,0,0,0,0,0,0,0,0],"id":19,"left_children":[1,3,5,7,9,11,13,-1,-1,-1,-1,-1,-1,-1,-1],"loss_changes":[3.2600983E1,7.6094513E0,5.6546345E0,3.1658401E0,1.3698287E0,1.6554767E0,2.988308E0,0E0,0E0,0E0,0E0,0E0,0E0,0E0,0E0],"parents":[2147483647,0,0,1,1,2,2,3,3,4,4,5,5,6,6],"right_children":[2,4,6,8,10,12,14,-1,-1,-1,-1,-1,-1,-1,-1],"split_conditions":[6.886824E3,1.2767769E1,3.2007316E-1,3.5942917E3,4.3E2,9.06E2,2.328E3,-2.4495542E-2,-8.862577E-3,3.235122E-2,1.0590868E-3,-2.1288801E-2,6.2852586E-3,3.2375712E-2,7.906087E-3],"split_indices":[2,5,14,2,28,19,19,0,0,0,0,0,0,0,0],"split_type":[0,0,0,0,0,0,0,0,0,0,0,0,0,0,0],"sum_hessian":[1.22456436E2,7.5245834E1,4.72106E1,6.9742805E1,5.503031E0,7.7552843E0,3.945532E1,3.7301548E1,3.2441257E1,2.51505E0,2.9879806E0,2.2355652E0,5.519719E0,2.9945086E1,9.510233E0],"tree_param":{"num_deleted":"0","num_feature":"32","num_nodes":"15","size_leaf_vector":"1"}},{"base_weights":[2.924482E-2,-3.090613E-1,7.037896E-1,6.2002844E-1,-4.0220237E-1,3.990017E-1,1.0571401E0,3.238754E-2,-5.04902E-3,-2.921258E-2,-9.075763E-3,2.81756E-2,3.906945E-3,4.1973997E-2,6.2422976E-3],"categories":[],"categories_nodes":[],"categories_segments":[],"categories_sizes":[],"default_left":[0,0,0,0,0,0,0,0,0,0,0,0,0,0,0],"id":20,"left_children":[1,3,5,7,9,11,13,-1,-1,-1,-1,-1,-1,-1,-1],"loss_changes":[2.8606218E1,7.733585E0,3.6628342E0,2.2282665E0,4.3376217E0,2.8163629E0,1.840929E0,0E0,0E0,0E0,0E0,0E0,0E0,0E0,0E0],"parents":[2147483647,0,0,1,1,2,2,3,3,4,4,5,5,6,6],"right_children":[2,4,6,8,10,12,14,-1,-1,-1,-1,-1,-1,-1,-1],"split_conditions":[7.9477397E3,3.0733809E-2,8.515981E0,7.696E3,4.085112E3,4.622768E3,2.423E3,3.238754E-2,-5.04902E-3,-2.921258E-2,-9.075763E-3,2.81756E-2,3.906945E-3,4.1973997E-2,6.2422976E-3],"split_indices":[2,16,17,19,3,8,24,0,0,0,0,0,0,0,0],"split_type":[0,0,0,0,0,0,0,0,0,0,0,0,0,0,0],"sum_hessian":[1.2144814E2,8.1604485E1,3.984366E1,6.4045753E0,7.519991E1,2.3678123E1,1.6165533E1,4.275164E0,2.1294112E0,1.62725E1,5.892741E1,8.320292E0,1.535783E1,1.3287372E1,2.8781614E0],"tree_param":{"num_deleted":"0","num_feature":"32","num_nodes":"15","size_leaf_vector":"1"}},{"base_weights":[-3.0732324E-2,-2.9793304E-1,8.3431035E-1,-3.8131803E-1,6.2055326E-1,9.051669E-4,9.077358E-1,-2.1840973E-2,-7.426058E-3,-1.6254218E-3,3.7063826E-2,1.3244968E-2,3.7189953E-2],"categories":[],"categories_nodes":[],"categories_segments":[],"categories_sizes":[],"default_left":[0,0,0,0,0,0,0,0,0,0,0,0,0],"id":21,"left_children":[1,3,5,7,9,-1,11,-1,-1,-1,-1,-1,-1],"loss_changes":[2.9468426E1,7.920294E0,1.7401466E0,3.4456234E0,2.6874394E0,0E0,1.4528675E0,0E0,0E0,0E0,0E0,0E0,0E0],"parents":[2147483647,0,0,1,1,2,2,3,3,4,4,6,6],"right_children":[2,4,6,8,10,-1,12,-1,-1,-1,-1,-1,-1],"split_conditions":[7.951119E0,1.0481382E4,7.7E1,1.6349694E-1,8.43E2,9.051669E-4,4.8329628E-1,-2.1840973E-2,-7.426058E-3,-1.6254218E-3,3.7063826E-2,1.3244968E-2,3.7189953E-2],"split_indices":[17,2,28,14,28,0,14,0,0,0,0,0,0],"split_type":[0,0,0,0,0,0,0,0,0,0,0,0,0],"sum_hessian":[1.2334085E2,9.523511E1,2.8105747E1,8.8381096E1,6.8540154E0,2.5652783E0,2.5540468E1,3.4088356E1,5.4292736E1,3.427548E0,3.4264672E0,7.3392076E0,1.8201262E1],"tree_param":{"num_deleted":"0","num_feature":"32","num_nodes":"13","size_leaf_vector":"1"}},{"base_weights":[6.9727585E-2,-3.2738677E-1,6.050016E-1,-5.398385E-1,-3.8845878E-2,2.4951956E-1,9.451418E-1,-2.0776134E-2,1.9158133E-3,8.946416E-3,-1.4900006E-2,2.0468224E-2,-6.2371157E-3,3.4987938E-2,1.06586795E-2],"categories":[],"categories_nodes":[],"categories_segments":[],"categories_sizes":[],"default_left":[0,0,0,0,0,0,0,0,0,0,0,0,0,0,0],"id":22,"left_children":[1,3,5,7,9,11,13,-1,-1,-1,-1,-1,-1,-1,-1],"loss_changes":[2.5638363E1,4.2167134E0,5.7287235E0,1.3390856E0,3.81912E0,4.194022E0,2.812233E-1,0E0,0E0,0E0,0E0,0E0,0E0,0E0,0E0],"parents":[2147483647,0,0,1,1,2,2,3,3,4,4,5,5,6,6],"right_children":[2,4,6,8,10,12,14,-1,-1,-1,-1,-1,-1,-1,-1],"split_conditions":[3.3893096E-1,1.8521462E-1,4.8329628E-1,7.4193807E0,3.424202E3,1.372E3,2.4096386E1,-2.0776134E-2,1.9158133E-3,8.946416E-3,-1.4900006E-2,2.0468224E-2,-6.2371157E-3,3.4987938E-2,1.06586795E-2],"split_indices":[14,14,14,30,8,23,29,0,0,0,0,0,0,0,0],"split_type":[0,0,0,0,0,0,0,0,0,0,0,0,0,0,0],"sum_hessian":[1.1675062E2,6.747118E1,4.9279434E1,3.7856045E1,2.9615137E1,2.5791634E1,2.3487799E1,3.4719738E1,3.1363084E0,1.7201271E1,1.2413865E1,1.4046355E1,1.1745279E1,2.0612766E1,2.8750327E0],"tree_param":{"num_deleted":"0","num_feature":"32","num_nodes":"15","size_leaf_vector":"1"}},{"base_weights":[-1.0689569E-2,-3.936573E-1,5.408036E-1,-6.4392895E-1,-1.8316212E-1,2.0938587E-1,8.807203E-1,-1.1877629E-2,-2.713087E-2,3.9633303E-3,-2.0616967E-2,3.4610666E-2,-4.8340586E-4,3.3249892E-2,2.4871898E-3],"categories":[],"categories_nodes":[],"categories_segments":[],"categories_sizes":[],"default_left":[0,0,0,0,0,0,0,0,0,0,0,0,0,0,0],"id":23,"left_children":[1,3,5,7,9,11,13,-1,-1,-1,-1,-1,-1,-1,-1],"loss_changes":[2.6784979E1,3.7053642E0,5.4881716E0,8.0821514E-1,5.3584666E0,5.0637455E0,1.2696228E0,0E0,0E0,0E0,0E0,0E0,0E0,0E0,0E0],"parents":[2147483647,0,0,1,1,2,2,3,3,4,4,5,5,6,6],"right_children":[2,4,6,8,10,12,14,-1,-1,-1,-1,-1,-1,-1,-1],"split_conditions":[3.3893096E-1,1.5339452E-1,8.159828E0,9.103907E-2,8.144074E0,1.026E3,2.631579E1,-1.1877629E-2,-2.713087E-2,3.9633303E-3,-2.0616967E-2,3.4610666E-2,-4.8340586E-4,3.3249892E-2,2.4871898E-3],"split_indices":[14,14,17,14,13,20,29,0,0,0,0,0,0,0,0],"split_type":[0,0,0,0,0,0,0,0,0,0,0,0,0,0,0],"sum_hessian":[1.22804375E2,7.281358E1,4.999079E1,3.1382555E1,4.143103E1,2.694828E1,2.304251E1,1.1610204E1,1.9772352E1,2.4778679E1,1.6652353E1,4.4714127E0,2.247687E1,2.0906988E1,2.1355221E0],"tree_param":{"num_deleted":"0","num_feature":"32","num_nodes":"15","size_leaf_vector":"1"}},{"base_weights":[3.941176E-3,-2.5673798E-1,7.990362E-1,-3.3833084E-1,6.067352E-1,8.9075536E-1,8.9711405E-4,-2.4140444E-2,-8.041079E-3,1.7587226E-3,3.1339217E-2,1.9027868E-2,3.7341453E-2],"categories":[],"categories_nodes":[],"categories_segments":[],"categories_sizes":[],"default_left":[0,0,0,0,0,0,0,0,0,0,0,0,0],"id":24,"left_children":[1,3,5,7,9,11,-1,-1,-1,-1,-1,-1,-1],"loss_changes":[2.5372711E1,6.9073386E0,2.098259E0,2.946869E0,1.3039556E0,4.882717E-1,0E0,0E0,0E0,0E0,0E0,0E0,0E0],"parents":[2147483647,0,0,1,1,2,2,3,3,4,4,5,5],"right_children":[2,4,6,8,10,12,-1,-1,-1,-1,-1,-1,-1],"split_conditions":[7.9382915E0,1.0481382E4,2.4096386E1,4.085112E3,8.43E2,8.606836E0,8.9711405E-4,-2.4140444E-2,-8.041079E-3,1.7587226E-3,3.1339217E-2,1.9027868E-2,3.7341453E-2],"split_indices":[17,2,29,3,28,17,0,0,0,0,0,0,0],"split_type":[0,0,0,0,0,0,0,0,0,0,0,0,0],"sum_hessian":[1.1843743E2,9.021411E1,2.8223322E1,8.353675E1,6.6773562E0,2.4959833E1,3.263488E0,1.7193325E1,6.634343E1,3.08274E0,3.5946162E0,1.1153663E1,1.380617E1],"tree_param":{"num_deleted":"0","num_feature":"32","num_nodes":"13","size_leaf_vector":"1"}},{"base_weights":[1.4695214E-2,-2.0026053E-1,8.377544E-1,-5.474624E-1,4.0561926E-2,8.953522E-1,2.9557864E-3,-2.0595867E-2,-1.8261151E-3,-5.5907373E-3,1.8713476E-2,3.1608597E-3,3.3986658E-2],"categories":[],"categories_nodes":[],"categories_segments":[],"categories_sizes":[],"default_left":[0,0,0,0,0,0,0,0,0,0,0,0,0],"id":25,"left_children":[1,3,5,7,9,11,-1,-1,-1,-1,-1,-1,-1],"loss_changes":[2.1682436E1,8.178845E0,9.4962883E-1,7.5029755E-1,6.040124E0,1.2482128E0,0E0,0E0,0E0,0E0,0E0,0E0,0E0],"parents":[2147483647,0,0,1,1,2,2,3,3,4,4,5,5],"right_children":[2,4,6,8,10,12,-1,-1,-1,-1,-1,-1,-1],"split_conditions":[8.159828E0,1.8521462E-1,5.298E3,1.667E3,8.43E2,7.7E1,2.9557864E-3,-2.0595867E-2,-1.8261151E-3,-5.5907373E-3,1.8713476E-2,3.1608597E-3,3.3986658E-2],"split_indices":[17,14,23,28,28,28,0,0,0,0,0,0,0],"split_type":[0,0,0,0,0,0,0,0,0,0,0,0,0],"sum_hessian":[1.1865758E2,9.528553E1,2.3372044E1,3.798077E1,5.7304764E1,2.1361595E1,2.0104487E0,3.473022E1,3.2505476E0,4.1738594E1,1.5566167E1,2.212896E0,1.9148699E1],"tree_param":{"num_deleted":"0","num_feature":"32","num_nodes":"13","size_leaf_vector":"1"}},{"base_weights":[2.5110627E-2,-3.2646137E-1,6.0314345E-1,-4.4145173E-1,1.9978398E-1,8.4328E-1,1.5640728E-1,-2.8940214E-2,-1.1504457E-2,-1.2579446E-2,2.3081027E-2,6.521537E-3,3.4324456E-2,2.6107993E-2,-8.070409E-3],"categories":[],"categories_nodes":[],"categories_segments":[],"categories_sizes":[],"default_left":[0,0,0,0,0,0,0,0,0,0,0,0,0,0,0],"id":26,"left_children":[1,3,5,7,9,11,13,-1,-1,-1,-1,-1,-1,-1,-1],"loss_changes":[2.4554697E1,4.728441E0,4.6351566E0,2.1662521E0,4.2954516E0,2.2747269E0,4.5465765E0,0E0,0E0,0E0,0E0,0E0,0E0,0E0,0E0],"parents":[2147483647,0,0,1,1,2,2,3,3,4,4,5,5,6,6],"right_children":[2,4,6,8,10,12,14,-1,-1,-1,-1,-1,-1,-1,-1],"split_conditions":[7.207047E0,6.6002466E3,2.328E3,1.1428113E3,3E0,7.5290174E0,2.7126962E-2,-2.8940214E-2,-1.1504457E-2,-1.2579446E-2,2.3081027E-2,6.521537E-3,3.4324456E-2,2.6107993E-2,-8.070409E-3],"split_indices":[17,2,19,4,9,17,16,0,0,0,0,0,0,0,0],"split_type":[0,0,0,0,0,0,0,0,0,0,0,0,0,0,0],"sum_hessian":[1.1689021E2,7.322415E1,4.366606E1,6.0357613E1,1.286654E1,2.7245401E1,1.6420662E1,1.0794185E1,4.9563427E1,6.00168E0,6.86486E0,5.528317E0,2.1717085E1,5.772233E0,1.0648429E1],"tree_param":{"num_deleted":"0","num_feature":"32","num_nodes":"15","size_leaf_vector":"1"}},{"base_weights":[3.250004E-3,-2.3713425E-1,7.6575965E-1,-3.1623924E-1,5.9984004E-1,1.0228441E0,1.981729E-1,-1.7764581E-2,-4.7015534E-3,2.9847287E-2,-4.464349E-3,3.82232E-2,7.6140324E-3,2.7369663E-2,-7.839787E-3],"categories":[],"categories_nodes":[],"categories_segments":[],"categories_sizes":[],"default_left":[0,0,0,0,0,0,0,0,0,0,0,0,0,0,0],"id":27,"left_children":[1,3,5,7,9,11,13,-1,-1,-1,-1,-1,-1,-1,-1],"loss_changes":[2.2655035E1,6.602607E0,3.917179E0,2.897994E0,1.8379071E0,6.3500977E-1,3.2378125E0,0E0,0E0,0E0,0E0,0E0,0E0,0E0,0E0],"parents":[2147483647,0,0,1,1,2,2,3,3,4,4,5,5,6,6],"right_children":[2,4,6,8,10,12,14,-1,-1,-1,-1,-1,-1,-1,-1],"split_conditions":[7.9382915E0,1.0481382E4,2.362E3,3E0,1.24E3,1.4773493E4,4.3851694E3,-1.7764581E-2,-4.7015534E-3,2.9847287E-2,-4.464349E-3,3.82232E-2,7.6140324E-3,2.7369663E-2,-7.839787E-3],"split_indices":[17,2,19,9,23,8,8,0,0,0,0,0,0,0,0],"split_type":[0,0,0,0,0,0,0,0,0,0,0,0,0,0,0],"sum_hessian":[1.1961718E2,9.199379E1,2.7623396E1,8.5186844E1,6.806943E0,1.7907936E1,9.71546E0,3.9774376E1,4.5412468E1,4.7948513E0,2.0120916E0,1.583411E1,2.0738258E0,3.3617797E0,6.3536806E0],"tree_param":{"num_deleted":"0","num_feature":"32","num_nodes":"15","size_leaf_vector":"1"}},{"base_weights":[6.053916E-2,-3.0566084E-1,5.73508E-1,-5.081283E-1,-9.33863E-2,1.8983495E-1,8.7046045E-1,-1.9711819E-2,5.2981027E-3,5.6800568E-3,-1.5875282E-2,-2.9879515E-3,2.2384752E-2,3.6290977E-2,1.5457967E-2],"categories":[],"categories_nodes":[],"categories_segments":[],"categories_sizes":[],"default_left":[0,0,0,0,0,0,0,0,0,0,0,0,0,0,0],"id":28,"left_children":[1,3,5,7,9,11,13,-1,-1,-1,-1,-1,-1,-1,-1],"loss_changes":[2.2134895E1,2.8692474E0,5.252102E0,1.4361019E0,3.4734764E0,3.0716774E0,1.0154362E0,0E0,0E0,0E0,0E0,0E0,0E0,0E0,0E0],"parents":[2147483647,0,0,1,1,2,2,3,3,4,4,5,5,6,6],"right_children":[2,4,6,8,10,12,14,-1,-1,-1,-1,-1,-1,-1,-1],"split_conditions":[3.3893096E-1,5.601517E0,1.0958552E4,1.138E4,3.546879E3,9.340498E-1,9.81E2,-1.9711819E-2,5.2981027E-3,5.6800568E-3,-1.5875282E-2,-2.9879515E-3,2.2384752E-2,3.6290977E-2,1.5457967E-2],"split_indices":[14,17,3,23,8,1,23,0,0,0,0,0,0,0,0],"split_type":[0,0,0,0,0,0,0,0,0,0,0,0,0,0,0],"sum_hessian":[1.1396695E2,6.6967926E1,4.6999027E1,3.284904E1,3.411888E1,2.193578E1,2.5063248E1,3.0587166E1,2.2618744E0,2.0597311E1,1.3521571E1,1.4613575E1,7.322204E0,1.6012438E1,9.05081E0],"tree_param":{"num_deleted":"0","num_feature":"32","num_nodes":"15","size_leaf_vector":"1"}},{"base_weights":[4.296683E-2,-3.2662526E-1,5.079499E-1,-5.8591706E-1,-7.194845E-2,1.10705525E-1,7.5307417E-1,-2.6270963E-2,-5.0881356E-3,1.2374019E-2,-1.8144274E-2,-6.685683E-4,2.2914426E-2,-4.4324244E-3,2.9871263E-2],"categories":[],"categories_nodes":[],"categories_segments":[],"categories_sizes":[],"default_left":[0,0,0,0,0,0,0,0,0,0,0,0,0,0,0],"id":29,"left_children":[1,3,5,7,9,11,13,-1,-1,-1,-1,-1,-1,-1,-1],"loss_changes":[2.0379E1,4.2879095E0,4.939789E0,2.1416311E0,7.1449313E0,1.6036906E0,3.0498352E0,0E0,0E0,0E0,0E0,0E0,0E0,0E0,0E0],"parents":[2147483647,0,0,1,1,2,2,3,3,4,4,5,5,6,6],"right_children":[2,4,6,8,10,12,14,-1,-1,-1,-1,-1,-1,-1,-1],"split_conditions":[4.7242615E-1,3.153753E3,8.313356E3,1.0587488E3,3.2339053E3,6.205604E-1,2.868215E0,-2.6270963E-2,-5.0881356E-3,1.2374019E-2,-1.8144274E-2,-6.685683E-4,2.2914426E-2,-4.4324244E-3,2.9871263E-2],"split_indices":[15,2,2,8,8,15,5,0,0,0,0,0,0,0,0],"split_type":[0,0,0,0,0,0,0,0,0,0,0,0,0,0,0],"sum_hessian":[1.1465234E2,6.421005E1,5.0442295E1,3.0527802E1,3.368225E1,2.0356365E1,3.0085928E1,2.1196554E1,9.331248E0,1.745922E1,1.622303E1,1.7992716E1,2.3636508E0,3.0280833E0,2.7057846E1],"tree_param":{"num_deleted":"0","num_feature":"32","num_nodes":"15","size_leaf_vector":"1"}},{"base_weights":[1.3116057E-3,-1.8347657E-1,7.565633E-1,-5.193587E-1,1.0189915E-3,3.4034394E-2,2.1722066E-1,-7.530002E-3,-2.2755533E-2,-8.422099E-3,9.484688E-3,2.0780293E-2,-2.9000419E-3],"categories":[],"categories_nodes":[],"categories_segments":[],"categories_sizes":[],"default_left":[0,0,0,0,0,0,0,0,0,0,0,0,0],"id":30,"left_children":[1,3,5,7,9,-1,11,-1,-1,-1,-1,-1,-1],"loss_changes":[1.6912323E1,6.035076E0,2.350645E0,1.0940933E0,4.3608727E0,0E0,1.1585591E0,0E0,0E0,0E0,0E0,0E0,0E0],"parents":[2147483647,0,0,1,1,2,2,3,3,4,4,6,6],"right_children":[2,4,6,8,10,-1,12,-1,-1,-1,-1,-1,-1],"split_conditions":[8.159828E0,1.6349694E-1,2.362E3,9.103907E-2,7.9351788E0,3.4034394E-2,4.622768E3,-7.530002E-3,-2.2755533E-2,-8.422099E-3,9.484688E-3,2.0780293E-2,-2.9000419E-3],"split_indices":[17,14,19,14,12,0,8,0,0,0,0,0,0],"split_type":[0,0,0,0,0,0,0,0,0,0,0,0,0],"sum_hessian":[1.1719256E2,9.537194E1,2.1820614E1,3.2526325E1,6.2845615E1,1.4436953E1,7.383662E0,1.1370431E1,2.1155893E1,3.3276966E1,2.956865E1,2.4067993E0,4.976863E0],"tree_param":{"num_deleted":"0","num_feature":"32","num_nodes":"13","size_leaf_vector":"1"}},{"base_weights":[-4.2473808E-2,-2.4213013E-1,8.161288E-1,-4.655354E-1,-4.76175E-2,3.3536293E-2,3.8439643E-1,-1.8166335E-2,2.9749114E-3,-1.5800813E-2,5.812354E-3,2.400207E-2,9.2642475E-4],"categories":[],"categories_nodes":[],"categories_segments":[],"categories_sizes":[],"default_left":[0,0,0,0,0,0,0,0,0,0,0,0,0],"id":31,"left_children":[1,3,5,7,9,-1,11,-1,-1,-1,-1,-1,-1],"loss_changes":[2.1205349E1,4.3026624E0,6.9601345E-1,1.4529228E0,4.956723E0,0E0,9.478252E-1,0E0,0E0,0E0,0E0,0E0,0E0],"parents":[2147483647,0,0,1,1,2,2,3,3,4,4,6,6],"right_children":[2,4,6,8,10,-1,12,-1,-1,-1,-1,-1,-1],"split_conditions":[8.159828E0,3E0,2.362E3,2.027E3,5.7729883E0,3.3536293E-2,5.223228E3,-1.8166335E-2,2.9749114E-3,-1.5800813E-2,5.812354E-3,2.400207E-2,9.2642475E-4],"split_indices":[17,9,19,28,17,0,8,0,0,0,0,0,0],"split_type":[0,0,0,0,0,0,0,0,0,0,0,0,0],"sum_hessian":[1.19394646E2,9.8034134E1,2.1360512E1,4.4331272E1,5.370286E1,1.4237306E1,7.1232057E0,4.050889E1,3.8223839E0,1.7813131E1,3.588973E1,2.8725684E0,4.250637E0],"tree_param":{"num_deleted":"0","num_feature":"32","num_nodes":"13","size_leaf_vector":"1"}},{"base_weights":[1.987688E-3,-2.4128026E-1,6.126556E-1,-3.3332342E-1,7.71222E-1,3.0358335E-1,8.4105355E-1,-2.5879009E-2,-6.905935E-3,3.273324E-2,9.051013E-3,-1.7279484E-3,2.359027E-2,3.5281394E-2,-9.210214E-4],"categories":[],"categories_nodes":[],"categories_segments":[],"categories_sizes":[],"default_left":[0,0,0,0,0,0,0,0,0,0,0,0,0,0,0],"id":32,"left_children":[1,3,5,7,9,11,13,-1,-1,-1,-1,-1,-1,-1,-1],"loss_changes":[1.761861E1,8.419266E0,1.874239E0,4.079878E0,1.6134071E-1,2.3527682E0,2.7033234E0,0E0,0E0,0E0,0E0,0E0,0E0,0E0,0E0],"parents":[2147483647,0,0,1,1,2,2,3,3,4,4,5,5,6,6],"right_children":[2,4,6,8,10,12,14,-1,-1,-1,-1,-1,-1,-1,-1],"split_conditions":[9.055719E0,9.340498E-1,6.79E2,1.2439104E3,4.3E2,6.535564E-1,8E0,-2.5879009E-2,-6.905935E-3,3.273324E-2,9.051013E-3,-1.7279484E-3,2.359027E-2,3.5281394E-2,-9.210214E-4],"split_indices":[10,1,28,4,28,15,21,0,0,0,0,0,0,0,0],"split_type":[0,0,0,0,0,0,0,0,0,0,0,0,0,0,0],"sum_hessian":[1.1460907E2,8.2824554E1,3.1784515E1,7.7152466E1,5.6720867E0,1.5486405E1,1.629811E1,1.7131554E1,6.0020912E1,3.0480342E0,2.6240523E0,8.817871E0,6.6685348E0,1.3394945E1,2.903165E0],"tree_param":{"num_deleted":"0","num_feature":"32","num_nodes":"15","size_leaf_vector":"1"}},{"base_weights":[1.5469588E-2,-1.6166468E-1,7.334782E-1,-3.3704552E-1,1.7122065E-1,3.298894E-2,2.2075376E-1,-1.646054E-2,-3.1848492E-3,1.2605799E-2,-9.19421E-3,2.1513358E-2,-3.3961968E-3],"categories":[],"categories_nodes":[],"categories_segments":[],"categories_sizes":[],"default_left":[0,0,0,0,0,0,0,0,0,0,0,0,0],"id":33,"left_children":[1,3,5,7,9,-1,11,-1,-1,-1,-1,-1,-1],"loss_changes":[1.5185526E1,5.71506E0,2.1156397E0,1.9961596E0,3.0113475E0,0E0,1.3026097E0,0E0,0E0,0E0,0E0,0E0,0E0],"parents":[2147483647,0,0,1,1,2,2,3,3,4,4,6,6],"right_children":[2,4,6,8,10,-1,12,-1,-1,-1,-1,-1,-1],"split_conditions":[8.159828E0,4.6998432E-1,2.362E3,2.449E3,4.876419E0,3.298894E-2,3E0,-1.646054E-2,-3.1848492E-3,1.2605799E-2,-9.19421E-3,2.1513358E-2,-3.3961968E-3],"split_indices":[17,15,19,23,5,0,27,0,0,0,0,0,0],"split_type":[0,0,0,0,0,0,0,0,0,0,0,0,0],"sum_hessian":[1.155335E2,9.391432E1,2.1619179E1,6.149215E1,3.2422173E1,1.4166288E1,7.452891E0,3.8706615E1,2.2785536E1,2.282364E1,9.59853E0,2.4935737E0,4.959317E0],"tree_param":{"num_deleted":"0","num_feature":"32","num_nodes":"13","size_leaf_vector":"1"}},{"base_weights":[8.4611345E-3,-1.8211181E-1,7.91449E-1,-5.1817113E-1,-4.374654E-2,3.8145745E-1,9.345354E-1,-8.119479E-3,-2.2970637E-2,-9.074153E-3,8.7440545E-3,2.666409E-2,1.4204468E-3,3.6631785E-2,6.9006067E-3],"categories":[],"categories_nodes":[],"categories_segments":[],"categories_sizes":[],"default_left":[0,0,0,0,0,0,0,0,0,0,0,0,0,0,0],"id":34,"left_children":[1,3,5,7,9,11,13,-1,-1,-1,-1,-1,-1,-1,-1],"loss_changes":[1.764373E1,4.379922E0,6.446209E-1,7.854433E-1,4.5329895E0,1.1526012E0,8.9113235E-1,0E0,0E0,0E0,0E0,0E0,0E0,0E0,0E0],"parents":[2147483647,0,0,1,1,2,2,3,3,4,4,5,5,6,6],"right_children":[2,4,6,8,10,12,14,-1,-1,-1,-1,-1,-1,-1,-1],"split_conditions":[8.159828E0,1.8078548E0,8.606836E0,9.103907E-2,2.7928586E3,8.338694E0,2.423E3,-8.119479E-3,-2.2970637E-2,-9.074153E-3,8.7440545E-3,2.666409E-2,1.4204468E-3,3.6631785E-2,6.9006067E-3],"split_indices":[17,5,17,14,4,17,24,0,0,0,0,0,0,0,0],"split_type":[0,0,0,0,0,0,0,0,0,0,0,0,0,0,0],"sum_hessian":[1.1431077E2,9.3169014E1,2.1141758E1,2.5571491E1,6.759752E1,7.3663836E0,1.3775374E1,1.0069073E1,1.5502418E1,3.911611E1,2.8481411E1,2.3141692E0,5.052214E0,1.1229605E1,2.5457704E0],"tree_param":{"num_deleted":"0","num_feature":"32","num_nodes":"15","size_leaf_vector":"1"}},{"base_weights":[4.013464E-2,-2.525647E-1,4.6861166E-1,-6.086755E-1,-1.3226847E-1,6.6245306E-1,-9.210547E-4,8.097637E-5,-2.521009E-2,1.7039643E-3,-1.8329812E-2,6.6284034E-3,3.2072794E-2,-1.1569449E-2,2.3529127E-2],"categories":[],"categories_nodes":[],"categories_segments":[],"categories_sizes":[],"default_left":[0,0,0,0,0,0,0,0,0,0,0,0,0,0,0],"id":35,"left_children":[1,3,5,7,9,11,13,-1,-1,-1,-1,-1,-1,-1,-1],"loss_changes":[1.4830435E1,2.856349E0,4.3633957E0,1.1783295E0,3.96131E0,3.7280598E0,3.9953666E0,0E0,0E0,0E0,0E0,0E0,0E0,0E0,0E0],"parents":[2147483647,0,0,1,1,2,2,3,3,4,4,5,5,6,6],"right_children":[2,4,6,8,10,12,14,-1,-1,-1,-1,-1,-1,-1,-1],"split_conditions":[3.3893096E-1,3.7769053E3,2.328E3,4.8519907E2,3.546879E3,9.057133E3,1.6304588E1,8.097637E-5,-2.521009E-2,1.7039643E-3,-1.8329812E-2,6.6284034E-3,3.2072794E-2,-1.1569449E-2,2.3529127E-2],"split_indices":[14,3,19,4,8,2,5,0,0,0,0,0,0,0,0],"split_type":[0,0,0,0,0,0,0,0,0,0,0,0,0,0,0],"sum_hessian":[1.1436354E2,6.843538E1,4.592817E1,1.5230166E1,5.320521E1,3.192608E1,1.4002086E1,2.6549602E0,1.2575206E1,3.758285E1,1.562236E1,1.2370339E1,1.9555742E1,1.0082805E1,3.9192817E0],"tree_param":{"num_deleted":"0","num_feature":"32","num_nodes":"15","size_leaf_vector":"1"}},{"base_weights":[2.5427751E-3,-2.8515074E-1,4.0306804E-1,2.1705518E-2,-3.4127647E-1,2.2365445E-1,7.6923263E-1,-2.400191E-2,-7.935774E-3,-4.2043636E-3,1.7855855E-2,3.7015185E-2,3.3761207E-3],"categories":[],"categories_nodes":[],"categories_segments":[],"categories_sizes":[],"default_left":[0,0,0,0,0,0,0,0,0,0,0,0,0],"id":36,"left_children":[1,3,5,-1,7,9,11,-1,-1,-1,-1,-1,-1],"loss_changes":[1.3548864E1,3.900817E0,2.884644E0,0E0,2.2828069E0,3.649267E0,2.7722092E0,0E0,0E0,0E0,0E0,0E0,0E0],"parents":[2147483647,0,0,1,1,2,2,4,4,5,5,6,6],"right_children":[2,4,6,-1,8,10,12,-1,-1,-1,-1,-1,-1],"split_conditions":[4.7242615E-1,2.2446733E2,8.515981E0,2.1705518E-2,3.7769053E3,2.7928586E3,8.77193E0,-2.400191E-2,-7.935774E-3,-4.2043636E-3,1.7855855E-2,3.7015185E-2,3.3761207E-3],"split_indices":[15,4,17,0,3,4,29,0,0,0,0,0,0],"split_type":[0,0,0,0,0,0,0,0,0,0,0,0,0],"sum_hessian":[1.13587654E2,6.6440315E1,4.7147335E1,2.7052774E0,6.373504E1,3.3805096E1,1.334224E1,1.3414647E1,5.0320393E1,1.589481E1,1.7910286E1,8.538695E0,4.8035445E0],"tree_param":{"num_deleted":"0","num_feature":"32","num_nodes":"13","size_leaf_vector":"1"}},{"base_weights":[-2.3530588E-2,-1.8416193E-1,7.8476137E-1,-4.6284536E-1,2.5260275E-2,3.4518114E-3,8.767159E-1,-3.975692E-3,-2.0191053E-2,1.234756E-2,-1.0911971E-2,1.5097158E-2,3.71846E-2],"categories":[],"categories_nodes":[],"categories_segments":[],"categories_sizes":[],"default_left":[0,0,0,0,0,0,0,0,0,0,0,0,0],"id":37,"left_children":[1,3,5,7,9,-1,11,-1,-1,-1,-1,-1,-1],"loss_changes":[1.5297719E1,5.7459526E0,1.0601759E0,1.5486698E0,6.6090856E0,0E0,4.878683E-1,0E0,0E0,0E0,0E0,0E0,0E0],"parents":[2147483647,0,0,1,1,2,2,3,3,4,4,6,6],"right_children":[2,4,6,8,10,-1,12,-1,-1,-1,-1,-1,-1],"split_conditions":[1.1048361E4,3.9881006E3,2.72E2,4.5454545E0,3.496877E3,3.4518114E-3,8.159828E0,-3.975692E-3,-2.0191053E-2,1.234756E-2,-1.0911971E-2,1.5097158E-2,3.71846E-2],"split_indices":[2,2,28,29,8,0,17,0,0,0,0,0,0],"split_type":[0,0,0,0,0,0,0,0,0,0,0,0,0],"sum_hessian":[1.13596245E2,9.605217E1,1.754407E1,4.0172886E1,5.5879288E1,2.5632064E0,1.4980863E1,1.087136E1,2.9301527E1,2.8291784E1,2.7587502E1,6.363896E0,8.616967E0],"tree_param":{"num_deleted":"0","num_feature":"32","num_nodes":"13","size_leaf_vector":"1"}},{"base_weights":[-8.464783E-3,-1.5370843E-1,7.005801E-1,-2.0444174E-1,3.0145552E-2,8.999003E-1,-3.619269E-3,-3.6248676E-3,-1.9866336E-2,3.500907E-2,1.2661841E-2],"categories":[],"categories_nodes":[],"categories_segments":[],"categories_sizes":[],"default_left":[0,0,0,0,0,0,0,0,0,0,0],"id":38,"left_children":[1,3,5,7,-1,9,-1,-1,-1,-1,-1],"loss_changes":[1.2062072E1,5.3531675E0,3.3779316E0,3.3300655E0,0E0,1.4939308E-1,0E0,0E0,0E0,0E0,0E0],"parents":[2147483647,0,0,1,1,2,2,3,3,5,5],"right_children":[2,4,6,8,-1,10,-1,-1,-1,-1,-1],"split_conditions":[1.1048361E4,8.913893E1,1.3254573E4,6.955E3,3.0145552E-2,8.353222E0,-3.619269E-3,-3.6248676E-3,-1.9866336E-2,3.500907E-2,1.2661841E-2],"split_indices":[2,5,8,19,0,29,0,0,0,0,0],"split_type":[0,0,0,0,0,0,0,0,0,0,0],"sum_hessian":[1.13034096E2,9.5116486E1,1.7917612E1,9.210972E1,3.0067635E0,1.4166853E1,3.7507598E0,7.409839E1,1.801133E1,1.0492539E1,3.6743133E0],"tree_param":{"num_deleted":"0","num_feature":"32","num_nodes":"11","size_leaf_vector":"1"}},{"base_weights":[1.7740702E-2,-1.4667012E-1,7.135574E-1,-2.3022541E-1,4.6127492E-1,8.540569E-1,6.766819E-5,-1.6344128E-2,-8.382435E-4,2.8347144E-2,-3.4967507E-5,1.3900534E-2,3.9119273E-2],"categories":[],"categories_nodes":[],"categories_segments":[],"categories_sizes":[],"default_left":[0,0,0,0,0,0,0,0,0,0,0,0,0],"id":39,"left_children":[1,3,5,7,9,11,-1,-1,-1,-1,-1,-1,-1],"loss_changes":[1.2976816E1,4.882312E0,2.1634579E0,3.989902E0,1.8992679E0,1.291667E0,0E0,0E0,0E0,0E0,0E0,0E0,0E0],"parents":[2147483647,0,0,1,1,2,2,3,3,4,4,5,5],"right_children":[2,4,6,8,10,12,-1,-1,-1,-1,-1,-1,-1],"split_conditions":[1.0481382E4,9.1404706E-1,1.3254573E4,3E0,2.9541501E3,6.79E2,6.766819E-5,-1.6344128E-2,-8.382435E-4,2.8347144E-2,-3.4967507E-5,1.3900534E-2,3.9119273E-2],"split_indices":[2,1,8,9,8,28,0,0,0,0,0,0,0],"split_type":[0,0,0,0,0,0,0,0,0,0,0,0,0],"sum_hessian":[1.09604225E2,8.993289E1,1.9671339E1,8.015859E1,9.774298E0,1.6093597E1,3.577742E0,3.6145485E1,4.4013103E1,4.714555E0,5.059743E0,7.7226615E0,8.370935E0],"tree_param":{"num_deleted":"0","num_feature":"32","num_nodes":"13","size_leaf_vector":"1"}},{"base_weights":[4.5506958E-2,-2.0275669E-1,4.0951505E-1,-8.041565E-2,-4.7493786E-1,5.211377E-2,6.1971253E-1,-7.4676233E-3,1.5895834E-2,3.7231059E-3,-1.9728838E-2,-8.760039E-3,1.9971859E-2,3.6558706E-2,1.2808636E-2],"categories":[],"categories_nodes":[],"categories_segments":[],"categories_sizes":[],"default_left":[0,0,0,0,0,0,0,0,0,0,0,0,0,0,0],"id":40,"left_children":[1,3,5,7,9,11,13,-1,-1,-1,-1,-1,-1,-1,-1],"loss_changes":[1.015233E1,2.1557999E0,3.3512998E0,3.6517146E0,1.1712637E0,3.2682886E0,2.3020754E0,0E0,0E0,0E0,0E0,0E0,0E0,0E0,0E0],"parents":[2147483647,0,0,1,1,2,2,3,3,4,4,5,5,6,6],"right_children":[2,4,6,8,10,12,14,-1,-1,-1,-1,-1,-1,-1,-1],"split_conditions":[3.3893096E-1,6.571E3,1.007734E4,3.807E3,4.8519907E2,9.1404706E-1,4.664475E3,-7.4676233E-3,1.5895834E-2,3.7231059E-3,-1.9728838E-2,-8.760039E-3,1.9971859E-2,3.6558706E-2,1.2808636E-2],"split_indices":[14,19,3,23,4,1,8,0,0,0,0,0,0,0,0],"split_type":[0,0,0,0,0,0,0,0,0,0,0,0,0,0,0],"sum_hessian":[1.0850426E2,6.503474E1,4.346952E1,4.6654976E1,1.837976E1,1.7022245E1,2.6447275E1,3.8325573E1,8.329401E0,2.3816185E0,1.5998141E1,1.1405209E1,5.6170363E0,7.5591955E0,1.888808E1],"tree_param":{"num_deleted":"0","num_feature":"32","num_nodes":"15","size_leaf_vector":"1"}},{"base_weights":[-1.0357525E-2,-1.4506787E-1,6.197259E-1,-1.932898E-1,2.7686456E-2,3.0898176E-2,1.9843765E-1,-2.1952061E-2,-3.410672E-3,2.4412222E-2,-9.021444E-3],"categories":[],"categories_nodes":[],"categories_segments":[],"categories_sizes":[],"default_left":[0,0,0,0,0,0,0,0,0,0,0],"id":41,"left_children":[1,3,5,7,-1,-1,9,-1,-1,-1,-1],"loss_changes":[9.717073E0,4.5577435E0,1.8852329E0,3.6698837E0,0E0,0E0,2.7122335E0,0E0,0E0,0E0,0E0],"parents":[2147483647,0,0,1,1,2,2,3,3,6,6],"right_children":[2,4,6,8,-1,-1,10,-1,-1,-1,-1],"split_conditions":[1.0585169E1,1.9413074E4,2.442E3,1.1609967E3,2.7686456E-2,3.0898176E-2,3.8878984E3,-2.1952061E-2,-3.410672E-3,2.4412222E-2,-9.021444E-3],"split_indices":[5,3,19,4,0,0,8,0,0,0,0],"split_type":[0,0,0,0,0,0,0,0,0,0,0],"sum_hessian":[1.1036346E2,9.219246E1,1.8171001E1,8.918528E1,3.0071776E0,9.837107E0,8.333895E0,1.4129161E1,7.505612E1,3.4747725E0,4.859122E0],"tree_param":{"num_deleted":"0","num_feature":"32","num_nodes":"11","size_leaf_vector":"1"}},{"base_weights":[3.621345E-2,-1.3158216E-1,6.2528E-1,-4.8788553E-1,-3.86863E-2,9.157188E-1,8.961526E-2,-2.7495418E-2,4.706179E-3,-8.170926E-3,6.275238E-3,3.5152003E-2,5.5168425E-3,2.3450727E-2,-9.860699E-3],"categories":[],"categories_nodes":[],"categories_segments":[],"categories_sizes":[],"default_left":[0,0,0,0,0,0,0,0,0,0,0,0,0,0,0],"id":42,"left_children":[1,3,5,7,9,11,13,-1,-1,-1,-1,-1,-1,-1,-1],"loss_changes":[1.1231942E1,2.9013984E0,3.7519674E0,3.5816388E0,3.1662698E0,7.653818E-1,2.7627544E0,0E0,0E0,0E0,0E0,0E0,0E0,0E0,0E0],"parents":[2147483647,0,0,1,1,2,2,3,3,4,4,5,5,6,6],"right_children":[2,4,6,8,10,12,14,-1,-1,-1,-1,-1,-1,-1,-1],"split_conditions":[7.951119E0,7.1268187E0,2.362E3,7.0233626E0,2.4017258E0,1.33993545E4,4.3851694E3,-2.7495418E-2,4.706179E-3,-8.170926E-3,6.275238E-3,3.5152003E-2,5.5168425E-3,2.3450727E-2,-9.860699E-3],"split_indices":[17,12,19,17,5,8,8,0,0,0,0,0,0,0,0],"split_type":[0,0,0,0,0,0,0,0,0,0,0,0,0,0,0],"sum_hessian":[1.0996965E2,8.6798386E1,2.3171267E1,1.6191545E1,7.0606834E1,1.4104675E1,9.066591E0,1.0597629E1,5.5939174E0,3.721365E1,3.339319E1,1.204672E1,2.0579562E0,2.909921E0,6.1566706E0],"tree_param":{"num_deleted":"0","num_feature":"32","num_nodes":"15","size_leaf_vector":"1"}},{"base_weights":[-3.4235373E-2,-1.6038862E-1,6.0697407E-1,-2.3881343E-1,3.9745516E-1,7.743591E-1,-5.4021263E-3,-2.2881027E-2,-4.825918E-3,2.2547202E-2,-1.2526023E-3,5.3354753E-3,2.9460382E-2],"categories":[],"categories_nodes":[],"categories_segments":[],"categories_sizes":[],"default_left":[0,0,0,0,0,0,0,0,0,0,0,0,0],"id":43,"left_children":[1,3,5,7,9,11,-1,-1,-1,-1,-1,-1,-1],"loss_changes":[9.492388E0,4.460907E0,2.7003198E0,3.4566212E0,1.4127543E0,4.206438E-1,0E0,0E0,0E0,0E0,0E0,0E0,0E0],"parents":[2147483647,0,0,1,1,2,2,3,3,4,4,5,5],"right_children":[2,4,6,8,10,12,-1,-1,-1,-1,-1,-1,-1],"split_conditions":[1.1048361E4,1.0585169E1,2.362E3,7.057895E0,4E0,2.62E2,-5.4021263E-3,-2.2881027E-2,-4.825918E-3,2.2547202E-2,-1.2526023E-3,5.3354753E-3,2.9460382E-2],"split_indices":[2,5,19,12,9,28,0,0,0,0,0,0,0],"split_type":[0,0,0,0,0,0,0,0,0,0,0,0,0],"sum_hessian":[1.1294139E2,9.562718E1,1.7314215E1,8.484324E1,1.0783942E1,1.4165511E1,3.1487024E0,1.4456641E1,7.03866E1,6.2502756E0,4.5336666E0,2.0222335E0,1.2143278E1],"tree_param":{"num_deleted":"0","num_feature":"32","num_nodes":"13","size_leaf_vector":"1"}},{"base_weights":[7.252566E-3,-1.5882193E-1,6.126655E-1,-4.1798946E-1,-3.2876823E-2,3.7805358E-1,3.351932E-2,1.7251491E-3,-1.8508991E-2,6.3542733E-3,-1.03892395E-2,2.4892315E-2,-1.6330468E-3],"categories":[],"categories_nodes":[],"categories_segments":[],"categories_sizes":[],"default_left":[0,0,0,0,0,0,0,0,0,0,0,0,0],"id":44,"left_children":[1,3,5,7,9,11,-1,-1,-1,-1,-1,-1,-1],"loss_changes":[1.1285424E1,2.8498466E0,1.2313662E0,1.5363936E0,3.5883076E0,2.568567E0,0E0,0E0,0E0,0E0,0E0,0E0,0E0],"parents":[2147483647,0,0,1,1,2,2,3,3,4,4,5,5],"right_children":[2,4,6,8,10,12,-1,-1,-1,-1,-1,-1,-1],"split_conditions":[7.951119E0,1.5339452E-1,9.014447E0,2.094E3,3.424202E3,5.223228E3,3.351932E-2,1.7251491E-3,-1.8508991E-2,6.3542733E-3,-1.03892395E-2,2.4892315E-2,-1.6330468E-3],"split_indices":[17,14,17,19,8,8,0,0,0,0,0,0,0],"split_type":[0,0,0,0,0,0,0,0,0,0,0,0,0],"sum_hessian":[1.08308464E2,8.6151146E1,2.2157316E1,2.6657724E1,5.949342E1,1.5683995E1,6.4733205E0,5.323842E0,2.1333881E1,3.317115E1,2.6322273E1,8.033315E0,7.6506805E0],"tree_param":{"num_deleted":"0","num_feature":"32","num_nodes":"13","size_leaf_vector":"1"}},{"base_weights":[1.0020846E-2,-1.2955204E-1,6.2007374E-1,-2.59595E-1,1.6647935E-1,3.094366E-2,1.3450958E-1,-2.4828461E-3,-1.2901749E-2,2.5791753E-2,-5.730013E-3,1.9778613E-2,-5.6050573E-3],"categories":[],"categories_nodes":[],"categories_segments":[],"categories_sizes":[],"default_left":[0,0,0,0,0,0,0,0,0,0,0,0,0],"id":45,"left_children":[1,3,5,7,9,-1,11,-1,-1,-1,-1,-1,-1],"loss_changes":[9.648608E0,3.6411324E0,2.4663467E0,1.2833495E0,5.779027E0,0E0,1.4229181E0,0E0,0E0,0E0,0E0,0E0,0E0],"parents":[2147483647,0,0,1,1,2,2,3,3,4,4,6,6],"right_children":[2,4,6,8,10,-1,12,-1,-1,-1,-1,-1,-1],"split_conditions":[8.159828E0,8.795013E0,2.362E3,2.393E3,8.228362E0,3.094366E-2,2.118248E2,-2.4828461E-3,-1.2901749E-2,2.5791753E-2,-5.730013E-3,1.9778613E-2,-5.6050573E-3],"split_indices":[17,10,19,19,13,0,4,0,0,0,0,0,0],"split_type":[0,0,0,0,0,0,0,0,0,0,0,0,0],"sum_hessian":[1.0943037E2,9.0337494E1,1.9092873E1,6.293645E1,2.7401047E1,1.1304418E1,7.788456E0,2.4259586E1,3.8676865E1,9.142832E0,1.8258215E1,2.4184868E0,5.3699694E0],"tree_param":{"num_deleted":"0","num_feature":"32","num_nodes":"13","size_leaf_vector":"1"}},{"base_weights":[5.680294E-3,-1.227355E-1,6.251189E-1,-1.6705652E-1,2.67175E-2,6.9501156E-1,4.0994346E-4,-1.9382413E-2,-3.1990337E-3,-4.676665E-4,2.769642E-2],"categories":[],"categories_nodes":[],"categories_segments":[],"categories_sizes":[],"default_left":[0,0,0,0,0,0,0,0,0,0,0],"id":46,"left_children":[1,3,5,7,-1,9,-1,-1,-1,-1,-1],"loss_changes":[8.964828E0,3.9239762E0,8.1326294E-1,2.5499225E0,0E0,1.2038984E0,0E0,0E0,0E0,0E0,0E0],"parents":[2147483647,0,0,1,1,2,2,3,3,5,5],"right_children":[2,4,6,8,-1,10,-1,-1,-1,-1,-1],"split_conditions":[1.0585169E1,9.873754E0,1.0519E4,1.1609967E3,2.67175E-2,7.9E1,4.0994346E-4,-1.9382413E-2,-3.1990337E-3,-4.676665E-4,2.769642E-2],"split_indices":[5,11,20,4,0,28,0,0,0,0,0],"split_type":[0,0,0,0,0,0,0,0,0,0,0],"sum_hessian":[1.08771286E2,9.1422264E1,1.7349026E1,8.8612915E1,2.8093474E0,1.53355875E1,2.013438E0,1.2430848E1,7.618207E1,2.0417209E0,1.3293866E1],"tree_param":{"num_deleted":"0","num_feature":"32","num_nodes":"11","size_leaf_vector":"1"}},{"base_weights":[-5.0612167E-3,-1.2763493E-1,5.992758E-1,2.6056603E-2,-1.7760566E-1,7.996783E-1,-5.6086527E-3,-6.0476316E-4,-1.7743928E-2,3.2933097E-2,-8.565728E-4],"categories":[],"categories_nodes":[],"categories_segments":[],"categories_sizes":[],"default_left":[0,0,0,0,0,0,0,0,0,0,0],"id":47,"left_children":[1,3,5,-1,7,9,-1,-1,-1,-1,-1],"loss_changes":[8.402506E0,4.3712454E0,3.1680784E0,0E0,4.7742777E0,1.8471785E0,0E0,0E0,0E0,0E0,0E0],"parents":[2147483647,0,0,1,1,2,2,4,4,5,5],"right_children":[2,4,6,-1,8,10,-1,-1,-1,-1,-1],"split_conditions":[1.0941842E4,7.59086E-3,2.362E3,2.6056603E-2,8.174106E0,9.557693E0,-5.6086527E-3,-6.0476316E-4,-1.7743928E-2,3.2933097E-2,-8.565728E-4],"split_indices":[2,16,19,0,13,13,0,0,0,0,0],"split_type":[0,0,0,0,0,0,0,0,0,0,0],"sum_hessian":[1.09366E2,9.2235985E1,1.7130014E1,3.4922056E0,8.8743774E1,1.3470139E1,3.659876E0,6.110445E1,2.7639326E1,1.12571335E1,2.2130053E0],"tree_param":{"num_deleted":"0","num_feature":"32","num_nodes":"11","size_leaf_vector":"1"}},{"base_weights":[4.0374387E-2,-7.09777E-2,5.824282E-1,-4.933247E-1,2.6747186E-2,8.2700044E-1,-1.8147556E-3,-1.1538909E-3,-1.9273303E-2,-9.88118E-3,7.322916E-3,3.5118524E-2,1.1368536E-2,1.2897256E-2,-1.4711749E-2],"categories":[],"categories_nodes":[],"categories_segments":[],"categories_sizes":[],"default_left":[0,0,0,0,0,0,0,0,0,0,0,0,0,0,0],"id":48,"left_children":[1,3,5,7,9,11,13,-1,-1,-1,-1,-1,-1,-1,-1],"loss_changes":[6.683689E0,3.8445547E0,2.697133E0,4.2526817E-1,4.4620595E0,5.2584267E-1,1.4813445E0,0E0,0E0,0E0,0E0,0E0,0E0,0E0,0E0],"parents":[2147483647,0,0,1,1,2,2,3,3,4,4,5,5,6,6],"right_children":[2,4,6,8,10,12,14,-1,-1,-1,-1,-1,-1,-1,-1],"split_conditions":[1.0585169E1,1.3315311E3,2.423E3,1.9365089E-1,1.9594713E0,3E0,4.3851694E3,-1.1538909E-3,-1.9273303E-2,-9.88118E-3,7.322916E-3,3.5118524E-2,1.1368536E-2,1.2897256E-2,-1.4711749E-2],"split_indices":[5,4,24,15,5,21,8,0,0,0,0,0,0,0,0],"split_type":[0,0,0,0,0,0,0,0,0,0,0,0,0,0,0],"sum_hessian":[1.073628E2,9.0508156E1,1.6854637E1,1.5485744E1,7.5022415E1,1.1295266E1,5.5593715E0,2.0641181E0,1.3421626E1,2.7444723E1,4.757769E1,6.88198E0,4.4132867E0,3.0764208E0,2.4829504E0],"tree_param":{"num_deleted":"0","num_feature":"32","num_nodes":"15","size_leaf_vector":"1"}},{"base_weights":[-3.0506885E-2,-1.7225002E-1,5.088786E-1,-3.543349E-1,-1.1238008E-2,6.1604285E-1,-6.2231408E-3,-3.0621435E-4,-1.714435E-2,1.0571705E-2,-9.47705E-3,2.525772E-2,-4.8342645E-3],"categories":[],"categories_nodes":[],"categories_segments":[],"categories_sizes":[],"default_left":[0,0,0,0,0,0,0,0,0,0,0,0,0],"id":49,"left_children":[1,3,5,7,9,11,-1,-1,-1,-1,-1,-1,-1],"loss_changes":[8.760148E0,2.6427965E0,1.9758201E0,1.9753118E0,4.2330303E0,1.8796997E0,0E0,0E0,0E0,0E0,0E0,0E0,0E0],"parents":[2147483647,0,0,1,1,2,2,3,3,4,4,5,5],"right_children":[2,4,6,8,10,12,-1,-1,-1,-1,-1,-1,-1],"split_conditions":[7.951119E0,4.2462354E3,2.4096386E1,4.710633E0,3.496877E3,1.965E3,-6.2231408E-3,-3.0621435E-4,-1.714435E-2,1.0571705E-2,-9.47705E-3,2.525772E-2,-4.8342645E-3],"split_indices":[17,2,29,29,8,28,0,0,0,0,0,0,0],"split_type":[0,0,0,0,0,0,0,0,0,0,0,0,0],"sum_hessian":[1.1028738E2,8.841455E1,2.1872828E1,4.0365154E1,4.80494E1,1.9098103E1,2.774724E0,1.1968941E1,2.8396212E1,2.1621857E1,2.6427542E1,1.6827908E1,2.2701957E0],"tree_param":{"num_deleted":"0","num_feature":"32","num_nodes":"13","size_leaf_vector":"1"}},{"base_weights":[7.2432538E-3,-1.0334535E-1,5.6893355E-1,-5.930329E-1,-8.8683395E-3,6.906019E-1,-7.051215E-3,-3.9148624E-3,-2.3432115E-2,-8.888112E-3,7.552569E-3,2.9072119E-2,6.4937877E-3],"categories":[],"categories_nodes":[],"categories_segments":[],"categories_sizes":[],"default_left":[0,0,0,0,0,0,0,0,0,0,0,0,0],"id":50,"left_children":[1,3,5,7,9,11,-1,-1,-1,-1,-1,-1,-1],"loss_changes":[6.9418926E0,4.3144073E0,2.0010433E0,4.053297E-1,4.5359707E0,8.463173E-1,0E0,0E0,0E0,0E0,0E0,0E0,0E0],"parents":[2147483647,0,0,1,1,2,2,3,3,4,4,5,5],"right_children":[2,4,6,8,10,12,-1,-1,-1,-1,-1,-1,-1],"split_conditions":[1.0585169E1,1.1609967E3,7.696E3,3.8314176E0,7.0468056E-1,2.423E3,-7.051215E-3,-3.9148624E-3,-2.3432115E-2,-8.888112E-3,7.552569E-3,2.9072119E-2,6.4937877E-3],"split_indices":[5,4,19,29,1,24,0,0,0,0,0,0,0],"split_type":[0,0,0,0,0,0,0,0,0,0,0,0,0],"sum_hessian":[1.0786284E2,9.148316E1,1.6379677E1,1.308868E1,7.839448E1,1.4324559E1,2.0551171E0,2.4699423E0,1.0618738E1,3.736843E1,4.102605E1,1.0205783E1,4.1187763E0],"tree_param":{"num_deleted":"0","num_feature":"32","num_nodes":"13","size_leaf_vector":"1"}},{"base_weights":[2.1099111E-2,-9.259209E-2,6.231102E-1,-3.4861636E-1,8.952099E-2,8.6232585E-1,1.4519428E-2,-1.5536674E-2,2.0594422E-2,1.3814344E-2,-5.2638194E-3,3.510101E-2,1.2357247E-2,1.6214296E-2,-1.3694739E-2],"categories":[],"categories_nodes":[],"categories_segments":[],"categories_sizes":[],"default_left":[0,0,0,0,0,0,0,0,0,0,0,0,0,0,0],"id":51,"left_children":[1,3,5,7,9,11,13,-1,-1,-1,-1,-1,-1,-1,-1],"loss_changes":[7.5574284E0,4.4079742E0,2.527234E0,4.017863E0,4.2227387E0,1.9021606E-1,1.6337433E0,0E0,0E0,0E0,0E0,0E0,0E0,0E0,0E0],"parents":[2147483647,0,0,1,1,2,2,3,3,4,4,5,5,6,6],"right_children":[2,4,6,8,10,12,14,-1,-1,-1,-1,-1,-1,-1,-1],"split_conditions":[1.0585169E1,1.2795995E3,2.423E3,7.207047E0,3.496877E3,4E0,4.8524234E-1,-1.5536674E-2,2.0594422E-2,1.3814344E-2,-5.2638194E-3,3.510101E-2,1.2357247E-2,1.6214296E-2,-1.3694739E-2],"split_indices":[5,8,24,17,8,9,15,0,0,0,0,0,0,0,0],"split_type":[0,0,0,0,0,0,0,0,0,0,0,0,0,0,0],"sum_hessian":[1.067328E2,9.120157E1,1.5531239E1,3.7148148E1,5.4053417E1,1.0550402E1,4.980837E0,3.4674538E1,2.4736092E0,2.322314E1,3.0830276E1,6.7490273E0,3.8013742E0,2.230753E0,2.7500842E0],"tree_param":{"num_deleted":"0","num_feature":"32","num_nodes":"15","size_leaf_vector":"1"}},{"base_weights":[-6.246256E-3,-9.4301134E-2,6.438467E-1,-4.1044694E-1,2.1791022E-2,7.578849E-1,2.7511987E-1,-2.1120796E-3,-2.1134468E-2,1.8119618E-2,-2.8866054E-3,2.9996134E-2,7.2739054E-3,1.7241906E-2,-3.2414373E-3],"categories":[],"categories_nodes":[],"categories_segments":[],"categories_sizes":[],"default_left":[0,0,0,0,0,0,0,0,0,0,0,0,0,0,0],"id":52,"left_children":[1,3,5,7,9,11,13,-1,-1,-1,-1,-1,-1,-1,-1],"loss_changes":[6.4514976E0,3.656304E0,1.4840841E-1,1.7367244E0,3.9327364E0,1.4173365E-1,5.9643936E-1,0E0,0E0,0E0,0E0,0E0,0E0,0E0,0E0],"parents":[2147483647,0,0,1,1,2,2,3,3,4,4,5,5,6,6],"right_children":[2,4,6,8,10,12,14,-1,-1,-1,-1,-1,-1,-1,-1],"split_conditions":[5.513618E-1,1.8078548E0,8.77193E0,9.359293E-2,3.686636E0,7.397322E-2,9.7772735E-1,-2.1120796E-3,-2.1134468E-2,1.8119618E-2,-2.8866054E-3,2.9996134E-2,7.2739054E-3,1.7241906E-2,-3.2414373E-3],"split_indices":[14,5,29,14,29,16,1,0,0,0,0,0,0,0,0],"split_type":[0,0,0,0,0,0,0,0,0,0,0,0,0,0,0],"sum_hessian":[1.0858072E2,9.713386E1,1.1446865E1,2.4726587E1,7.240727E1,7.1306944E0,4.316171E0,9.732308E0,1.4994278E1,1.1201184E1,6.1206085E1,5.0959997E0,2.0346947E0,2.2852376E0,2.0309336E0],"tree_param":{"num_deleted":"0","num_feature":"32","num_nodes":"15","size_leaf_vector":"1"}},{"base_weights":[-6.4318073E-3,-1.4046991E-1,6.8086255E-1,-3.8422883E-1,-1.4759715E-2,3.27235E-1,3.1744882E-2,-1.786557E-2,-1.6163943E-3,6.523751E-3,-9.13015E-3,2.0671215E-2,-7.981742E-3],"categories":[],"categories_nodes":[],"categories_segments":[],"categories_sizes":[],"default_left":[0,0,0,0,0,0,0,0,0,0,0,0,0],"id":53,"left_children":[1,3,5,7,9,11,-1,-1,-1,-1,-1,-1,-1],"loss_changes":[1.0376163E1,2.874375E0,8.765526E-1,1.3165603E0,3.2759192E0,1.7756585E0,0E0,0E0,0E0,0E0,0E0,0E0,0E0],"parents":[2147483647,0,0,1,1,2,2,3,3,4,4,5,5],"right_children":[2,4,6,8,10,12,-1,-1,-1,-1,-1,-1,-1],"split_conditions":[8.159828E0,1.6349694E-1,1.1693736E4,3.807E3,3.496877E3,5.732965E2,3.1744882E-2,-1.786557E-2,-1.6163943E-3,6.523751E-3,-9.13015E-3,2.0671215E-2,-7.981742E-3],"split_indices":[17,14,2,23,8,4,0,0,0,0,0,0,0],"split_type":[0,0,0,0,0,0,0,0,0,0,0,0,0],"sum_hessian":[1.0855667E2,9.217222E1,1.638445E1,2.9961775E1,6.2210445E1,8.299655E0,8.084796E0,2.1073578E1,8.888197E0,3.4498302E1,2.7712141E1,5.5432677E0,2.7563868E0],"tree_param":{"num_deleted":"0","num_feature":"32","num_nodes":"13","size_leaf_vector":"1"}},{"base_weights":[7.844525E-3,-2.6311156E-1,2.8437614E-1,-4.333051E-1,-3.5762277E-2,-5.5518496E-1,3.887274E-1,-3.1282448E-3,-1.880781E-2,-6.4401994E-3,2.7908752E-2,-2.6820254E-2,-1.7285121E-3,6.723151E-3,2.7956434E-2],"categories":[],"categories_nodes":[],"categories_segments":[],"categories_sizes":[],"default_left":[0,0,0,0,0,0,0,0,0,0,0,0,0,0,0],"id":54,"left_children":[1,3,5,7,9,11,13,-1,-1,-1,-1,-1,-1,-1,-1],"loss_changes":[8.325493E0,2.1417394E0,5.2469535E0,1.0467992E0,3.531825E0,6.6107893E-1,3.7296052E0,0E0,0E0,0E0,0E0,0E0,0E0,0E0,0E0],"parents":[2147483647,0,0,1,1,2,2,3,3,4,4,5,5,6,6],"right_children":[2,4,6,8,10,12,14,-1,-1,-1,-1,-1,-1,-1,-1],"split_conditions":[6.601235E0,1.338445E3,2E0,8.039075E-2,4E0,8.734759E-1,6.781058E0,-3.1282448E-3,-1.880781E-2,-6.4401994E-3,2.7908752E-2,-2.6820254E-2,-1.7285121E-3,6.723151E-3,2.7956434E-2],"split_indices":[17,8,9,14,9,1,30,0,0,0,0,0,0,0,0],"split_type":[0,0,0,0,0,0,0,0,0,0,0,0,0,0,0],"sum_hessian":[1.07116165E2,5.415253E1,5.296363E1,2.9932943E1,2.4219587E1,4.899982E0,4.806365E1,7.81657E0,2.2116375E1,2.1884048E1,2.3355398E0,2.7303648E0,2.169617E0,3.4469868E1,1.359378E1],"tree_param":{"num_deleted":"0","num_feature":"32","num_nodes":"15","size_leaf_vector":"1"}},{"base_weights":[-3.4525126E-2,-1.5965828E-1,3.5998994E-1,2.1580698E-2,-1.9975802E-1,2.9056627E-2,8.569838E-2,-2.9974463E-3,-1.693408E-2,-6.1890436E-3,2.408191E-2],"categories":[],"categories_nodes":[],"categories_segments":[],"categories_sizes":[],"default_left":[0,0,0,0,0,0,0,0,0,0,0],"id":55,"left_children":[1,3,5,-1,7,-1,9,-1,-1,-1,-1],"loss_changes":[5.4906306E0,2.8627903E0,3.3188136E0,0E0,2.5571375E0,0E0,3.2762456E0,0E0,0E0,0E0,0E0],"parents":[2147483647,0,0,1,1,2,2,4,4,6,6],"right_children":[2,4,6,-1,8,-1,10,-1,-1,-1,-1],"split_conditions":[9.1118765E0,7.59086E-3,5.223228E3,2.1580698E-2,3.496877E3,2.9056627E-2,9.861676E0,-2.9974463E-3,-1.693408E-2,-6.1890436E-3,2.408191E-2],"split_indices":[10,16,8,0,8,0,11,0,0,0,0],"split_type":[0,0,0,0,0,0,0,0,0,0,0],"sum_hessian":[1.0689236E2,8.2056206E1,2.4836157E1,2.618302E0,7.94379E1,7.6569805E0,1.7179176E1,5.8528854E1,2.0909044E1,1.2948593E1,4.2305837E0],"tree_param":{"num_deleted":"0","num_feature":"32","num_nodes":"11","size_leaf_vector":"1"}},{"base_weights":[5.089444E-2,-5.3740114E-2,6.020426E-1,-5.01705E-1,5.9931852E-2,6.917482E-1,-1.1856379E-3,-1.9562114E-2,-6.418366E-4,4.844258E-3,-1.5874395E-2,5.7771048E-3,3.3692967E-2],"categories":[],"categories_nodes":[],"categories_segments":[],"categories_sizes":[],"default_left":[0,0,0,0,0,0,0,0,0,0,0,0,0],"id":56,"left_children":[1,3,5,7,9,11,-1,-1,-1,-1,-1,-1,-1],"loss_changes":[6.1681733E0,4.6830125E0,1.0195322E0,4.935403E-1,3.1154144E0,1.827632E0,0E0,0E0,0E0,0E0,0E0,0E0,0E0],"parents":[2147483647,0,0,1,1,2,2,3,3,4,4,5,5],"right_children":[2,4,6,8,10,12,-1,-1,-1,-1,-1,-1,-1],"split_conditions":[1.0585169E1,1.3315311E3,2.631579E1,1.5854E4,7.4140977E3,4.8329628E-1,-1.1856379E-3,-1.9562114E-2,-6.418366E-4,4.844258E-3,-1.5874395E-2,5.7771048E-3,3.3692967E-2],"split_indices":[5,4,29,20,4,14,0,0,0,0,0,0,0],"split_type":[0,0,0,0,0,0,0,0,0,0,0,0,0],"sum_hessian":[1.038359E2,8.878518E1,1.5050727E1,1.65878E1,7.219738E1,1.3036191E1,2.0145361E0,1.4552702E1,2.0350974E0,6.389351E1,8.303867E0,5.5210204E0,7.5151706E0],"tree_param":{"num_deleted":"0","num_feature":"32","num_nodes":"13","size_leaf_vector":"1"}},{"base_weights":[1.56456E-2,-7.3328935E-2,7.1563166E-1,3.0519274E-1,-1.5184645E-1,2.9801607E-2,1.0042649E-2,-9.100192E-3,2.2311263E-2,-1.0852861E-3,-1.1659516E-2],"categories":[],"categories_nodes":[],"categories_segments":[],"categories_sizes":[],"default_left":[0,0,0,0,0,0,0,0,0,0,0],"id":57,"left_children":[1,3,5,7,9,-1,-1,-1,-1,-1,-1],"loss_changes":[6.7863064E0,2.9753916E0,2.2673798E-1,3.5856025E0,1.7683058E0,0E0,0E0,0E0,0E0,0E0,0E0],"parents":[2147483647,0,0,1,1,2,2,3,3,4,4],"right_children":[2,4,6,8,10,-1,-1,-1,-1,-1,-1],"split_conditions":[5.513618E-1,3.6873157E0,7.33149E-1,2.0984793E0,3.9922252E0,2.9801607E-2,1.0042649E-2,-9.100192E-3,2.2311263E-2,-1.0852861E-3,-1.1659516E-2],"split_indices":[14,29,15,5,5,0,0,0,0,0,0],"split_type":[0,0,0,0,0,0,0,0,0,0,0],"sum_hessian":[1.05277664E2,9.499361E1,1.0284059E1,1.5327596E1,7.966601E1,6.311692E0,3.9723663E0,5.8358064E0,9.491789E0,4.9207596E1,3.0458416E1],"tree_param":{"num_deleted":"0","num_feature":"32","num_nodes":"11","size_leaf_vector":"1"}},{"base_weights":[-2.2354566E-3,-1.073338E-1,5.544011E-1,2.2202034E-2,-3.7932056E-1,3.1564724E-2,5.764896E-2,-1.1462799E-2,1.05214035E-2,-1.6587367E-2,1.5387373E-2,1.810415E-2,-1.4863596E-2],"categories":[],"categories_nodes":[],"categories_segments":[],"categories_sizes":[],"default_left":[0,0,0,0,0,0,0,0,0,0,0,0,0],"id":58,"left_children":[1,3,5,7,9,-1,11,-1,-1,-1,-1,-1,-1],"loss_changes":[6.39156E0,3.2534966E0,2.8911347E0,6.4396987E0,2.72149E0,0E0,2.4962566E0,0E0,0E0,0E0,0E0,0E0,0E0],"parents":[2147483647,0,0,1,1,2,2,3,3,4,4,6,6],"right_children":[2,4,6,8,10,-1,12,-1,-1,-1,-1,-1,-1],"split_conditions":[1.0941842E4,3.546879E3,1.292E3,1.6349694E-1,1.667E3,3.1564724E-2,7.821622E0,-1.1462799E-2,1.05214035E-2,-1.6587367E-2,1.5387373E-2,1.810415E-2,-1.4863596E-2],"split_indices":[2,8,19,14,28,0,12,0,0,0,0,0,0],"split_type":[0,0,0,0,0,0,0,0,0,0,0,0,0],"sum_hessian":[1.0522015E2,8.986678E1,1.5353366E1,6.2118908E1,2.7747877E1,8.074651E0,7.278714E0,2.7377403E1,3.4741505E1,2.5629803E1,2.118074E0,3.6529202E0,3.6257942E0],"tree_param":{"num_deleted":"0","num_feature":"32","num_nodes":"13","size_leaf_vector":"1"}},{"base_weights":[-3.560256E-2,-1.6803586E-1,3.8457444E-1,2.0728093E-2,-2.0572233E-1,4.9729228E-1,-9.432634E-3,-3.5310872E-3,-1.5338039E-2,-4.2840317E-3,2.1875072E-2],"categories":[],"categories_nodes":[],"categories_segments":[],"categories_sizes":[],"default_left":[0,0,0,0,0,0,0,0,0,0,0],"id":59,"left_children":[1,3,5,-1,7,9,-1,-1,-1,-1,-1],"loss_changes":[6.193036E0,2.6575441E0,2.238256E0,0E0,1.9043059E0,2.012652E0,0E0,0E0,0E0,0E0,0E0],"parents":[2147483647,0,0,1,1,2,2,4,4,5,5],"right_children":[2,4,6,-1,8,10,-1,-1,-1,-1,-1],"split_conditions":[9.057133E3,7.59086E-3,1.3254573E4,2.0728093E-2,4.3023086E0,3.4937814E-1,-9.432634E-3,-3.5310872E-3,-1.5338039E-2,-4.2840317E-3,2.1875072E-2],"split_indices":[2,16,8,0,5,14,0,0,0,0,0],"split_type":[0,0,0,0,0,0,0,0,0,0,0],"sum_hessian":[1.06971954E2,8.224863E1,2.4723331E1,2.4945955E0,7.975403E1,2.1497978E1,3.2253532E0,5.6945827E1,2.2808205E1,3.6875954E0,1.7810383E1],"tree_param":{"num_deleted":"0","num_feature":"32","num_nodes":"11","size_leaf_vector":"1"}},{"base_weights":[2.187732E-2,-2.5369328E-1,1.9976485E-1,1.3410854E-1,-4.153298E-1,5.5912184E-3,6.9407016E-1,-7.728345E-3,1.9665925E-2,-2.0685967E-2,-2.5303736E-3,1.1294822E-2,-1.0330825E-2,-1.1700574E-2,3.022291E-2],"categories":[],"categories_nodes":[],"categories_segments":[],"categories_sizes":[],"default_left":[0,0,0,0,0,0,0,0,0,0,0,0,0,0,0],"id":60,"left_children":[1,3,5,7,9,11,13,-1,-1,-1,-1,-1,-1,-1,-1],"loss_changes":[5.4235234E0,2.8363588E0,6.4323673E0,2.4193428E0,1.793251E0,4.977443E0,3.8719711E0,0E0,0E0,0E0,0E0,0E0,0E0,0E0,0E0],"parents":[2147483647,0,0,1,1,2,2,3,3,4,4,5,5,6,6],"right_children":[2,4,6,8,10,12,14,-1,-1,-1,-1,-1,-1,-1,-1],"split_conditions":[6.1103287E0,4.553734E0,9.03E2,3.488372E0,7.12E2,3.496877E3,2E0,-7.728345E-3,1.9665925E-2,-2.0685967E-2,-2.5303736E-3,1.1294822E-2,-1.0330825E-2,-1.1700574E-2,3.022291E-2],"split_indices":[17,29,28,29,23,8,9,0,0,0,0,0,0,0,0],"split_type":[0,0,0,0,0,0,0,0,0,0,0,0,0,0,0],"sum_hessian":[1.0657004E2,4.147212E1,6.509792E1,1.2300679E1,2.9171438E1,4.819035E1,1.690757E1,7.251694E0,5.0489845E0,1.8334717E1,1.083672E1,2.338612E1,2.4804232E1,2.1164584E0,1.4791112E1],"tree_param":{"num_deleted":"0","num_feature":"32","num_nodes":"15","size_leaf_vector":"1"}},{"base_weights":[2.3083542E-2,-8.379157E-2,6.548785E-1,-1.2463067E-1,2.6743732E-2,7.9145265E-1,4.740222E-3,-1.54185E-3,-1.5570674E-2,7.4078017E-3,3.0790646E-2],"categories":[],"categories_nodes":[],"categories_segments":[],"categories_sizes":[],"default_left":[0,0,0,0,0,0,0,0,0,0,0],"id":61,"left_children":[1,3,5,7,-1,9,-1,-1,-1,-1,-1],"loss_changes":[7.256013E0,3.3863878E0,8.880391E-1,2.2773724E0,0E0,2.3627472E-1,0E0,0E0,0E0,0E0,0E0],"parents":[2147483647,0,0,1,1,2,2,3,3,5,5],"right_children":[2,4,6,8,-1,10,-1,-1,-1,-1,-1],"split_conditions":[6.1903626E-1,7.13356E1,1.048E3,6.955E3,2.6743732E-2,3.9682539E0,4.740222E-3,-1.54185E-3,-1.5570674E-2,7.4078017E-3,3.0790646E-2],"split_indices":[15,5,23,19,0,29,0,0,0,0,0],"split_type":[0,0,0,0,0,0,0,0,0,0,0],"sum_hessian":[1.0383431E2,9.029471E1,1.3539598E1,8.777313E1,2.5215771E0,9.891561E0,3.648038E0,7.194579E1,1.5827337E1,2.204957E0,7.6866035E0],"tree_param":{"num_deleted":"0","num_feature":"32","num_nodes":"11","size_leaf_vector":"1"}},{"base_weights":[2.9570052E-2,-1.3241993E-1,3.1372118E-1,-6.2034816E-1,-4.6756383E-2,6.516152E-2,7.7124405E-1,-2.4976388E-2,-4.5743976E-3,-9.796008E-3,4.6608592E-3,2.1119833E-2,-9.54698E-3,3.5722867E-2,6.178708E-3],"categories":[],"categories_nodes":[],"categories_segments":[],"categories_sizes":[],"default_left":[0,0,0,0,0,0,0,0,0,0,0,0,0,0,0],"id":62,"left_children":[1,3,5,7,9,11,13,-1,-1,-1,-1,-1,-1,-1,-1],"loss_changes":[4.9540367E0,2.8178918E0,4.3365355E0,2.752788E-1,2.6203275E0,5.3252206E0,1.6495075E0,0E0,0E0,0E0,0E0,0E0,0E0,0E0,0E0],"parents":[2147483647,0,0,1,1,2,2,3,3,4,4,5,5,6,6],"right_children":[2,4,6,8,10,12,14,-1,-1,-1,-1,-1,-1,-1,-1],"split_conditions":[7.163804E0,1.0064635E3,7.67E2,1E0,1.1278278E3,3.546879E3,2.362E3,-2.4976388E-2,-4.5743976E-3,-9.796008E-3,4.6608592E-3,2.1119833E-2,-9.54698E-3,3.5722867E-2,6.178708E-3],"split_indices":[17,4,28,0,8,8,19,0,0,0,0,0,0,0,0],"split_type":[0,0,0,0,0,0,0,0,0,0,0,0,0,0,0],"sum_hessian":[1.0382205E2,6.680535E1,3.7016697E1,8.112763E0,5.8692593E1,2.5466362E1,1.1550333E1,6.0463524E0,2.066411E0,2.5082157E1,3.361043E1,9.215904E0,1.6250458E1,7.128387E0,4.4219465E0],"tree_param":{"num_deleted":"0","num_feature":"32","num_nodes":"15","size_leaf_vector":"1"}},{"base_weights":[6.2525325E-2,7.547776E-1,-2.762146E-2,3.4506563E-2,-2.7166097E-3,-8.0630615E-2,2.8801017E-2,1.0744486E-3,-1.3379726E-2],"categories":[],"categories_nodes":[],"categories_segments":[],"categories_sizes":[],"default_left":[0,0,0,0,0,0,0,0,0],"id":63,"left_children":[1,3,5,-1,-1,7,-1,-1,-1],"loss_changes":[6.5152135E0,2.4660726E0,4.3576894E0,0E0,0E0,3.0470624E0,0E0,0E0,0E0],"parents":[2147483647,0,0,1,1,2,2,5,5],"right_children":[2,4,6,-1,-1,8,-1,-1,-1],"split_conditions":[8.2E2,6.3860146E3,4.222616E0,3.4506563E-2,-2.7166097E-3,4.032E3,2.8801017E-2,1.0744486E-3,-1.3379726E-2],"split_indices":[19,4,18,0,0,24,0,0,0],"split_type":[0,0,0,0,0,0,0,0,0],"sum_hessian":[1.0173509E2,1.00228E1,9.171229E1,7.555967E0,2.4668336E0,8.803573E1,3.676564E0,6.561545E1,2.2420277E1],"tree_param":{"num_deleted":"0","num_feature":"32","num_nodes":"9","size_leaf_vector":"1"}},{"base_weights":[1.606934E-2,2.0369397E-1,-1.7953196E-1,3.5093498E-1,-2.8957808E-1,1.6226599E-2,-2.4211156E-1,2.9171607E-2,6.7979405E-3,-1.7397685E-2,5.279605E-3,-2.0123877E-2,-3.3092215E-3],"categories":[],"categories_nodes":[],"categories_segments":[],"categories_sizes":[],"default_left":[0,0,0,0,0,0,0,0,0,0,0,0,0],"id":64,"left_children":[1,3,5,7,9,-1,11,-1,-1,-1,-1,-1,-1],"loss_changes":[3.9085631E0,4.1455145E0,2.3266344E0,2.905528E0,1.3904021E0,0E0,2.2936957E0,0E0,0E0,0E0,0E0,0E0,0E0],"parents":[2147483647,0,0,1,1,2,2,3,3,4,4,6,6],"right_children":[2,4,6,8,10,-1,12,-1,-1,-1,-1,-1,-1],"split_conditions":[2.328E3,6.13861E3,2.2446733E2,8.39E2,1.171E3,1.6226599E-2,1.0538871E3,2.9171607E-2,6.7979405E-3,-1.7397685E-2,5.279605E-3,-2.0123877E-2,-3.3092215E-3],"split_indices":[19,4,4,19,19,0,4,0,0,0,0,0,0],"split_type":[0,0,0,0,0,0,0,0,0,0,0,0,0],"sum_hessian":[1.02508545E2,5.2278873E1,5.0229675E1,4.0705463E1,1.1573409E1,3.3175333E0,4.691214E1,7.8613405E0,3.2844124E1,7.6921244E0,3.8812852E0,1.2629931E1,3.428221E1],"tree_param":{"num_deleted":"0","num_feature":"32","num_nodes":"13","size_leaf_vector":"1"}},{"base_weights":[-8.755882E-3,-9.7656004E-2,4.9466592E-1,2.2021225E-2,-3.534494E-1,7.005176E-1,-9.072263E-2,-6.342807E-3,1.3149398E-2,-1.5174066E-2,1.3184926E-2,2.9371407E-2,2.0046851E-4,-1.7248021E-2,1.2403869E-2],"categories":[],"categories_nodes":[],"categories_segments":[],"categories_sizes":[],"default_left":[0,0,0,0,0,0,0,0,0,0,0,0,0,0,0],"id":65,"left_children":[1,3,5,7,9,11,13,-1,-1,-1,-1,-1,-1,-1,-1],"loss_changes":[4.893391E0,2.855323E0,2.1053061E0,4.8142376E0,2.0626898E0,1.1825972E0,1.430568E0,0E0,0E0,0E0,0E0,0E0,0E0,0E0,0E0],"parents":[2147483647,0,0,1,1,2,2,3,3,4,4,5,5,6,6],"right_children":[2,4,6,8,10,12,14,-1,-1,-1,-1,-1,-1,-1,-1],"split_conditions":[1.1048361E4,3.546879E3,8.353222E0,4.508412E3,1.667E3,1.965E3,6.5804845E-1,-6.342807E-3,1.3149398E-2,-1.5174066E-2,1.3184926E-2,2.9371407E-2,2.0046851E-4,-1.7248021E-2,1.2403869E-2],"split_indices":[2,8,29,2,28,28,15,0,0,0,0,0,0,0,0],"split_type":[0,0,0,0,0,0,0,0,0,0,0,0,0,0,0],"sum_hessian":[1.0518033E2,9.076416E1,1.4416169E1,6.307928E1,2.768488E1,1.03746E1,4.041568E0,4.067823E1,2.2401052E1,2.5680334E1,2.004544E0,8.302043E0,2.0725577E0,2.0108843E0,2.0306838E0],"tree_param":{"num_deleted":"0","num_feature":"32","num_nodes":"15","size_leaf_vector":"1"}},{"base_weights":[2.3274198E-2,-7.6983996E-2,5.727417E-1,2.2425434E-2,-1.1607961E-1,7.932799E-1,-3.078258E-3,-9.297128E-5,-1.246279E-2,2.9945849E-2,8.175534E-3],"categories":[],"categories_nodes":[],"categories_segments":[],"categories_sizes":[],"default_left":[0,0,0,0,0,0,0,0,0,0,0],"id":66,"left_children":[1,3,5,-1,7,9,-1,-1,-1,-1,-1],"loss_changes":[5.9864373E0,2.738906E0,2.58139E0,0E0,2.4272156E0,4.5472145E-2,0E0,0E0,0E0,0E0,0E0],"parents":[2147483647,0,0,1,1,2,2,4,4,5,5],"right_children":[2,4,6,-1,8,10,-1,-1,-1,-1,-1],"split_conditions":[1.0818128E4,7.59086E-3,8.353222E0,2.2425434E-2,3.546879E3,7.5745583E0,-3.078258E-3,-9.297128E-5,-1.246279E-2,2.9945849E-2,8.175534E-3],"split_indices":[2,16,29,0,8,30,0,0,0,0,0],"split_type":[0,0,0,0,0,0,0,0,0,0,0],"sum_hessian":[1.0506846E2,9.030991E1,1.4758548E1,3.0753703E0,8.723454E1,1.0764132E1,3.994416E0,6.0611755E1,2.6622786E1,8.734289E0,2.0298421E0],"tree_param":{"num_deleted":"0","num_feature":"32","num_nodes":"11","size_leaf_vector":"1"}},{"base_weights":[-3.291075E-2,-1.0929898E-1,6.1091995E-1,-3.474443E-1,-2.2973852E-2,2.5704147E-2,7.0525496E-3,1.3804397E-3,-1.5711779E-2,-5.5449298E-3,6.5824944E-3],"categories":[],"categories_nodes":[],"categories_segments":[],"categories_sizes":[],"default_left":[0,0,0,0,0,0,0,0,0,0,0],"id":67,"left_children":[1,3,5,7,9,-1,-1,-1,-1,-1,-1],"loss_changes":[5.4571557E0,2.008185E0,2.998066E-1,1.0581484E0,2.186636E0,0E0,0E0,0E0,0E0,0E0,0E0],"parents":[2147483647,0,0,1,1,2,2,3,3,4,4],"right_children":[2,4,6,8,10,-1,-1,-1,-1,-1,-1],"split_conditions":[5.471566E-1,1.8078548E0,7.33149E-1,3.41E2,2.7928586E3,2.5704147E-2,7.0525496E-3,1.3804397E-3,-1.5711779E-2,-5.5449298E-3,6.5824944E-3],"split_indices":[14,5,15,28,4,0,0,0,0,0,0],"split_type":[0,0,0,0,0,0,0,0,0,0,0],"sum_hessian":[1.0624504E2,9.6460785E1,9.784258E0,2.4053814E1,7.2406975E1,6.2973685E0,3.4868891E0,5.251639E0,1.8802176E1,4.44054E1,2.8001574E1],"tree_param":{"num_deleted":"0","num_feature":"32","num_nodes":"11","size_leaf_vector":"1"}},{"base_weights":[1.4376716E-3,-1.2576109E-1,4.0959138E-1,-5.058025E-1,-4.1807603E-2,7.278631E-1,1.3671589E-1,-2.1716602E-2,-2.6455885E-3,-4.5254426E-3,1.6356247E-2,2.9368201E-2,5.3456803E-3,1.7332189E-2,-1.19763445E-2],"categories":[],"categories_nodes":[],"categories_segments":[],"categories_sizes":[],"default_left":[0,0,0,0,0,0,0,0,0,0,0,0,0,0,0],"id":68,"left_children":[1,3,5,7,9,11,13,-1,-1,-1,-1,-1,-1,-1,-1],"loss_changes":[5.5843163E0,2.5747364E0,2.0204062E0,6.294687E-1,3.2105486E0,4.6871567E-1,3.1237748E0,0E0,0E0,0E0,0E0,0E0,0E0,0E0,0E0],"parents":[2147483647,0,0,1,1,2,2,3,3,4,4,5,5,6,6],"right_children":[2,4,6,8,10,12,14,-1,-1,-1,-1,-1,-1,-1,-1],"split_conditions":[7.6939282E0,7.1268187E0,8.438965E0,7.0233626E0,4.248E3,4.336E3,2.362E3,-2.1716602E-2,-2.6455885E-3,-4.5254426E-3,1.6356247E-2,2.9368201E-2,5.3456803E-3,1.7332189E-2,-1.19763445E-2],"split_indices":[17,12,13,17,23,24,19,0,0,0,0,0,0,0,0],"split_type":[0,0,0,0,0,0,0,0,0,0,0,0,0,0,0],"sum_hessian":[1.03578766E2,8.002362E1,2.3555145E1,1.2660837E1,6.7362785E1,9.333795E0,1.4221351E1,9.298003E0,3.362834E0,5.8757706E1,8.605079E0,7.0520296E0,2.281765E0,8.094168E0,6.127183E0],"tree_param":{"num_deleted":"0","num_feature":"32","num_nodes":"15","size_leaf_vector":"1"}},{"base_weights":[-1.3402298E-2,-9.51503E-2,4.6162847E-1,-2.3141375E-1,1.4619406E-1,6.337245E-1,-6.29866E-3,-5.643983E-3,-2.6569521E-2,1.172915E-2,-9.369331E-3,3.0462673E-2,1.0156212E-2],"categories":[],"categories_nodes":[],"categories_segments":[],"categories_sizes":[],"default_left":[0,0,0,0,0,0,0,0,0,0,0,0,0],"id":69,"left_children":[1,3,5,7,9,11,-1,-1,-1,-1,-1,-1,-1],"loss_changes":[4.196049E0,3.090499E0,1.9808769E0,1.9588704E0,2.8688958E0,5.4842615E-1,0E0,0E0,0E0,0E0,0E0,0E0,0E0],"parents":[2147483647,0,0,1,1,2,2,3,3,4,4,5,5],"right_children":[2,4,6,8,10,12,-1,-1,-1,-1,-1,-1,-1],"split_conditions":[1.1048361E4,1.674E3,1.3254573E4,1.332E3,5.876E3,7.048808E3,-6.29866E-3,-5.643983E-3,-2.6569521E-2,1.172915E-2,-9.369331E-3,3.0462673E-2,1.0156212E-2],"split_indices":[2,23,8,23,19,8,0,0,0,0,0,0,0],"split_type":[0,0,0,0,0,0,0,0,0,0,0,0,0],"sum_hessian":[1.03791985E2,8.991749E1,1.3874499E1,5.7522484E1,3.2395E1,1.09593525E1,2.9151466E0,5.307728E1,4.4452057E0,2.2503607E1,9.891394E0,4.673379E0,6.2859735E0],"tree_param":{"num_deleted":"0","num_feature":"32","num_nodes":"13","size_leaf_vector":"1"}},{"base_weights":[9.140626E-3,-5.0304256E-2,3.0809073E-2,-4.362474E-1,2.6600614E-2,-4.0345206E-3,-2.0910168E-2,4.2771953E-3,-1.3520095E-2],"categories":[],"categories_nodes":[],"categories_segments":[],"categories_sizes":[],"default_left":[0,0,0,0,0,0,0,0,0],"id":70,"left_children":[1,3,-1,5,7,-1,-1,-1,-1],"loss_changes":[5.5469184E0,3.008087E0,0E0,7.327099E-1,3.4789777E0,0E0,0E0,0E0,0E0],"parents":[2147483647,0,0,1,1,3,3,4,4],"right_children":[2,4,-1,6,8,-1,-1,-1,-1],"split_conditions":[9.812915E-1,4.085112E3,3.0809073E-2,1.2199889E-1,6.13861E3,-4.0345206E-3,-2.0910168E-2,4.2771953E-3,-1.3520095E-2],"split_indices":[1,3,0,14,4,0,0,0,0],"split_type":[0,0,0,0,0,0,0,0,0],"sum_hessian":[1.0340717E2,9.856559E1,4.841581E0,1.4824496E1,8.37411E1,6.102557E0,8.721939E0,6.913975E1,1.4601348E1],"tree_param":{"num_deleted":"0","num_feature":"32","num_nodes":"9","size_leaf_vector":"1"}},{"base_weights":[-2.1554936E-2,-6.6276304E-2,2.7897745E-2,-1.0026236E-1,2.4001053E-2,-1.3773925E-2,-1.404983E-3],"categories":[],"categories_nodes":[],"categories_segments":[],"categories_sizes":[],"default_left":[0,0,0,0,0,0,0],"id":71,"left_children":[1,3,-1,5,-1,-1,-1],"loss_changes":[4.0266056E0,2.78018E0,0E0,1.7434458E0,0E0,0E0,0E0],"parents":[2147483647,0,0,1,1,3,3],"right_children":[2,4,-1,6,-1,-1,-1],"split_conditions":[9.8912245E-1,2.0098918E4,2.7897745E-2,4.085112E3,2.4001053E-2,-1.3773925E-2,-1.404983E-3],"split_indices":[1,3,0,3,0,0,0],"split_type":[0,0,0,0,0,0,0],"sum_hessian":[1.0509935E2,1.01398125E2,3.7012281E0,9.867219E1,2.7259378E0,1.4899133E1,8.3773056E1],"tree_param":{"num_deleted":"0","num_feature":"32","num_nodes":"7","size_leaf_vector":"1"}},{"base_weights":[1.9729488E-2,-3.2718726E-2,2.9400283E-2,-6.771619E-2,2.4021404E-2,2.23438E-3,-1.0076842E-2],"categories":[],"categories_nodes":[],"categories_segments":[],"categories_sizes":[],"default_left":[0,0,0,0,0,0,0],"id":72,"left_children":[1,3,-1,5,-1,-1,-1],"loss_changes":[4.466538E0,2.5667546E0,0E0,2.8049767E0,0E0,0E0,0E0],"parents":[2147483647,0,0,1,1,3,3],"right_children":[2,4,-1,6,-1,-1,-1],"split_conditions":[9.8676145E-1,2.0098918E4,2.9400283E-2,3.496877E3,2.4021404E-2,2.23438E-3,-1.0076842E-2],"split_indices":[1,3,0,8,0,0,0],"split_type":[0,0,0,0,0,0,0],"sum_hessian":[1.0054183E2,9.63044E1,4.237431E0,9.356218E1,2.7422247E0,5.9458553E1,3.4103622E1],"tree_param":{"num_deleted":"0","num_feature":"32","num_nodes":"7","size_leaf_vector":"1"}},{"base_weights":[1.1123405E-2,-7.1264185E-2,4.8448685E-1,-1.9154277E-2,-1.5639555E-2,7.0316595E-1,2.0316152E-2,-1.7599945E-3,2.2632416E-2,3.0998285E-3,3.198508E-2,1.123795E-2,-9.601862E-3],"categories":[],"categories_nodes":[],"categories_segments":[],"categories_sizes":[],"default_left":[0,0,0,0,0,0,0,0,0,0,0,0,0],"id":73,"left_children":[1,3,5,-1,7,9,11,-1,-1,-1,-1,-1,-1],"loss_changes":[4.101608E0,2.3609638E0,1.5533919E0,0E0,1.9574959E0,1.202271E0,8.0101365E-1,0E0,0E0,0E0,0E0,0E0,0E0],"parents":[2147483647,0,0,1,1,2,2,4,4,5,5,6,6],"right_children":[2,4,6,-1,8,10,12,-1,-1,-1,-1,-1,-1],"split_conditions":[1.0585169E1,1.6364E4,8.77193E0,-1.9154277E-2,9.873754E0,4.0812403E-1,4.664475E3,-1.7599945E-3,2.2632416E-2,3.0998285E-3,3.198508E-2,1.123795E-2,-9.601862E-3],"split_indices":[5,6,29,0,11,15,8,0,0,0,0,0,0],"split_type":[0,0,0,0,0,0,0,0,0,0,0,0,0],"sum_hessian":[1.0140077E2,8.781561E1,1.3585161E1,7.3386817E0,8.047693E1,8.53459E0,5.050571E0,7.823248E1,2.2444491E0,2.9040632E0,5.6305265E0,2.4105844E0,2.6399865E0],"tree_param":{"num_deleted":"0","num_feature":"32","num_nodes":"13","size_leaf_vector":"1"}},{"base_weights":[-1.8831534E-2,-9.262343E-2,6.0521543E-1,-2.8400806E-1,2.0883512E-2,2.8615179E-2,-3.5568252E-3,3.921039E-6,-1.4099657E-2,7.157111E-3,-5.9745E-3],"categories":[],"categories_nodes":[],"categories_segments":[],"categories_sizes":[],"default_left":[0,0,0,0,0,0,0,0,0,0,0],"id":74,"left_children":[1,3,5,7,9,-1,-1,-1,-1,-1,-1],"loss_changes":[4.92536E0,2.0800457E0,1.8650727E0,1.201452E0,2.2375004E0,0E0,0E0,0E0,0E0,0E0,0E0],"parents":[2147483647,0,0,1,1,2,2,3,3,4,4],"right_children":[2,4,6,8,10,-1,-1,-1,-1,-1,-1],"split_conditions":[8.606836E0,1.8521462E-1,2.408E3,4.6207867E0,3.496877E3,2.8615179E-2,-3.5568252E-3,3.921039E-6,-1.4099657E-2,7.157111E-3,-5.9745E-3],"split_indices":[17,14,24,17,8,0,0,0,0,0,0],"split_type":[0,0,0,0,0,0,0,0,0,0,0],"sum_hessian":[1.0252306E2,9.320497E1,9.318088E0,3.3580494E1,5.962448E1,6.9244037E0,2.3936837E0,1.049271E1,2.3087782E1,3.0377382E1,2.9247097E1],"tree_param":{"num_deleted":"0","num_feature":"32","num_nodes":"11","size_leaf_vector":"1"}},{"base_weights":[-1.844739E-2,2.8569352E-2,-6.5742195E-2,-9.8812796E-2,2.3314798E-2,-4.6443378E-4,-1.1177804E-2],"categories":[],"categories_nodes":[],"categories_segments":[],"categories_sizes":[],"default_left":[0,0,0,0,0,0,0],"id":75,"left_children":[1,-1,3,5,-1,-1,-1],"loss_changes":[4.245219E0,0E0,2.577346E0,1.8483924E0,0E0,0E0,0E0],"parents":[2147483647,0,0,2,2,3,3],"right_children":[2,-1,4,6,-1,-1,-1],"split_conditions":[7.59086E-3,2.8569352E-2,2.0098918E4,4.5834917E3,2.3314798E-2,-4.6443378E-4,-1.1177804E-2],"split_indices":[16,0,3,8,0,0,0],"split_type":[0,0,0,0,0,0,0],"sum_hessian":[1.02816055E2,3.7694836E0,9.904657E1,9.641974E1,2.6268349E0,7.100155E1,2.541819E1],"tree_param":{"num_deleted":"0","num_feature":"32","num_nodes":"7","size_leaf_vector":"1"}},{"base_weights":[3.4197483E-2,-4.961345E-2,5.074571E-1,-4.0322065E-1,3.0195314E-2,2.78137E-2,1.538366E-1,-2.1452826E-2,-3.7281197E-3,-4.5694975E-4,2.1764621E-2,-1.1062569E-2,2.1996748E-2],"categories":[],"categories_nodes":[],"categories_segments":[],"categories_sizes":[],"default_left":[0,0,0,0,0,0,0,0,0,0,0,0,0],"id":76,"left_children":[1,3,5,7,9,-1,11,-1,-1,-1,-1,-1,-1],"loss_changes":[4.0928483E0,2.5192544E0,1.3309612E0,8.9103246E-1,1.9095472E0,0E0,2.5010574E0,0E0,0E0,0E0,0E0,0E0,0E0],"parents":[2147483647,0,0,1,1,2,2,3,3,4,4,6,6],"right_children":[2,4,6,8,10,-1,12,-1,-1,-1,-1,-1,-1],"split_conditions":[1.0585169E1,1.3315311E3,3E0,6.76E3,6.535564E-1,2.78137E-2,7.35E2,-2.1452826E-2,-3.7281197E-3,-4.5694975E-4,2.1764621E-2,-1.1062569E-2,2.1996748E-2],"split_indices":[5,4,27,20,15,0,28,0,0,0,0,0,0],"split_type":[0,0,0,0,0,0,0,0,0,0,0,0,0],"sum_hessian":[9.991764E1,8.640607E1,1.3511571E1,1.4418337E1,7.198773E1,6.07929E0,7.4322815E0,7.198555E0,7.2197824E0,6.890639E1,3.081345E0,4.070512E0,3.36177E0],"tree_param":{"num_deleted":"0","num_feature":"32","num_nodes":"13","size_leaf_vector":"1"}},{"base_weights":[5.0551835E-2,1.3356147E-2,2.5928982E-2,7.926656E-2,-3.1665078E-1,4.381356E-4,1.7774211E-2,-3.4511052E-3,-1.6480092E-2],"categories":[],"categories_nodes":[],"categories_segments":[],"categories_sizes":[],"default_left":[0,0,0,0,0,0,0,0,0],"id":77,"left_children":[1,3,-1,5,7,-1,-1,-1,-1],"loss_changes":[2.5908399E0,2.1930218E0,0E0,2.3820722E0,4.7207522E-1,0E0,0E0,0E0,0E0],"parents":[2147483647,0,0,1,1,3,3,4,4],"right_children":[2,4,-1,6,8,-1,-1,-1,-1],"split_conditions":[9.8912245E-1,7.218E3,2.5928982E-2,4.248E3,5.54E2,4.381356E-4,1.7774211E-2,-3.4511052E-3,-1.6480092E-2],"split_indices":[1,19,0,23,28,0,0,0,0],"split_type":[0,0,0,0,0,0,0,0,0],"sum_hessian":[9.967863E1,9.651651E1,3.162116E0,8.171554E1,1.4800975E1,7.248466E1,9.230885E0,7.4896345E0,7.3113403E0],"tree_param":{"num_deleted":"0","num_feature":"32","num_nodes":"9","size_leaf_vector":"1"}},{"base_weights":[3.0419612E-2,-7.41788E-2,4.3700746E-1,-1.7688334E-1,2.2561017E-1,6.0114586E-1,4.7812667E-2,-1.3449732E-2,-1.2254264E-3,-5.9268125E-3,1.8604992E-2,-1.3029528E-3,2.4794426E-2,-9.136562E-3,1.0018651E-2],"categories":[],"categories_nodes":[],"categories_segments":[],"categories_sizes":[],"default_left":[0,0,0,0,0,0,0,0,0,0,0,0,0,0,0],"id":78,"left_children":[1,3,5,7,9,11,13,-1,-1,-1,-1,-1,-1,-1,-1],"loss_changes":[4.4165697E0,2.6383557E0,1.298593E0,1.8271854E0,2.848503E0,1.0633221E0,7.7317995E-1,0E0,0E0,0E0,0E0,0E0,0E0,0E0,0E0],"parents":[2147483647,0,0,1,1,2,2,3,3,4,4,5,5,6,6],"right_children":[2,4,6,8,10,12,14,-1,-1,-1,-1,-1,-1,-1,-1],"split_conditions":[6.885513E0,2.505E3,4E0,1.2795995E3,5.7666416E3,2E0,1.6174624E-2,-1.3449732E-2,-1.2254264E-3,-5.9268125E-3,1.8604992E-2,-1.3029528E-3,2.4794426E-2,-9.136562E-3,1.0018651E-2],"split_indices":[5,23,9,8,3,9,16,0,0,0,0,0,0,0,0],"split_type":[0,0,0,0,0,0,0,0,0,0,0,0,0,0,0],"sum_hessian":[1.003253E2,8.109738E1,1.922792E1,6.101443E1,2.008295E1,1.2758143E1,6.469777E0,2.3395853E1,3.7618576E1,9.156467E0,1.0926483E1,2.0232258E0,1.0734918E1,2.7360141E0,3.7337632E0],"tree_param":{"num_deleted":"0","num_feature":"32","num_nodes":"15","size_leaf_vector":"1"}},{"base_weights":[1.3044401E-2,-1.4497614E-1,2.4060577E-1,1.7583197E-2,-1.884587E-1,2.9451787E-1,-1.4993199E-2,-2.6887422E-3,-1.5941218E-2,2.2391813E-2,3.8776712E-3],"categories":[],"categories_nodes":[],"categories_segments":[],"categories_sizes":[],"default_left":[0,0,0,0,0,0,0,0,0,0,0],"id":79,"left_children":[1,3,5,-1,7,9,-1,-1,-1,-1,-1],"loss_changes":[3.7678185E0,1.9329232E0,1.799506E0,0E0,1.7035015E0,2.4515781E0,0E0,0E0,0E0,0E0,0E0],"parents":[2147483647,0,0,1,1,2,2,4,4,5,5],"right_children":[2,4,6,-1,8,10,-1,-1,-1,-1,-1],"split_conditions":[4.7242615E-1,2.2446733E2,4.067E3,1.7583197E-2,3.328744E3,5.449942E-1,-1.4993199E-2,-2.6887422E-3,-1.5941218E-2,2.2391813E-2,3.8776712E-3],"split_indices":[15,4,20,0,8,15,0,0,0,0,0],"split_type":[0,0,0,0,0,0,0,0,0,0,0],"sum_hessian":[1.00839806E2,5.9941647E1,4.089816E1,2.4443245E0,5.7497322E1,3.8884068E1,2.0140893E0,4.236112E1,1.5136204E1,1.1781237E1,2.7102833E1],"tree_param":{"num_deleted":"0","num_feature":"32","num_nodes":"11","size_leaf_vector":"1"}},{"base_weights":[2.218212E-2,-1.3385935E-1,2.4185011E-1,-3.0838087E-1,1.5177426E-1,2.6817063E-2,1.0129016E-1,-1.3510922E-2,1.4093619E-2,1.3893296E-2,-8.5000135E-3,-1.099892E-2,9.069612E-3],"categories":[],"categories_nodes":[],"categories_segments":[],"categories_sizes":[],"default_left":[0,0,0,0,0,0,0,0,0,0,0,0,0],"id":80,"left_children":[1,3,5,7,9,-1,11,-1,-1,-1,-1,-1,-1],"loss_changes":[3.5521832E0,3.1231112E0,3.0116806E0,2.4300592E0,2.552616E0,0E0,2.5365634E0,0E0,0E0,0E0,0E0,0E0,0E0],"parents":[2147483647,0,0,1,1,2,2,3,3,4,4,6,6],"right_children":[2,4,6,8,10,-1,12,-1,-1,-1,-1,-1,-1],"split_conditions":[4.6998432E-1,2.449E3,3.9401102E0,7.5290174E0,6.955E3,2.6817063E-2,4.9504952E0,-1.3510922E-2,1.4093619E-2,1.3893296E-2,-8.5000135E-3,-1.099892E-2,9.069612E-3],"split_indices":[15,23,29,17,19,0,29,0,0,0,0,0,0],"split_type":[0,0,0,0,0,0,0,0,0,0,0,0,0],"sum_hessian":[9.974178E1,5.8773327E1,4.096846E1,3.638369E1,2.2389635E1,6.7787066E0,3.4189754E1,3.362603E1,2.7576602E0,1.3802595E1,8.58704E0,8.866163E0,2.532359E1],"tree_param":{"num_deleted":"0","num_feature":"32","num_nodes":"13","size_leaf_vector":"1"}},{"base_weights":[1.7849557E-2,-1.5343639E-1,2.7100083E-1,-2.8877214E-1,7.388328E-2,3.920665E-1,-1.7049435E-1,-1.27668E-2,1.423681E-2,1.2567473E-2,-1.2707562E-2,-8.998033E-3,1.6390946E-2,-2.0578288E-2,6.70479E-3],"categories":[],"categories_nodes":[],"categories_segments":[],"categories_sizes":[],"default_left":[0,0,0,0,0,0,0,0,0,0,0,0,0,0,0],"id":81,"left_children":[1,3,5,7,9,11,13,-1,-1,-1,-1,-1,-1,-1,-1],"loss_changes":[4.5048404E0,1.9530755E0,2.3719192E0,2.3756757E0,3.346963E0,1.8973885E0,1.7980108E0,0E0,0E0,0E0,0E0,0E0,0E0,0E0,0E0],"parents":[2147483647,0,0,1,1,2,2,3,3,4,4,5,5,6,6],"right_children":[2,4,6,8,10,12,14,-1,-1,-1,-1,-1,-1,-1,-1],"split_conditions":[4.6998432E-1,2.449E3,2.362E3,7.5290174E0,6.955E3,4.2462354E3,2.614E3,-1.27668E-2,1.423681E-2,1.2567473E-2,-1.2707562E-2,-8.998033E-3,1.6390946E-2,-2.0578288E-2,6.70479E-3],"split_indices":[15,23,19,17,19,2,19,0,0,0,0,0,0,0,0],"split_type":[0,0,0,0,0,0,0,0,0,0,0,0,0,0,0],"sum_hessian":[9.9973015E1,6.009776E1,3.987525E1,3.7331577E1,2.2766184E1,3.1469643E1,8.405609E0,3.451197E1,2.819606E0,1.3991122E1,8.775062E0,2.8091557E0,2.8660488E1,3.3245614E0,5.081048E0],"tree_param":{"num_deleted":"0","num_feature":"32","num_nodes":"15","size_leaf_vector":"1"}},{"base_weights":[4.0259603E-2,-1.5741162E-1,1.5784305E-1,3.1557995E-1,-2.6895338E-1,1.5902426E-2,5.56387E-1,-8.3038295E-3,2.2658527E-2,-4.030717E-3,-2.1083247E-2,6.110732E-3,-1.3260677E-2,2.5712376E-2,3.592499E-3],"categories":[],"categories_nodes":[],"categories_segments":[],"categories_sizes":[],"default_left":[0,0,0,0,0,0,0,0,0,0,0,0,0,0,0],"id":82,"left_children":[1,3,5,7,9,11,13,-1,-1,-1,-1,-1,-1,-1,-1],"loss_changes":[2.4151037E0,2.2251756E0,3.6485856E0,1.8396828E0,1.533143E0,3.2551916E0,1.221045E0,0E0,0E0,0E0,0E0,0E0,0E0,0E0,0E0],"parents":[2147483647,0,0,1,1,2,2,3,3,4,4,5,5,6,6],"right_children":[2,4,6,8,10,12,14,-1,-1,-1,-1,-1,-1,-1,-1],"split_conditions":[7.0468056E-1,2E0,9.03E2,3.45E2,1.418E3,5.9E2,2.1972246E0,-8.3038295E-3,2.2658527E-2,-4.030717E-3,-2.1083247E-2,6.110732E-3,-1.3260677E-2,2.5712376E-2,3.592499E-3],"split_indices":[1,9,28,28,28,28,31,0,0,0,0,0,0,0,0],"split_type":[0,0,0,0,0,0,0,0,0,0,0,0,0,0,0],"sum_hessian":[9.976934E1,3.695922E1,6.281012E1,6.354505E0,3.0604715E1,4.78487E1,1.4961417E1,2.5971901E0,3.757315E0,2.2785738E1,7.8189764E0,3.492524E1,1.2923462E1,9.85269E0,5.108727E0],"tree_param":{"num_deleted":"0","num_feature":"32","num_nodes":"15","size_leaf_vector":"1"}},{"base_weights":[-1.2001037E-2,-8.6734354E-2,4.340479E-1,1.9493066E-2,-1.19046174E-1,6.804053E-1,-9.383943E-3,-1.7883647E-2,-2.0707077E-3,2.9063407E-2,4.3805838E-3],"categories":[],"categories_nodes":[],"categories_segments":[],"categories_sizes":[],"default_left":[0,0,0,0,0,0,0,0,0,0,0],"id":83,"left_children":[1,3,5,-1,7,9,-1,-1,-1,-1,-1],"loss_changes":[3.5488727E0,2.023528E0,3.0091372E0,0E0,2.0099516E0,7.8155994E-1,0E0,0E0,0E0,0E0,0E0],"parents":[2147483647,0,0,1,1,2,2,4,4,5,5],"right_children":[2,4,6,-1,8,10,-1,-1,-1,-1,-1],"split_conditions":[1.0941842E4,7.59086E-3,2.362E3,1.9493066E-2,1.6364E4,8.353222E0,-9.383943E-3,-1.7883647E-2,-2.0707077E-3,2.9063407E-2,4.3805838E-3],"split_indices":[2,16,19,0,6,29,0,0,0,0,0],"split_type":[0,0,0,0,0,0,0,0,0,0,0],"sum_hessian":[1.0220305E2,8.89166E1,1.3286443E1,2.6979527E0,8.621865E1,9.881443E0,3.4049995E0,9.430942E0,7.678771E1,6.999703E0,2.88174E0],"tree_param":{"num_deleted":"0","num_feature":"32","num_nodes":"11","size_leaf_vector":"1"}},{"base_weights":[1.0907884E-3,-9.908201E-2,3.4960943E-1,-3.8483107E-1,-1.4960127E-2,6.952006E-1,5.8879137E-2,-3.010439E-3,-2.621861E-2,-8.404759E-3,7.4580107E-3,2.6263285E-3,2.9165301E-2,-6.3847345E-3,2.3301039E-2],"categories":[],"categories_nodes":[],"categories_segments":[],"categories_sizes":[],"default_left":[0,0,0,0,0,0,0,0,0,0,0,0,0,0,0],"id":84,"left_children":[1,3,5,7,9,11,13,-1,-1,-1,-1,-1,-1,-1,-1],"loss_changes":[3.622479E0,1.9262167E0,2.2454703E0,1.8580143E0,3.407197E0,7.6545143E-1,2.405085E0,0E0,0E0,0E0,0E0,0E0,0E0,0E0,0E0],"parents":[2147483647,0,0,1,1,2,2,3,3,4,4,5,5,6,6],"right_children":[2,4,6,8,10,12,14,-1,-1,-1,-1,-1,-1,-1,-1],"split_conditions":[9.057133E3,1.655E3,8.765463E0,1.341E3,3.9881006E3,7.76E2,1.9413074E4,-3.010439E-3,-2.621861E-2,-8.404759E-3,7.4580107E-3,2.6263285E-3,2.9165301E-2,-6.3847345E-3,2.3301039E-2],"split_indices":[2,20,13,20,2,19,3,0,0,0,0,0,0,0,0],"split_type":[0,0,0,0,0,0,0,0,0,0,0,0,0,0,0],"sum_hessian":[9.9775604E1,7.8612E1,2.1163603E1,1.6253157E1,6.2358845E1,8.398208E0,1.2765395E1,1.028689E1,5.966267E0,3.1323534E1,3.1035309E1,2.0916445E0,6.306563E0,1.0134535E1,2.6308606E0],"tree_param":{"num_deleted":"0","num_feature":"32","num_nodes":"15","size_leaf_vector":"1"}},{"base_weights":[1.8534526E-2,5.1004946E-1,-5.50585E-2,-1.6698363E-1,8.7127924E-1,-1.1550177E-1,4.6821263E-1,-1.736787E-2,9.442656E-3,5.919702E-3,3.6504123E-2,7.3511642E-3,-5.952155E-3,4.568016E-4,2.6089346E-2],"categories":[],"categories_nodes":[],"categories_segments":[],"categories_sizes":[],"default_left":[0,0,0,0,0,0,0,0,0,0,0,0,0,0,0],"id":85,"left_children":[1,3,5,7,9,11,13,-1,-1,-1,-1,-1,-1,-1,-1],"loss_changes":[3.6911497E0,3.5392075E0,2.9297044E0,1.1736132E0,7.3007154E-1,1.5203261E0,1.1959786E0,0E0,0E0,0E0,0E0,0E0,0E0,0E0,0E0],"parents":[2147483647,0,0,1,1,2,2,3,3,4,4,5,5,6,6],"right_children":[2,4,6,8,10,12,14,-1,-1,-1,-1,-1,-1,-1,-1],"split_conditions":[3.4770515E0,1.7266299E-1,5.513618E-1,5.394806E2,7.91E2,1.306E3,1.0941842E4,-1.736787E-2,9.442656E-3,5.919702E-3,3.6504123E-2,7.3511642E-3,-5.952155E-3,4.568016E-4,2.6089346E-2],"split_indices":[29,14,14,8,28,20,2,0,0,0,0,0,0,0,0],